tree
version=v4
num_class=1
num_tree_per_iteration=1
label_index=0
max_feature_idx=6
objective=lambdarank
feature_names=condition_horse condition_rider fine_type skill speed hp power
feature_infos=[0:4] [0:4] [0:1] [0:4] [10:100] [10:100] [10:100]
tree_sizes=3401 3395 3401 3424 3413 3419 3415 3421 3426 3418 3432 3421 3429 3418 3407 3428 3433 3421 3424 3429 3424 3433 3433 3424 3425 3426 3436 3409 3414 3415 3419 3425 3433 3430 3435 3434 3420 3418 3423 3432 3428 3442 3420 3407 3442 3410 3415 3411 3432 3421 3420 3398 3418 3407 3404 3424 3422 3426 3413 3423 3425 3432 3415 3406 3426 3417 3408 3443 3419 3431 3418 3433 3406 3418 3424 3447 3409 3417 3423 3420 3406 3416 3413 3418 3419 3392 3383 3440 3411 3378 3379 3398 3427 3380 3404 3429 3378 3410 3392 3408

Tree=0
num_leaves=31
num_cat=0
split_feature=4 4 4 4 4 4 3 3 4 1 1 3 3 0 0 3 3 4 3 0 1 1 1 0 0 4 0 1 3 1
split_gain=10573.1 740.97 625.442 88.7315 80.0458 76.0189 75.3152 32.7536 31.997 31.536 29.4393 29.1334 38.2828 24.3294 21.9822 21.7875 37.6348 19.7245 19.6521 19.3244 12.7542 12.5356 12.3778 12.1573 11.0223 9.59056 8.64412 8.51738 8.1369 7.93467
threshold=38.500000000000007 55.500000000000007 26.500000000000004 19.500000000000004 68.500000000000014 46.500000000000007 2.5000000000000004 3.5000000000000004 31.500000000000004 3.5000000000000004 1.5000000000000002 2.5000000000000004 3.5000000000000004 2.5000000000000004 1.5000000000000002 2.5000000000000004 3.5000000000000004 32.500000000000007 2.5000000000000004 2.5000000000000004 2.5000000000000004 3.5000000000000004 1.5000000000000002 1.5000000000000002 1.5000000000000002 81.500000000000014 2.5000000000000004 3.5000000000000004 2.5000000000000004 1.5000000000000002
decision_type=2 2 2 2 2 2 2 2 2 2 2 2 2 2 2 2 2 2 2 2 2 2 2 2 2 2 2 2 2 2
left_child=2 5 3 15 19 9 8 22 29 18 -7 -5 -13 -12 -10 -1 -17 -9 23 27 -21 -16 -8 -2 -11 -6 -19 -3 -15 -4
right_child=1 4 6 11 25 10 7 17 14 24 13 12 -14 28 21 16 -18 26 -20 20 -22 -23 -24 -25 -26 -27 -28 -29 -30 -31
leaf_value=0.18621752575874487 -0.055312844159789737 -0.16103033950840856 0.084394082468062445 0.14882988375110759 -0.17238068977735604 -0.12149597736855783 -0.058393475312558729 0.080139411831659985 0.022614796545981183 -0.025736136897138412 -0.093836824246290862 0.057110924408049157 0.13906367837376718 -0.010952041926848901 0.065306088489749364 0.12206055529778095 0.18162114275068941 -0.021731427380358062 -0.073853429229904177 -0.13564633853713656 -0.088338567882939867 0.12582635454746507 0.0059225700989510421 -0.0054341780368800689 0.045079969246825953 -0.18911179929448027 0.047995935644743463 -0.12223383879990585 -0.066672697260924702 0.12172755765092409
leaf_weight=960.61067889817059 79.191546109970659 281.55787738761865 87.165408905595541 435.07968728803098 578.28898015199229 166.88446878152899 48.421390833798796 90.782550761476159 101.98831534851342 33.490066450554878 151.55608222726732 97.279484448488802 137.66263901349157 68.65358145814389 134.60326547222212 168.00693799834698 287.86163921747357 39.1030930490233 132.60138914734125 138.88838296337053 96.643728954717517 45.894482518546283 78.326567991636693 127.60832280525938 63.945936664007604 840.63987002987415 32.603238567709923 70.821227359119803 42.388938539661467 164.11304916115478
leaf_count=5288 1377 5505 1072 3662 11398 3088 813 1063 1472 562 2772 1255 1193 1093 1742 1656 1773 625 2391 2779 1804 457 1193 2014 851 16630 424 1389 746 1627
internal_value=0 -0.136072 0.134372 0.163491 -0.169437 -0.058779 0.0605487 0.0194537 0.0828173 -0.0294069 -0.0886541 0.133507 0.105131 -0.0677826 0.0597254 0.177674 0.159671 0.0491745 -0.0438031 -0.138411 -0.116235 0.0806943 -0.018648 -0.0245346 0.0207395 -0.182293 0.00997202 -0.153233 -0.0322226 0.108777
internal_weight=0 2873.16 2909.5 2086.5 2006.84 866.32 823.001 289.237 533.765 436.837 429.483 670.022 234.942 262.599 282.486 1416.48 455.869 162.489 339.401 587.911 235.532 180.498 126.748 206.8 97.436 1418.93 71.7063 352.379 111.043 251.278
internal_count=79714 54399 25315 14827 39505 14894 10488 4118 6370 7195 7699 6110 2448 4611 3671 8717 3429 2112 5782 11477 4583 2199 2006 3391 1413 28028 1049 6894 1839 2699
is_linear=0
shrinkage=0.1


Tree=1
num_leaves=31
num_cat=0
split_feature=4 4 4 0 4 1 4 4 6 4 4 1 0 3 4 3 3 1 1 0 1 1 4 3 3 6 3 3 1 4
split_gain=11480.9 2062.8 1262.52 311.77 178.031 176.942 144.69 129.695 112.407 79.2129 75.3625 70.5996 66.5527 60.8013 60.059 56.0524 71.8132 53.2904 52.8039 43.1984 43.2289 39.8813 38.6711 36.9861 50.9759 36.0207 34.5974 46.157 34.4299 33.948
threshold=34.500000000000007 15.500000000000002 60.500000000000007 1.5000000000000002 78.500000000000014 2.5000000000000004 12.500000000000002 43.500000000000007 62.500000000000007 23.500000000000004 27.500000000000004 2.5000000000000004 1.5000000000000002 2.5000000000000004 23.500000000000004 2.5000000000000004 3.5000000000000004 1.5000000000000002 1.5000000000000002 1.5000000000000002 3.5000000000000004 2.5000000000000004 22.500000000000004 2.5000000000000004 3.5000000000000004 53.500000000000007 2.5000000000000004 3.5000000000000004 3.5000000000000004 25.500000000000004
decision_type=2 2 2 2 2 2 2 2 2 2 2 2 2 2 2 2 2 2 2 2 2 2 2 2 2 2 2 2 2 2
left_child=1 6 7 8 19 9 15 18 11 25 23 22 17 28 -10 -1 -17 -8 -2 -4 -21 -6 -3 -7 -25 -5 -14 -28 -9 -13
right_child=2 3 4 5 21 10 12 13 14 -11 -12 29 26 -15 -16 16 -18 -19 -20 20 -22 -23 -24 24 -26 -27 27 -29 -30 -31
leaf_value=0.15477250137339954 -0.052554041203775687 -0.010813013193884623 -0.12852363750817564 0.030537876681161286 -0.16297275179463211 0.098039105333541501 0.047277501810871425 -0.06157965910290214 0.049979772191635477 0.011243623251660341 0.038786094127784505 0.031525551289913259 0.1313379747694555 -0.08793655451432833 0.0030568996095667609 0.069293502982398655 0.14365505838308576 0.10303952294498234 -0.013513298753895044 -0.10767710165347247 -0.060141766284361575 -0.13503291831424599 -0.053684568742643518 0.013755214395566668 0.088148302835200032 0.06393392479827624 0.041401096662498915 0.11997821368407265 -0.021421327150251954 -0.018902386317140973
leaf_weight=1429.7215771824121 547.33772431500256 453.97369475290179 746.72711863741279 589.47864382714033 1291.3909069001675 910.68690904229879 275.91781371831894 963.84257697220892 644.90018931776285 983.28501014783978 433.14518657512963 390.88215517625213 832.75548933446407 808.94292594771832 472.73268935643137 199.38313535600901 372.50061522424221 452.37423054873943 943.87484676390886 903.91279492154717 242.67243974562734 845.28249492589384 392.14861483685672 143.21435393020511 258.11611767113209 714.36071123927832 113.42690826952457 219.26885986328125 274.23808380309492 202.73791008628905
leaf_count=1592 3140 899 6396 1155 11657 1529 430 6951 1184 3411 1462 775 968 6057 1647 506 514 634 4754 7668 1909 7575 1471 531 517 1277 300 321 1736 748
internal_value=0 0.0677522 -0.0938639 0.0336498 -0.132134 0.0509722 0.125442 -0.0502745 0.00633714 0.0326738 0.0749531 -0.0121345 0.105628 -0.0666154 0.0301325 0.144189 0.117729 0.0819137 -0.0278429 -0.109806 -0.0976163 -0.15192 -0.0306825 0.0868932 0.0616012 0.0488352 0.120448 0.0931887 -0.0526845 0.014303
internal_weight=0 10485 7568.22 6589.66 4029.99 4032.29 3895.35 3538.24 2557.38 2287.12 1745.16 1439.74 1893.74 2047.02 1117.63 2001.61 571.884 728.292 1491.21 1893.31 1146.59 2136.67 846.122 1312.02 401.33 1303.84 1165.45 332.696 1238.08 593.62
internal_count=79714 21871 57843 16606 35205 9882 5265 22638 6724 5843 4039 3893 2653 14744 2831 2612 1020 1064 7894 15973 9577 19232 2370 2577 1048 2432 1589 621 8687 1523
is_linear=0
shrinkage=0.1


Tree=2
num_leaves=31
num_cat=0
split_feature=4 4 4 3 3 4 3 0 3 4 4 4 1 1 4 3 3 4 0 1 0 6 1 3 0 1 0 6 4 1
split_gain=9919.26 1109.5 994.616 216.738 263.008 183.546 97.0583 95.6258 79.0264 61.0778 58.1965 55.3649 50.3798 47.9702 44.6361 38.2539 37.4352 33.6123 33.5947 33.5337 32.8281 29.99 29.3779 28.8473 28.7808 27.112 25.993 23.8175 22.8127 22.7874
threshold=32.500000000000007 52.500000000000007 20.500000000000004 2.5000000000000004 3.5000000000000004 73.500000000000014 2.5000000000000004 2.5000000000000004 3.5000000000000004 17.500000000000004 28.500000000000004 41.500000000000007 1.5000000000000002 1.5000000000000002 14.500000000000002 2.5000000000000004 2.5000000000000004 13.500000000000002 3.5000000000000004 3.5000000000000004 2.5000000000000004 75.500000000000014 1.5000000000000002 2.5000000000000004 3.5000000000000004 2.5000000000000004 2.5000000000000004 49.500000000000007 41.500000000000007 1.5000000000000002
decision_type=2 2 2 2 2 2 2 2 2 2 2 2 2 2 2 2 2 2 2 2 2 2 2 2 2 2 2 2 2 2
left_child=2 7 3 9 17 13 10 11 -8 12 19 15 26 -3 -6 21 28 27 23 -4 -7 -2 -10 -15 -24 -22 -1 -5 -9 -13
right_child=1 5 6 4 14 20 8 16 22 -11 -12 29 -14 18 -16 -17 -18 -19 -20 -21 25 -23 24 -25 -26 -27 -28 -29 -30 -31
leaf_value=0.092261548402894467 -0.034809706048577894 -0.1150656058185805 0.044437739471390077 0.012145298081650061 0.12199990092328486 -0.14676104172714485 -0.028077565557539187 0.012662945295588727 -0.00082209672108540148 0.090810570564516302 0.015409040963203433 -0.093919185962227286 0.13367338864053518 -0.078574347574692963 0.080671394419986719 -0.064623033366595362 -0.039467787417709746 0.0011820945678191568 -0.053426549108294835 0.078637403568250122 -0.13671114607745066 0.016825955890395726 0.028601977820056641 -0.1131445143413673 0.089880536833953112 -0.10180644635358399 0.12442897176030571 0.073537327017067416 -0.021322942363416975 -0.058792757780249442
leaf_weight=605.35659039020538 374.46850163117051 805.75432879477739 1154.02093411237 107.58229120075703 560.10070052370429 1367.0873436871916 418.65139891952276 423.44833634793758 230.07052575424314 755.7349498309195 565.48482795245945 299.518360638991 1675.5710354186594 598.78958762995899 489.9060526303947 285.58395197242498 443.30818955413997 364.47465474158525 281.68267965130508 381.48353861272335 539.53642986528575 160.77190354466438 308.81010833010077 404.40026910603046 101.94845885783434 378.74695945624262 429.38132455199957 153.15795463323593 370.15367055870593 481.69676929712296
leaf_count=1041 2008 7471 3359 293 875 14214 2064 1911 829 1607 2168 2339 2517 5165 1065 1851 2858 1186 2247 864 5674 778 1003 3614 257 3740 655 363 2259 3439
internal_value=0 -0.0857646 0.0745371 0.101675 0.072142 -0.11735 0.0303899 -0.0370782 0.00571215 0.11595 0.0428344 -0.0532047 0.122959 -0.0959373 0.102717 -0.0350688 -0.0161912 0.0207933 -0.0839418 0.0529344 -0.136938 -0.0192997 0.0277868 -0.0925101 0.043811 -0.122315 0.10561 0.0482068 -0.00318883 -0.0722603
internal_weight=0 7214.95 8301.74 5141.27 1675.22 4376 3160.47 2838.95 1059.48 3466.04 2100.99 1602.04 2710.31 2090.63 1050.01 820.824 1236.91 625.215 1284.87 1535.5 2285.37 535.24 640.829 1003.19 410.759 918.283 1034.74 260.74 793.602 781.215
internal_count=79714 59568 20146 9602 3782 42125 10544 17443 4153 5820 6391 10415 4213 18497 1940 4637 7028 1842 11026 4223 23628 2786 2089 8779 1260 9414 1696 656 4170 5778
is_linear=0
shrinkage=0.1


Tree=3
num_leaves=31
num_cat=0
split_feature=4 4 4 4 0 1 3 3 4 0 4 3 3 1 3 4 0 0 1 1 3 3 6 1 0 6 5 4 6 0
split_gain=7567.98 907.196 658.716 150.762 85.0578 81.6068 75.4593 83.4669 67.7686 58.5014 56.1774 54.3243 57.6282 35.9443 35.6375 35.3762 32.127 31.7523 30.5625 28.0394 26.0365 25.5307 24.4041 23.1332 22.5506 22.1423 19.9021 18.1859 16.5399 16.2966
threshold=35.500000000000007 22.500000000000004 59.500000000000007 13.500000000000002 3.5000000000000004 1.5000000000000002 2.5000000000000004 3.5000000000000004 69.500000000000014 3.5000000000000004 49.500000000000007 2.5000000000000004 3.5000000000000004 1.0000000180025095e-35 2.5000000000000004 28.500000000000004 2.5000000000000004 1.5000000000000002 3.5000000000000004 3.5000000000000004 2.5000000000000004 3.5000000000000004 54.500000000000007 1.0000000180025095e-35 3.5000000000000004 53.500000000000007 13.500000000000002 45.500000000000007 48.500000000000007 1.0000000180025095e-35
decision_type=2 2 2 2 2 2 2 2 2 2 2 2 2 2 2 2 2 2 2 2 2 2 2 2 2 2 2 2 2 2
left_child=1 3 4 11 10 15 16 -8 -4 14 13 24 -13 -2 25 -3 23 -10 27 -19 22 -16 -15 -5 -1 -7 -14 -6 -11 -12
right_child=2 5 8 6 18 9 7 -9 17 28 29 12 26 20 21 -17 -18 19 -20 -21 -22 -23 -24 -25 -26 -27 -28 -29 -30 -31
leaf_value=0.11488506547995143 -0.079958452025235827 0.012341157051191216 -0.091845950175581559 0.045012384380162127 -0.0097228832932280546 0.015338994757481789 0.015541103435131876 0.074588789186915791 -0.13870886431424712 0.039965333250900265 -0.1069055169077525 0.046122454381203673 -0.016303491256315653 -0.046583249524646486 -0.031518350329584555 -0.025865888523131864 0.10008574094078129 -0.12206537022625517 0.020709795694686069 -0.087703655804233616 -0.058389314134316694 0.017189520483854966 -0.0095811604421191972 0.081554242470465568 0.14613751199425282 0.046192132862187082 0.11199881139539719 -0.049293958288482272 0.080092664680087966 -0.07219693084110855
leaf_weight=1049.8273359760642 261.07913281302899 521.53707513771951 898.86844859644771 208.8308697193861 231.71893794834614 439.73439821228385 377.37465344183147 654.71937233954668 913.34033866412938 177.82307758927345 177.21909842826426 228.4882669262588 12.450980588793753 339.58759318292141 182.02385478466749 452.68784818984568 915.74693614989519 1129.6023122128099 163.54155983403325 300.68906667735428 426.20934697240591 263.24250772036612 375.15072207152843 1016.5760643780231 295.97417125850916 493.83304155617952 417.14882082492113 232.84040036983788 243.20945277065039 571.5922642769292
leaf_count=1691 2047 2070 8919 554 1424 1647 1508 1608 10977 618 1692 656 24 2305 1068 2446 1894 12927 898 3255 3174 1097 2346 2286 424 1680 676 1902 783 5118
internal_value=0 0.0640447 -0.0845702 0.0887705 -0.048843 0.0179004 0.0752096 0.0529986 -0.11519 0.0305191 -0.0582972 0.110245 0.0866991 -0.0464863 0.0205567 -0.00541231 0.085916 -0.124143 -0.0164682 -0.114842 -0.038827 -0.00272214 -0.0271617 0.0753269 0.121758 0.0316595 0.10828 -0.0295562 0.0631449 -0.0804113
internal_weight=0 7951.23 6021.44 5177.14 2778.94 2774.09 3173.25 1032.09 3242.5 1799.87 2150.84 2003.89 658.088 1402.03 1378.83 974.225 2141.15 2343.63 628.101 1430.29 1140.95 445.266 714.738 1225.41 1345.8 933.567 429.6 464.559 421.033 748.811
internal_count=79714 22730 56984 11321 20906 11409 7850 3116 36078 6893 16682 3471 1356 9872 5492 4516 4734 27159 4224 16182 7825 2165 4651 2840 2115 3327 700 3326 1401 6810
is_linear=0
shrinkage=0.1


Tree=4
num_leaves=31
num_cat=0
split_feature=4 4 4 4 4 4 4 3 3 0 3 3 3 1 3 1 0 3 3 1 1 1 0 1 6 1 0 6 0 3
split_gain=5900.33 642.388 616.804 149.178 108.56 59.5712 58.1878 54.7152 60.5294 50.2578 37.2396 35.1525 60.1128 34.645 30.7459 26.3192 23.3255 22.7751 20.8147 20.7903 19.7429 19.1752 18.9894 18.2522 18.2479 17.5825 17.3198 17.2956 16.9211 16.8595
threshold=33.500000000000007 59.500000000000007 17.500000000000004 26.500000000000004 41.500000000000007 11.500000000000002 75.500000000000014 2.5000000000000004 3.5000000000000004 1.5000000000000002 2.5000000000000004 2.5000000000000004 3.5000000000000004 2.5000000000000004 2.5000000000000004 3.5000000000000004 1.0000000180025095e-35 2.5000000000000004 3.5000000000000004 2.5000000000000004 3.5000000000000004 3.5000000000000004 1.0000000180025095e-35 3.5000000000000004 51.500000000000007 3.5000000000000004 2.5000000000000004 72.500000000000014 3.5000000000000004 2.5000000000000004
decision_type=2 2 2 2 2 2 2 2 2 2 2 2 2 2 2 2 2 2 2 2 2 2 2 2 2 2 2 2 2 2
left_child=2 4 5 7 13 17 20 15 26 -6 16 27 28 -2 25 24 -5 -1 -19 -8 -3 -10 -15 -18 -4 -11 -9 -7 -13 -24
right_child=1 6 3 10 9 11 19 8 21 14 -12 12 -14 22 -16 -17 23 18 -20 -21 -22 -23 29 -25 -26 -27 -28 -29 -30 -31
leaf_value=0.12540192951260473 -0.032132119486109473 -0.098014642991363796 0.038166769116704045 -0.016430824169895577 -0.078052847684849491 0.086071203862554138 -0.12911915417158179 -0.028215250559711677 0.038152520962875386 -0.039286829670571351 -0.016883740146472325 0.015247216148816143 0.088122820868657942 -0.042211774134174332 -0.064575130738453917 0.082464773718006479 0.017461700061171839 0.057950402530845171 0.11186038001722826 -0.10642206079254815 -0.067644786548354416 0.08434645632556402 0.026123919113469913 0.054895665817396092 0.062647814799324408 -0.0018721219881973929 0.019237897680062 0.10846972200251487 0.074595380538000564 -0.017536597203407549
leaf_weight=641.00694775953889 614.45119159296155 970.26287459768355 527.49552276730537 154.13153809309006 667.30075074452907 1039.8839989230037 990.52379758935422 172.94957826286554 377.59750409424305 528.76789350900799 439.76697759889066 205.12691250815988 487.13676379621029 76.075679432600737 424.29523505736142 376.46508675813675 541.15264331735671 112.05877169594169 198.46206077933311 681.05279549397528 274.6469463435933 117.92468613758683 277.61670077964664 171.5398459918797 720.16380197554827 164.73208191432059 138.51850204356015 515.71544271707535 62.733373016119003 129.79378383420408
leaf_count=1074 4182 11334 1709 767 6372 2119 13246 927 1235 4374 2400 789 1072 534 3841 947 2380 339 339 8644 2854 320 1396 601 2081 1092 653 1020 203 870
internal_value=0 -0.0745919 0.0618011 0.0340694 -0.0411179 0.0935759 -0.107682 0.0487153 0.0274326 -0.0563363 0.00681837 0.0849039 0.0671991 -0.0163749 -0.0433719 0.0592902 0.0188432 0.114634 0.0924057 -0.119872 -0.0913146 0.0491458 0.00365058 0.0264718 0.0522975 -0.0303994 -0.00711152 0.0934968 0.0291467 0.0122144
internal_weight=0 5799.52 6999.83 3737.71 2883.03 3262.12 2916.49 2431.11 806.99 1785.1 1306.59 2310.6 754.997 1097.94 1117.8 1624.12 866.824 951.528 310.521 1671.58 1244.91 495.522 483.486 712.692 1247.66 693.5 311.468 1555.6 267.86 407.41
internal_count=79714 58739 20975 14020 22661 6955 36078 7872 3135 15679 6148 5203 2064 6982 9307 4737 3748 1752 678 21890 14188 1555 2800 2981 3790 5466 1580 3139 992 2266
is_linear=0
shrinkage=0.1


Tree=5
num_leaves=31
num_cat=0
split_feature=4 4 4 4 4 4 1 3 3 1 0 0 1 3 3 0 1 3 3 4 1 0 3 1 6 0 5 3 6 0
split_gain=4791.5 645.027 403.722 168.089 61.3449 47.9163 46.3392 43.12 46.9754 38.2509 32.9855 30.7616 24.6518 24.1456 28.568 22.8174 21.795 21.1961 17.0713 16.8454 16.4446 16.401 16.1414 18.5994 15.8606 15.4802 15.1728 14.7992 14.5167 13.7483
threshold=36.500000000000007 23.500000000000004 57.500000000000007 15.500000000000002 77.500000000000014 44.500000000000007 2.5000000000000004 2.5000000000000004 3.5000000000000004 1.5000000000000002 3.5000000000000004 3.5000000000000004 1.5000000000000002 2.5000000000000004 3.5000000000000004 2.5000000000000004 1.5000000000000002 2.5000000000000004 2.5000000000000004 27.500000000000004 3.5000000000000004 2.5000000000000004 2.5000000000000004 1.0000000180025095e-35 40.500000000000007 1.5000000000000002 65.500000000000014 3.5000000000000004 75.500000000000014 1.5000000000000002
decision_type=2 2 2 2 2 2 2 2 2 2 2 2 2 2 2 2 2 2 2 2 2 2 2 2 2 2 2 2 2 2
left_child=1 3 5 6 10 12 13 11 -9 17 22 19 -2 -1 26 24 -7 -5 -14 -3 -12 -8 23 -4 -11 -6 -15 -19 -21 -25
right_child=2 7 4 9 25 16 21 8 -10 15 20 -13 18 14 -16 -17 -18 27 -20 28 -22 -23 -24 29 -26 -27 -28 -29 -30 -31
leaf_value=0.091312875045691994 -0.047337856607298591 0.02787665924828351 -0.11790935872921648 0.049450132487932424 -0.12894855906442812 -0.073756207171652918 0.099296973364606675 -0.037550153777892996 0.012323136750906641 0.032837180859175967 -0.070772177604302072 0.04677649876756558 -0.0015509256695412385 0.0066922176947818157 0.082376941296173428 0.080300051453745955 -0.045550431348931775 -0.013471532989736711 -0.036682509453924844 -0.0063834683969696514 -0.018624232898363079 0.12554817848723815 -0.1089377860512564 -0.092622269237731897 0.063791152265305989 -0.10706252153997482 0.066401587947774496 0.034478265795116966 0.023422405718135614 -0.060952448084466072
leaf_weight=947.16123478859663 341.21290645655245 451.38919008523226 132.73877885844558 566.88900347799063 524.65900710131973 435.53668334335089 564.4205707795918 327.17760848253965 446.71653515845537 238.23072375357151 235.64518737141043 339.06644073501229 397.66233666893095 102.0803752169013 301.36892886459827 598.30192593112588 738.43985186889768 107.1337674073875 212.08158488757908 498.99018543213606 81.346043340861797 411.52025961503386 436.94971066899598 264.29001678805798 542.46124728769064 841.56061610206962 72.986362710595131 161.2455678358674 242.97009735926986 284.77428170386702
leaf_count=1942 2839 1690 1774 1719 8125 4550 1211 2268 2279 817 2806 1352 2612 390 644 1696 6701 519 1663 2712 746 848 5592 3378 1638 12028 230 536 1108 3301
internal_value=0 0.0536614 -0.0753705 0.0752469 -0.100299 -0.0424995 0.0935823 0.0104793 -0.00876169 0.0553772 -0.0858652 0.0201964 -0.0258148 0.0820762 0.0637135 0.0656063 -0.0560146 0.0384894 -0.0137704 0.0126441 -0.05739 0.110366 -0.0939335 -0.0843176 0.0543454 -0.115467 0.0315854 0.0153373 0.00337708 -0.0761966
internal_weight=0 6920.11 4926.9 4613.8 2801.96 2124.93 2399.54 2306.31 773.894 2214.26 1435.74 1532.42 950.957 1423.6 476.436 1378.99 1173.98 835.268 609.744 1193.35 316.991 975.941 1118.75 681.803 780.692 1366.22 175.067 268.379 741.96 549.064
internal_count=79714 23599 56115 12190 37750 18365 5265 11409 4547 6925 17597 6862 7114 3206 1264 4151 11251 2774 4275 5510 3552 2059 14045 8453 2455 20153 620 1055 3820 6679
is_linear=0
shrinkage=0.1


Tree=6
num_leaves=31
num_cat=0
split_feature=4 4 4 4 4 0 1 3 3 1 3 3 0 0 0 3 4 6 0 3 3 4 1 3 6 3 4 6 6 4
split_gain=3897.64 599.115 316.366 86.9091 61.7771 51.5085 38.6112 31.0387 61.0725 28.9958 28.0788 27.1335 26.5215 24.5546 23.6859 23.0581 21.3066 21.0042 20.7426 19.9115 17.8269 15.9489 15.3419 15.1284 15.0235 13.304 13.1981 13.0328 12.9839 12.32
threshold=30.500000000000004 51.500000000000007 19.500000000000004 67.500000000000014 14.500000000000002 1.5000000000000002 2.5000000000000004 2.5000000000000004 3.5000000000000004 3.5000000000000004 2.5000000000000004 3.5000000000000004 2.5000000000000004 1.5000000000000002 1.5000000000000002 2.5000000000000004 88.500000000000014 54.500000000000007 1.5000000000000002 2.5000000000000004 2.5000000000000004 40.500000000000007 3.5000000000000004 3.5000000000000004 69.500000000000014 3.5000000000000004 11.500000000000002 19.500000000000004 41.500000000000007 42.500000000000007
decision_type=2 2 2 2 2 2 2 2 2 2 2 2 2 2 2 2 2 2 2 2 2 2 2 2 2 2 2 2 2 2
left_child=2 5 4 13 7 15 14 18 28 17 -6 -12 -5 -3 -4 29 22 21 -1 -15 -19 -7 -14 -22 -8 -17 -20 -13 -9 -2
right_child=1 3 6 12 10 9 24 8 -10 -11 11 27 16 19 -16 25 -18 20 26 -21 23 -23 -24 -25 -26 -27 -28 -29 -30 -31
leaf_value=0.082468567451512334 -0.019415609594607003 -0.0875662507492454 -0.0004098212722682502 -0.113916654380538 0.071908859007914813 -0.01878097693974777 0.034534329446955662 -0.0048960580642806823 0.095200909351987467 0.012788616014076741 0.011027968345966525 0.0016262030648659482 -0.087133277554196142 -0.04491468723789635 0.028181773376031991 -0.08517099772544047 -0.11247450743848741 0.0057973266660233747 0.12415799511567538 -0.078738920335482576 -0.059617029456552076 -0.052805197759036561 -0.045945620373808629 -0.0054941285174616968 0.059557419130519533 -0.044534449481652236 0.097723266718740376 0.067495682692911604 0.046368470075482698 -0.051131525905694732
leaf_weight=491.97356293909252 364.95301177632064 442.4857132518664 466.51743008941412 1067.0550943664275 993.15301797538996 314.95606472436339 670.36847223993391 72.00119487196207 393.31649716198444 359.05162416771054 174.68466142192483 33.708957135677338 393.99206632282585 457.68243383709341 764.65157679095864 152.62519104685634 268.3226086422801 392.64147376921028 323.08090703934431 280.82743364432827 95.730784751474857 244.89284645300359 117.38039894914255 112.14634028915316 373.67662439122796 170.64073846675456 454.66060275584459 275.81400978565216 157.42588629946113 184.34284378495067
leaf_count=1074 2536 5630 2326 17342 2612 2097 2607 292 875 2197 822 113 5805 5012 3329 1484 4204 2645 638 3425 916 2259 1517 900 1366 1502 964 785 542 1898
internal_value=0 -0.0605723 0.0581547 -0.0901242 0.077607 -0.0231658 0.029344 0.08957 0.0712832 -0.0120454 0.0622827 0.0425385 -0.103673 -0.068938 0.0173478 -0.0425301 -0.0896535 -0.0197298 0.0985389 -0.0577768 -0.00673928 -0.0336641 -0.0776791 -0.0304186 0.0434904 -0.0637204 0.108704 0.0603221 0.0302801 -0.0300594
internal_weight=0 5419.73 5645.03 3027.75 3369.82 2391.98 2275.21 1892.46 622.744 1519.42 1477.36 484.208 1846.75 1181 1231.17 872.562 779.695 1160.37 1269.72 738.51 600.519 559.849 511.372 207.877 1044.05 323.266 777.742 309.523 229.427 549.296
internal_count=79714 61369 18345 42935 8717 18434 9628 4385 1709 11014 4332 1720 28868 14067 5655 7420 11526 8817 2676 8437 4461 4356 7322 1816 3973 2986 1602 898 834 4434
is_linear=0
shrinkage=0.1


Tree=7
num_leaves=31
num_cat=0
split_feature=4 4 4 4 4 1 3 3 0 1 1 1 0 4 6 6 0 4 6 3 3 1 3 0 1 3 0 3 3 5
split_gain=3221.69 391.293 352.459 110.471 58.9582 43.87 41.5552 35.6854 35.6535 32.5241 30.0849 26.8296 25.6483 24.9212 20.3778 17.0521 14.9947 14.8772 14.5336 14.3224 14.357 13.9914 13.8695 13.1706 13.105 12.4009 12.5544 11.1296 14.6616 11.1247
threshold=34.500000000000007 23.500000000000004 54.500000000000007 15.500000000000002 82.500000000000014 1.5000000000000002 2.5000000000000004 3.5000000000000004 3.5000000000000004 1.5000000000000002 2.5000000000000004 2.5000000000000004 2.5000000000000004 11.500000000000002 43.500000000000007 52.500000000000007 3.5000000000000004 39.500000000000007 74.500000000000014 2.5000000000000004 3.5000000000000004 2.5000000000000004 2.5000000000000004 2.5000000000000004 2.5000000000000004 2.5000000000000004 2.5000000000000004 2.5000000000000004 3.5000000000000004 31.500000000000004
decision_type=2 2 2 2 2 2 2 2 2 2 2 2 2 2 2 2 2 2 2 2 2 2 2 2 2 2 2 2 2 2
left_child=1 3 8 9 10 23 15 29 11 14 16 19 -7 -11 25 21 -4 -13 -9 -2 -21 -5 -12 -3 -6 26 -1 -15 -29 -8
right_child=2 5 4 6 24 12 7 18 -10 13 22 17 -14 27 -16 -17 -18 -19 -20 20 -22 -23 -24 -25 -26 -27 -28 28 -30 -31
leaf_value=0.037104908433327727 -0.040675582393646138 -0.023063702207083966 -0.095554901592584951 0.032091725861419895 -0.11975955580070925 0.008823850080376814 -0.040695910100092762 0.034332603605367516 -0.0069033205145489183 0.11062472477519161 -0.050799840786957762 -0.00059292001107231292 0.038306872789993583 0.089532480283558424 0.077947608939068769 0.069209109007519101 -0.065274532971872121 -0.033808089110739896 0.074887398633878652 -0.089403958235143147 -0.046977547847851409 0.063898035120737093 -0.079265463996602517 0.0059494475008062282 -0.094825695584376785 0.014186061817706262 0.088563354287809704 0.034514281049852824 0.083017202688349764 0.010140187788082577
leaf_weight=111.46998996287584 528.24598532076925 370.62211398407817 753.24816068867221 313.18504710868001 511.61034835875034 682.45569678768516 54.942270010709763 289.91779499128461 446.1093646530062 456.2904813811183 437.45581118483096 194.99164690636098 519.80034742411226 551.1572376973927 525.35868608951569 747.03546153753996 208.88769836444408 437.20153011567891 127.10950104892254 154.49407002795488 164.88837594166398 247.68257749825716 281.19094673264772 270.7788820527494 358.50595718668774 90.635266602039337 82.501294627785683 100.54836267232895 163.93098990246654 198.82540782354772
leaf_count=290 4944 2284 11778 1154 9573 3523 304 1010 3526 1039 5878 1365 2335 1274 1346 2271 2956 4177 400 1703 1746 759 4016 1539 6181 309 197 389 421 1027
internal_value=0 0.0485092 -0.0639761 0.0658558 -0.0883566 0.0103039 0.048937 0.0287014 -0.0316841 0.0819359 -0.0774181 -0.0391545 0.021571 0.0919101 0.0662731 0.0593154 -0.0889808 -0.0235633 0.0466937 -0.050783 -0.0675004 0.0461376 -0.0619378 -0.0108153 -0.109486 0.0447229 0.0589916 0.0814406 0.0645776 -0.000866141
internal_weight=0 5904.25 4476.83 4060.59 2550.9 1843.66 1978.7 670.795 1925.93 2081.89 1680.78 1479.82 1202.26 1271.93 809.965 1307.9 962.136 632.193 417.027 847.628 319.382 560.868 718.647 641.401 870.116 284.607 193.971 815.637 264.479 253.768
internal_count=79714 21871 57843 12190 40382 9681 6925 2741 17461 5265 24628 13935 5858 3123 2142 4184 14734 5542 1410 8393 3449 1913 9894 3823 15754 796 487 2084 810 1331
is_linear=0
shrinkage=0.1


Tree=8
num_leaves=31
num_cat=0
split_feature=4 4 4 4 4 3 3 4 0 3 3 1 3 3 0 3 0 1 0 1 6 1 1 4 0 6 6 0 5 3
split_gain=2702.37 369.577 308.278 80.0302 55.2658 48.9283 64.0971 38.0905 36.6781 33.9724 26.7943 23.6507 23.1806 27.9579 21.3238 19.9187 19.4022 18.1709 17.4003 16.415 15.2319 14.9981 14.9635 14.3501 12.6586 12.1397 12.1268 11.6143 11.131 10.6342
threshold=32.500000000000007 50.500000000000007 18.500000000000004 69.500000000000014 26.500000000000004 2.5000000000000004 3.5000000000000004 11.500000000000002 3.5000000000000004 2.5000000000000004 3.5000000000000004 3.5000000000000004 2.5000000000000004 3.5000000000000004 1.5000000000000002 2.5000000000000004 1.5000000000000002 3.5000000000000004 2.5000000000000004 1.5000000000000002 54.500000000000007 3.5000000000000004 1.0000000180025095e-35 13.500000000000002 3.5000000000000004 39.500000000000007 72.500000000000014 2.5000000000000004 84.500000000000014 3.5000000000000004
decision_type=2 2 2 2 2 2 2 2 2 2 2 2 2 2 2 2 2 2 2 2 2 2 2 2 2 2 2 2 2 2
left_child=2 9 5 14 8 7 -7 -1 12 11 -11 20 22 -14 -3 -6 -5 18 26 -18 -2 -16 -4 27 -13 -15 -9 -8 -24 -17
right_child=1 3 4 16 15 6 23 17 -10 10 -12 24 13 25 21 29 19 -19 -20 -21 -22 -23 28 -25 -26 -27 -28 -29 -30 -31
leaf_value=0.10652549330986005 -0.03466810214818572 -0.079878772359503178 0.008100788869489596 -0.11264926449852929 0.014655818353274053 0.018966126332823297 0.072399675112859621 0.046278052777937562 0.062048866622252223 -0.062481648901379007 -0.02158090399642737 -0.00016262480874695276 -0.02319641229780757 -0.0056455563861747982 -0.060148965784198066 -0.038122061230768244 -0.10545648054910656 0.095299401772183823 0.082329428482343536 -0.077726887189981581 -0.0083075975450677009 -0.027050476723607941 0.036355583477459007 0.057469616592843421 0.047729892037484248 0.042075742072044862 0.076003614441277387 0.11318941760201789 0.06912068589891418 -0.00096225627300311728
leaf_weight=451.33950202167034 409.03789027873427 446.50447413977236 158.21659108810127 531.88188586663455 619.43256610352546 345.10714044235647 168.40443703532219 414.68894417583942 375.06792920082808 307.74333013920113 334.00926054734737 202.31183309201151 174.87140445038676 74.590559829026461 580.36548759695143 129.95678795967251 350.03337106015533 285.08407269604504 428.1308714505285 547.20883358223364 472.31980725098401 179.1713722771965 595.41454735025764 278.77967367321253 75.891185134649277 186.81843324378133 205.12847536802292 119.22698590531945 125.54664621129632 189.03100711852312
leaf_count=1074 3696 6652 673 10977 3261 1499 420 1233 1419 3172 3238 1486 1119 353 8005 995 6552 741 1132 9630 3787 1969 2249 900 404 717 563 280 455 1063
internal_value=0 -0.0576437 0.0480268 -0.0815067 0.0236612 0.0717875 0.0529385 0.0814162 0.0344637 -0.0227343 -0.0411943 -0.0125177 0.0265985 0.00775426 -0.0625362 0.00420086 -0.0975158 0.0729147 0.0668251 -0.0885448 -0.0205415 -0.0523412 0.0359497 0.0736374 0.012902 0.0284589 0.0561157 0.0893076 0.0420612 -0.0161013
internal_weight=0 4436.48 5324.84 2635.17 2628.95 2695.89 911.518 1784.37 1690.53 1801.31 641.753 1159.56 1315.46 436.28 1206.04 938.42 1429.12 1333.03 1047.95 897.242 881.358 759.537 879.178 566.411 278.203 261.409 619.817 287.631 720.961 318.988
internal_count=79714 59568 20146 43785 12304 7842 3099 4743 6985 15783 6410 9373 5566 2189 16626 5319 27159 3669 2928 16182 7483 9974 3377 1600 1890 1070 1796 700 2704 2058
is_linear=0
shrinkage=0.1


Tree=9
num_leaves=31
num_cat=0
split_feature=4 4 4 4 4 1 3 3 1 4 1 0 0 0 0 0 0 1 3 3 3 0 6 3 3 1 1 6 6 6
split_gain=2320.1 392.302 195.568 65.7081 58.0104 34.307 30.1748 45.2549 26.5153 26.0239 25.9992 22.7851 20.9691 20.8833 16.1258 16.0254 15.9387 14.6125 14.5874 18.1852 13.2382 13.0003 12.8105 12.52 12.2327 11.7443 9.89011 9.59501 9.41944 9.38751
threshold=38.500000000000007 19.500000000000004 64.500000000000014 27.500000000000004 14.500000000000002 1.5000000000000002 2.5000000000000004 3.5000000000000004 1.5000000000000002 88.500000000000014 3.5000000000000004 1.5000000000000002 3.5000000000000004 1.5000000000000002 1.5000000000000002 3.5000000000000004 2.5000000000000004 1.5000000000000002 2.5000000000000004 3.5000000000000004 2.5000000000000004 3.5000000000000004 68.500000000000014 2.5000000000000004 2.5000000000000004 2.5000000000000004 3.5000000000000004 62.500000000000007 73.500000000000014 21.500000000000004
decision_type=2 2 2 2 2 2 2 2 2 2 2 2 2 2 2 2 2 2 2 2 2 2 2 2 2 2 2 2 2 2
left_child=1 4 5 10 6 16 15 29 24 13 18 17 20 -4 -12 25 -2 -6 22 -20 -7 27 -3 26 28 -1 -15 -10 -5 -8
right_child=2 3 9 8 11 12 7 -9 21 -11 14 -13 -14 23 -16 -17 -18 -19 19 -21 -22 -23 -24 -25 -26 -27 -28 -29 -30 -31
leaf_value=0.073184601973255284 -0.073550268096394922 0.018807534844831664 -0.10016112881014999 -0.021563255221445306 0.010667320632913695 -0.030633150537661191 -0.039828754761327252 0.083373217955592105 -0.0085707389963983818 -0.10981497438337579 0.022667389181681714 0.061102674518088741 -0.0088705215612895228 -0.069358742946222546 0.066793296841819214 0.11458068104868556 -0.043100379009101381 0.046656903546172822 -0.019817378453220451 0.023334175771774431 -0.055410188576325431 0.029443279964288162 0.045306824920931466 -0.088299026620023813 -0.042225640686659731 0.097991621904645804 -0.033798059231170401 0.014928056501489482 0.01408648348999602 0.030335622848030031
leaf_weight=473.8292292477563 395.98606559913605 472.23663053847849 398.19912192923948 210.29341751895845 179.23719601146877 579.99593020463362 21.311141723766923 319.58094224892557 396.81947186216712 475.72172033390962 126.71580134518445 757.50474967062473 286.34216241911054 331.7666371576488 239.07986757531762 204.33867420256138 303.77417703717947 304.43317268043756 166.04307125136256 237.1415146291256 343.26530396612361 222.42683528922498 297.26754197664559 273.27277392195538 168.18523866403848 319.54829269088805 102.33363941917196 309.12202863767743 114.45456987433136 181.20370790921152
leaf_count=1314 5606 2121 8401 1585 700 6452 109 875 2744 10559 556 2562 2736 6048 886 527 3662 1070 1106 1077 4373 1192 1216 5009 1492 835 1553 1906 717 725
internal_value=0 0.0392027 -0.0642486 0.0139106 0.0663159 -0.042708 0.0794151 0.0599366 -0.00159118 -0.0902582 0.0282317 0.0502761 -0.0325127 -0.081843 0.0515076 0.089608 -0.0603316 0.03332 0.0209713 0.00556312 -0.0398452 0.00836148 0.0290445 -0.0715313 -0.0203356 0.0831761 -0.0609758 0.00171906 -0.00899882 0.0229521
internal_weight=0 5720.77 3490.66 2959.79 2760.99 1909.36 1519.81 522.096 1421.3 1581.29 1538.48 1241.18 1209.6 1105.57 365.796 997.716 699.76 483.67 1172.69 403.185 923.261 928.368 769.504 707.373 492.933 793.378 434.1 705.942 324.748 202.515
internal_count=79714 25315 54399 16598 8717 22829 4385 1709 9636 31570 6962 4332 13561 21011 1442 2676 9268 1770 5520 2183 10825 5842 3337 12610 3794 2149 7601 4650 2302 834
is_linear=0
shrinkage=0.1


Tree=10
num_leaves=31
num_cat=0
split_feature=4 4 4 4 4 4 4 3 3 0 3 3 1 1 0 1 3 1 0 0 1 0 3 3 1 1 1 6 6 1
split_gain=1977.27 271.847 254.957 53.2765 49.9743 37.7578 32.5935 26.5079 35.6709 23.2981 21.9288 23.8119 21.3374 21.1341 20.2577 14.3744 13.9939 12.1901 11.9059 10.8365 10.7708 10.7486 10.4714 17.003 9.81114 9.77693 9.63363 9.5647 9.52404 11.9993
threshold=33.500000000000007 60.500000000000007 17.500000000000004 44.500000000000007 25.500000000000004 11.500000000000002 81.500000000000014 2.5000000000000004 3.5000000000000004 1.5000000000000002 2.5000000000000004 3.5000000000000004 3.5000000000000004 3.5000000000000004 1.5000000000000002 2.5000000000000004 2.5000000000000004 1.0000000180025095e-35 2.5000000000000004 3.5000000000000004 1.5000000000000002 2.5000000000000004 2.5000000000000004 3.5000000000000004 3.5000000000000004 2.5000000000000004 1.0000000180025095e-35 80.500000000000014 87.500000000000014 1.0000000180025095e-35
decision_type=2 2 2 2 2 2 2 2 2 2 2 2 2 2 2 2 2 2 2 2 2 2 2 2 2 2 2 2 2 2
left_child=2 3 5 14 10 22 18 28 19 17 15 -12 16 -11 -2 -4 21 -6 -3 -9 -16 -5 26 -24 -13 -8 -1 -10 29 -7
right_child=1 6 4 12 9 7 25 8 27 13 11 24 -14 -15 20 -17 -18 -19 -20 -21 -22 -23 23 -25 -26 -27 -28 -29 -30 -31
leaf_value=0.068161026088268725 -0.033036610496419774 -0.082126576194854362 0.031267642657484961 -0.05692720999063882 -0.050089701273177051 0.04006227455904305 -0.11093462710060112 -0.0042671759725173017 0.053003905271605006 0.0072323579145868637 -0.0088792120713314764 0.024059321372758864 -0.020882541891565857 0.047277004284769372 -0.022093047554402431 0.054681662851093882 -0.070914846753403371 -0.0050075693616002635 -0.059937308018430439 0.049362985510438252 0.0042590026565461686 -0.027273596287655046 0.036065610654817136 0.094344041205026805 0.06392304947817902 -0.086886628763813256 0.10726990674637682 0.094372249108301581 0.092557358966487702 0.070656679317806198
leaf_weight=79.355938974767923 390.11009887699038 552.18596548540518 588.13072916306555 276.86173692066222 72.583368108607829 156.25752616673708 398.7883725441061 154.36094385944307 250.00170175917447 550.74850457813591 214.90972097404301 253.67545453086495 251.23785683326423 173.25278852880001 233.26714469958097 473.1403021607548 310.2722613546066 345.39577385224402 430.2022019457072 49.842065470293164 462.87485433835536 218.86327047506347 82.498840285465121 127.32682921737432 81.599157355725765 293.47779062623158 305.31773724779487 71.982427295297384 148.57310903631151 713.81084052845836
leaf_count=224 3898 11160 2553 3955 575 513 10089 789 845 3332 1384 1102 2766 854 2281 1699 4525 2229 7415 203 3559 2550 339 339 292 6541 850 227 446 2180
internal_value=0 -0.0539327 0.0420872 -0.0303476 0.0219658 0.0679845 -0.0841207 0.0597432 0.0415173 0.00596228 0.0333069 0.0171054 -0.046328 0.016815 -0.0147941 0.0417062 -0.0542596 -0.0128362 -0.0724096 0.00882293 -0.00457119 -0.0438351 0.0894001 0.0714302 0.0337614 -0.10074 0.099202 0.0622522 0.0691579 0.0651622
internal_weight=0 3818.14 4892.76 2143.49 2753.44 2139.33 1674.65 1544.83 526.187 1141.98 1611.46 550.184 1057.24 724.001 1086.25 1061.27 805.997 417.979 982.388 204.203 696.142 495.725 594.499 209.826 335.275 692.266 384.674 321.984 1018.64 870.068
internal_count=79714 58739 20975 23534 14020 6955 35205 5203 2064 6990 7030 2778 13796 4186 9738 4252 11030 2804 18575 992 5840 6505 1752 678 1394 16630 1074 1072 3139 2693
is_linear=0
shrinkage=0.1


Tree=11
num_leaves=31
num_cat=0
split_feature=4 4 4 4 0 0 4 1 4 4 0 3 1 3 3 3 3 0 0 6 1 1 5 1 6 4 6 6 6 1
split_gain=1706.33 345.436 144.59 61.4118 36.6821 27.8074 26.7573 22.4311 19.3117 18.7745 18.3577 17.7796 16.4324 16.1464 15.0443 14.2121 28.5759 13.7174 13.4367 11.6427 11.2711 9.94489 10.5791 9.81596 10.582 9.57093 9.53366 8.81114 8.78394 8.75741
threshold=39.500000000000007 21.500000000000004 65.500000000000014 15.500000000000002 2.5000000000000004 1.5000000000000002 50.500000000000007 3.5000000000000004 28.500000000000004 88.500000000000014 2.5000000000000004 2.5000000000000004 2.5000000000000004 3.5000000000000004 2.5000000000000004 2.5000000000000004 3.5000000000000004 3.5000000000000004 1.5000000000000002 35.500000000000007 2.5000000000000004 3.5000000000000004 56.500000000000007 1.5000000000000002 68.500000000000014 33.500000000000007 49.500000000000007 43.500000000000007 53.500000000000007 3.5000000000000004
decision_type=2 2 2 2 2 2 2 2 2 2 2 2 2 2 2 2 2 2 2 2 2 2 2 2 2 2 2 2 2 2
left_child=1 3 6 5 7 14 17 11 23 18 19 25 -8 -13 -1 20 -17 26 -4 21 -7 22 -5 -6 -25 28 -2 -16 -3 -20
right_child=2 4 9 10 8 15 12 -9 -10 -11 -12 13 -14 -15 27 16 -18 -19 29 -21 -22 -23 -24 24 -26 -27 -28 -29 -30 -31
leaf_value=0.065510022200292409 -0.049685076692846566 -0.0097440330138022814 -0.093847976152410986 -0.029015357289514088 0.014902378606218104 0.079515567512809554 -0.066422097322642121 0.018949644364138339 0.0074188640251102583 -0.10365853590715179 0.05560752675976819 -0.055100234786796966 -0.038217386460012548 -0.011463209102886514 0.0047452953529849963 0.029299763441369017 0.088472896434694845 -0.0062378399987018367 -0.075115534984483437 0.038551296337814893 0.10688337009401172 0.056325808616796549 0.024280203383971095 0.030664345967369167 0.067038008263739485 -0.022728988611530332 -0.0254095448232141 0.047909004263401 0.016241720096880283 -0.046018595047540328
leaf_weight=411.85425525531173 282.36419078940526 236.85489239450544 321.82266523921862 73.298146838322282 171.38724659755826 369.85777350608259 462.49969643098302 318.14902390353382 545.78303208015859 392.09183864062652 530.59938734211028 146.49910821812227 373.28724622866139 201.31628132238984 73.8919986076653 134.15753165818751 208.36598464474082 206.25508030131459 446.85863592778333 541.23734906222671 253.70777735020965 36.469808887690306 75.721287170425057 214.57321427576244 127.51315286941826 170.67777317296714 378.82455619145185 131.37806572578847 288.5639719683677 134.59378076111898
leaf_count=1290 3412 1467 8079 368 947 1137 7897 1885 3849 10559 2068 1431 5218 1489 304 603 645 1976 9591 2279 791 156 346 1018 531 1485 4359 495 1598 2441
internal_value=0 0.0343099 -0.0602061 0.0579658 0.00655825 0.0710691 -0.041056 -0.00429609 0.0205155 -0.0853858 0.0414663 -0.0113806 -0.053825 -0.029843 0.0544873 0.0816613 0.0652963 -0.028753 -0.077454 0.0311415 0.0906506 0.00952049 -0.00193427 0.0344361 0.0442227 -0.00215556 -0.0357765 0.0323712 0.00452754 -0.0683802
internal_weight=0 5261.86 2998.6 2840.54 2421.32 1583.21 1703.23 1362.06 1059.26 1295.37 1257.33 1043.91 835.787 347.815 617.124 966.089 342.524 867.444 903.275 726.727 623.566 185.489 149.019 513.474 342.086 696.097 661.189 205.27 525.419 581.452
internal_count=79714 26182 53532 10482 15700 5265 22862 9355 6345 30670 5217 7470 13115 2920 2089 3176 1248 9747 20111 3149 1928 870 714 2496 1549 4550 7771 799 3065 12032
is_linear=0
shrinkage=0.1


Tree=12
num_leaves=31
num_cat=0
split_feature=4 4 4 4 4 4 4 3 3 3 3 1 0 1 0 6 1 3 3 0 5 0 3 3 1 5 1 1 6 1
split_gain=1484.96 212.762 199.93 48.8296 39.0861 25.7532 25.5998 25.2536 23.9334 20.416 19.539 15.3066 15.259 14.7547 13.564 12.5076 12.4355 10.0708 9.92651 9.83397 8.79005 8.75799 8.29178 19.446 8.21621 8.34502 8.18249 8.15583 7.5959 7.59409
threshold=33.500000000000007 60.500000000000007 19.500000000000004 13.500000000000002 45.500000000000007 78.500000000000014 23.500000000000004 2.5000000000000004 3.5000000000000004 2.5000000000000004 3.5000000000000004 1.5000000000000002 3.5000000000000004 2.5000000000000004 2.5000000000000004 78.500000000000014 2.5000000000000004 2.5000000000000004 2.5000000000000004 2.5000000000000004 37.500000000000007 3.5000000000000004 2.5000000000000004 3.5000000000000004 2.5000000000000004 30.500000000000004 3.5000000000000004 1.5000000000000002 45.500000000000007 3.5000000000000004
decision_type=2 2 2 2 2 2 2 2 2 2 2 2 2 2 2 2 2 2 2 2 2 2 2 2 2 2 2 2 2 2
left_child=2 4 3 13 11 17 15 19 20 12 -11 28 24 22 27 -4 -7 21 -13 26 -9 -3 -1 -24 -8 -26 -5 -6 -2 -10
right_child=1 5 6 7 14 16 9 8 29 10 -12 18 -14 -15 -16 -17 -18 -19 -20 -21 -22 -23 23 -25 25 -27 -28 -29 -30 -31
leaf_value=0.073678707879090657 -0.049830552280126873 -0.064825895177029094 0.02320068444873857 0.039778995419751655 -0.072825431455754541 -0.1048405833154803 -2.6703763625528379e-05 -0.038494205696008386 0.036002306713518249 -0.03286163499841132 0.0082248793493099395 0.0018307273232716318 0.041157144854996913 0.089450989725915434 -0.030385693988299257 0.052884564408784154 -0.077510165079160809 -0.080918323595465275 -0.023318331976114381 0.068053579553411958 0.011350744657810464 -0.032831230736678117 0.013780655237621113 0.07391436660954559 -0.0094256100967104808 0.029555329952000123 0.071058380060600945 -0.045571000236550752 -0.020629155136147763 0.076683665691419656
leaf_weight=390.63259268738329 143.19692263938487 361.55403986223973 537.5522101810202 395.02064407430589 169.38288830081001 384.82115818071179 387.44729360658675 49.007827054709196 208.19186773337424 198.19138021767139 278.24086517095566 462.09500234760344 198.93666996993124 406.99353469349444 408.56218259874731 192.8835555203259 293.42826483142562 289.94815800362267 237.66955406498164 360.77366452012211 127.22256880998611 112.07684016413987 90.504521481692791 132.51630812324584 69.432358950376511 262.73446877859533 106.09259455278516 312.12326270435005 235.69968410627916 58.85938120726496
leaf_count=1263 1687 7668 2631 1533 3153 11657 2524 300 865 1739 1750 3871 1041 1364 5155 842 7575 6340 2528 1265 700 1965 411 433 403 1328 375 4595 2545 208
internal_value=0 -0.0496505 0.0380425 0.0583022 -0.0282759 -0.0788363 0.0158726 0.0454889 0.0260929 0.00793105 -0.00886673 -0.0154766 0.0166437 0.0746873 -0.0437872 0.0310392 -0.0930167 -0.0662404 -0.00671095 0.0554646 -0.00251061 -0.0572549 0.0648955 0.0495114 0.00986698 0.0214072 0.0464013 -0.0551585 -0.0316653 0.0449687
internal_weight=0 3410.56 4451.23 2325.82 1968.73 1441.83 2125.42 1305.17 443.282 1394.98 476.432 1078.66 918.551 1020.65 890.068 730.436 678.249 763.579 699.765 861.887 176.23 473.631 613.653 223.021 719.614 332.167 501.113 481.506 378.897 267.051
internal_count=79714 58739 20975 8717 23534 35205 12258 5246 2073 8785 3489 10631 5296 3471 12903 3473 19232 15973 6399 3173 1000 9633 2107 844 4255 1731 1908 7748 4232 1073
is_linear=0
shrinkage=0.1


Tree=13
num_leaves=31
num_cat=0
split_feature=4 4 4 4 3 3 3 4 3 4 1 0 0 1 1 5 0 4 1 6 3 3 6 0 6 6 0 0 5 0
split_gain=1300.19 233.901 137.731 44.5093 30.8077 39.2673 26.5162 26.3067 22.3963 18.8028 18.5735 16.9045 15.1766 13.8693 12.7513 12.3858 11.443 10.9865 10.8745 10.6834 9.95862 15.9002 10.342 9.91137 9.30975 8.69896 8.6543 8.58479 7.75284 7.56003
threshold=30.500000000000004 52.500000000000007 15.500000000000002 73.500000000000014 2.5000000000000004 3.5000000000000004 2.5000000000000004 21.500000000000004 3.5000000000000004 11.500000000000002 3.5000000000000004 1.0000000180025095e-35 3.5000000000000004 2.5000000000000004 1.5000000000000002 93.500000000000014 2.5000000000000004 42.500000000000007 1.5000000000000002 62.500000000000007 2.5000000000000004 3.5000000000000004 63.500000000000007 2.5000000000000004 21.500000000000004 43.500000000000007 3.5000000000000004 3.5000000000000004 30.500000000000004 3.5000000000000004
decision_type=2 2 2 2 2 2 2 2 2 2 2 2 2 2 2 2 2 2 2 2 2 2 2 2 2 2 2 2 2 2
left_child=2 6 9 10 7 -6 11 18 -8 20 23 -2 28 25 -5 29 -16 -15 -4 -7 26 22 -22 -3 -17 -13 -1 -10 -9 -11
right_child=1 3 4 14 5 19 8 12 27 15 -12 13 -14 17 16 24 -18 -19 -20 -21 21 -23 -24 -25 -26 -27 -28 -29 -30 -31
leaf_value=0.083015802043019352 -0.035815431346924831 -0.073100481548943705 0.032484360787514592 -0.10263100723216362 -0.015465765555474482 0.015008657722339403 -0.054855261592024418 -0.0052321873355623393 -0.026289682498341072 0.048359308787863195 -0.030065931215917125 -0.032468084297455846 0.046748028937203145 0.020132297512044522 -0.090383846490945371 0.015909540539277553 -0.059853591826318733 -0.013073713352498318 0.05724180522782174 0.044120527234028872 -0.0053060228975624563 0.086576519587749479 0.070180853115308126 -0.049601610254294902 0.11489736116100227 -0.0057300275513710933 0.12467167781167399 0.010474078334285996 0.020668738489879972 0.071529987382532731
leaf_weight=253.23335424624383 202.65540290111676 403.06822759681381 289.89692524820566 309.06620576907881 348.12237036507577 280.07742975000292 297.08718401705846 147.49251465220004 265.76827388070524 681.90908138640225 230.66339968913235 184.91685806307942 194.257762061432 295.79307500738651 275.14074720465578 11.474657604470847 221.67796283285134 150.24978191871196 457.26658480428159 229.23067036923021 43.259490083903074 106.56659723911434 31.267662023194134 323.58477857569233 55.241795716807246 355.78865682194009 62.106586460955441 83.464452923741192 533.88749639317393 177.45927685406059
leaf_count=850 2279 8826 1279 9673 2577 1508 3835 903 3154 2644 3738 2051 958 2067 8370 42 5585 1616 1841 1102 215 339 124 5933 193 3448 224 794 2912 634
internal_value=0 -0.0433535 0.0399784 -0.069366 0.0257514 0.0104188 -0.0183686 0.0338526 -0.0346725 0.0647839 -0.0547885 -0.00950904 0.0220916 -0.00410632 -0.0866827 0.0563663 -0.0767614 0.00894683 0.047636 0.0281114 0.0804867 0.0617968 0.0263643 -0.0626362 0.0978723 -0.0148742 0.09122 -0.0175034 0.0150622 0.053144
internal_weight=0 3598.93 3902.75 1763.2 2480.23 857.43 1835.72 1622.8 646.32 1422.52 957.316 1189.4 875.638 986.748 805.885 926.085 496.819 446.043 747.164 509.308 496.434 181.094 74.5272 726.653 66.7165 540.706 315.34 349.233 681.38 859.368
internal_count=79714 61369 18345 42125 13080 5187 19244 7893 7783 5265 18497 11461 4773 9182 23628 3513 13955 3683 3120 2610 1752 678 339 14759 235 5499 1074 3948 3815 3278
is_linear=0
shrinkage=0.1


Tree=14
num_leaves=31
num_cat=0
split_feature=4 4 4 3 3 4 4 3 4 0 0 1 1 4 0 6 0 4 6 6 0 1 6 1 4 3 3 6 5 4
split_gain=1150.13 190.85 126.491 33.6989 47.0861 33.1915 23.769 22.2096 21.3198 16.834 14.2069 13.3862 11.8034 11.3132 10.7238 10.1235 9.58962 9.48212 9.09901 8.81795 8.79045 9.58678 13.6914 7.9675 7.8636 7.8392 7.83384 7.94075 7.61392 7.55519
threshold=36.500000000000007 19.500000000000004 61.500000000000007 2.5000000000000004 3.5000000000000004 25.500000000000004 12.500000000000002 2.5000000000000004 82.500000000000014 1.5000000000000002 1.5000000000000002 3.5000000000000004 1.5000000000000002 14.500000000000002 1.5000000000000002 37.500000000000007 1.5000000000000002 47.500000000000007 59.500000000000007 21.500000000000004 3.5000000000000004 1.5000000000000002 51.500000000000007 1.5000000000000002 41.500000000000007 2.5000000000000004 2.5000000000000004 57.500000000000007 30.500000000000004 27.500000000000004
decision_type=2 2 2 2 2 2 2 2 2 2 2 2 2 2 2 2 2 2 2 2 2 2 2 2 2 2 2 2 2 2
left_child=1 3 7 6 19 12 20 9 14 -2 -7 15 28 -6 -4 -12 26 -9 23 -5 21 22 -1 -8 -11 -10 -14 -28 -3 -17
right_child=2 5 8 4 13 10 18 17 25 24 11 -13 16 -15 -16 29 -18 -19 -20 -21 -22 -23 -24 -25 -26 -27 27 -29 -30 -31
leaf_value=0.024807438357939703 -0.039974781842248744 -0.015148892855646313 -0.0798219507215681 -0.045250723191566034 0.07207765687873767 -0.012766385723987257 0.028225778099422213 -0.03472137575856149 -0.08058004490677434 0.0051825172460391771 -0.017269444250818347 0.032096074335738321 0.030882177532961935 0.039941792433096673 -0.054927916550171874 0.035162969970533212 0.043679898006078022 -0.060496729034875733 0.064497637066782465 0.011544193226716142 0.11089185925226575 0.089106377039776918 0.085538061910250374 0.054445565225871052 -0.019495929430480025 -0.10714238731101576 -0.04043876805208322 0.024030044357992813 0.019307900232121568 0.0034315027442466273
leaf_weight=72.724888657219708 350.4564699982293 83.377410428598523 267.20710797409993 30.459059122949839 237.09284151298925 460.47679153177887 184.85893240943551 300.24784078262746 288.01479474536609 177.07912251539528 189.07698829565197 194.49729079008102 155.30246932804585 203.63975280988961 491.05091373226605 96.279235722497106 389.13421986345202 272.03759632492438 433.80364162288606 266.688700360246 85.553744682110846 206.83421585895121 75.828049472998828 310.6567531786859 476.71840151119977 180.8863106839126 38.237657281570137 38.185049315914512 277.79568125493824 340.06499052699655
leaf_count=248 5279 495 7481 213 875 3835 796 4010 9414 1572 1454 1175 760 898 11066 561 1921 4863 1705 1443 333 742 269 1195 6090 6340 258 237 1597 2589
internal_value=0 0.0320687 -0.0499905 0.0537165 0.0364873 0.0118971 0.0629944 -0.0312508 -0.0740656 -0.0222909 0.00128954 0.00918353 0.0257276 0.0572293 -0.0637005 0.00205804 0.0340894 -0.0469738 0.0539222 0.00572244 0.0821148 0.0751872 0.0558071 0.0446639 -0.0128118 -0.0908269 0.0179842 -0.00822655 0.0113535 0.010433
internal_weight=0 4370.57 2803.7 2108.14 737.88 2262.43 1370.26 1576.54 1227.16 1004.25 1280.4 819.919 982.032 440.733 758.258 625.421 620.859 572.285 929.319 297.148 440.941 355.387 148.553 495.516 653.798 468.901 231.725 76.4227 361.173 436.344
internal_count=79714 23599 56115 8717 3429 14882 5288 21814 34301 12941 9614 5779 5268 1773 18547 4604 3176 8873 3696 1656 1592 1259 517 1991 7662 15754 1255 495 2092 3150
is_linear=0
shrinkage=0.1


Tree=15
num_leaves=31
num_cat=0
split_feature=4 4 4 4 4 3 3 4 0 3 0 1 1 0 1 4 1 3 3 5 1 3 1 6 0 2 6 1 6 1
split_gain=1007.74 157.85 141.69 31.3232 28.568 25.329 31.574 21.5128 17.8765 13.9361 13.5874 12.6078 12.2723 11.4276 10.5322 10.4719 10.0896 10.0864 9.54947 8.56389 8.42785 8.03648 7.77717 7.57985 7.63354 6.92419 8.65478 6.91586 6.7458 6.68443
threshold=32.500000000000007 59.500000000000007 16.500000000000004 41.500000000000007 23.500000000000004 2.5000000000000004 3.5000000000000004 75.500000000000014 1.5000000000000002 2.5000000000000004 1.5000000000000002 3.5000000000000004 2.5000000000000004 1.5000000000000002 1.5000000000000002 11.500000000000002 3.5000000000000004 3.5000000000000004 2.5000000000000004 90.500000000000014 1.0000000180025095e-35 2.5000000000000004 1.5000000000000002 66.500000000000014 3.5000000000000004 1.0000000180025095e-35 84.500000000000014 2.5000000000000004 38.500000000000007 3.5000000000000004
decision_type=2 2 2 2 2 2 2 2 2 2 2 2 2 2 2 2 2 2 2 2 2 2 2 2 2 2 2 2 2 2
left_child=2 3 5 16 10 13 28 18 20 22 -4 25 -9 -1 -10 -15 21 -11 29 -13 -5 -2 -6 24 -18 -12 -27 -8 -7 -3
right_child=1 7 4 8 9 6 27 12 14 17 11 19 -14 15 -16 -17 23 -19 -20 -21 -22 -23 -24 -25 -26 26 -28 -29 -30 -31
leaf_value=0.05544216117608957 -0.0072284177232898837 -0.054603693419744692 0.016548650955425216 -0.086280478912480585 0.001800408645786154 -0.016000066154910255 0.049830931841931811 -0.095516657621863454 -0.042874460614111959 -0.026340051523677369 0.04199439258410647 0.053340877778591915 -0.067590988766320317 0.10069887524686774 -0.016557169577417107 0.069690489264805353 -0.022083660253233779 0.0060605367467998286 -0.073286807378169658 0.11904186392032588 -0.046349373693104379 -0.031946648873175922 0.023215749014911434 0.034625970882516503 0.035119521203116282 0.011600725054834352 0.056200130385394037 0.080741330418919441 0.023194926357111602 -0.023420903327656541
leaf_weight=373.00090627209283 392.89995072362944 284.81771600805223 464.75313133560121 64.248696360271424 256.38045288808644 61.802131823264062 182.79610361065716 356.77791855135001 234.8208272815682 162.21801397530362 293.35836911760271 148.99084254074842 281.56060943135526 149.52195598045364 431.50190537818708 400.97861757548526 81.297004480846226 235.65110410563648 220.75869107048493 22.886931566521525 298.07894382649101 197.72451143711805 500.87516873795539 79.050048429053277 32.716573091223836 229.19611854292452 53.706618072465062 119.83492063404992 151.68283582106233 90.614835315034725
leaf_count=1479 3719 6865 2485 1329 1877 382 760 13246 3752 1580 1431 682 8644 638 5555 1556 762 1567 5599 88 5043 2510 2932 597 223 1186 248 473 782 1724
internal_value=0 -0.0428635 0.0342994 -0.0240779 0.0192585 0.05904 0.0412969 -0.0704416 -0.0355528 0.00800357 0.0299774 0.0383196 -0.0831991 0.0689561 -0.0258317 0.0781127 -0.00901614 -0.00714973 -0.0567823 0.0620895 -0.05343 -0.0155034 0.0159653 0.0108298 -0.00566902 0.0312299 0.0200675 0.0620707 0.0118483 -0.0470774
internal_weight=0 3046.87 3807.63 1812.34 2368.02 1439.62 516.116 1234.53 1028.65 1155.12 1212.89 748.139 638.339 923.501 666.323 550.501 783.688 397.869 596.191 171.878 362.328 590.624 757.256 193.064 114.014 576.261 282.903 302.631 213.485 375.433
internal_count=79714 59568 20146 23490 14076 6070 2397 36078 15679 7956 6120 3635 21890 3673 9307 2194 7811 3147 14188 770 6372 6229 4809 1582 985 2865 1434 1233 1164 8589
is_linear=0
shrinkage=0.1


Tree=16
num_leaves=31
num_cat=0
split_feature=4 4 4 4 3 3 1 3 3 0 4 1 0 1 3 3 6 1 5 1 0 3 5 6 0 4 0 6 6 1
split_gain=891.047 184.328 98.7166 35.1209 27.0462 28.0443 20.1929 17.3714 23.8758 16.1932 13.5809 12.6778 12.6326 11.9751 10.8071 12.5959 10.3889 10.3163 8.1783 8.16197 7.83957 7.6955 7.42845 7.9342 7.83121 6.58118 6.20743 6.17061 5.89738 7.43417
threshold=29.500000000000004 51.500000000000007 15.500000000000002 70.500000000000014 2.5000000000000004 3.5000000000000004 2.5000000000000004 2.5000000000000004 3.5000000000000004 3.5000000000000004 22.500000000000004 1.5000000000000002 1.5000000000000002 2.5000000000000004 2.5000000000000004 3.5000000000000004 62.500000000000007 3.5000000000000004 13.500000000000002 2.5000000000000004 1.0000000180025095e-35 2.5000000000000004 31.500000000000004 13.500000000000002 1.5000000000000002 12.500000000000002 3.5000000000000004 72.500000000000014 49.500000000000007 1.5000000000000002
decision_type=2 2 2 2 2 2 2 2 2 2 2 2 2 2 2 2 2 2 2 2 2 2 2 2 2 2 2 2 2 2
left_child=2 6 7 11 9 22 14 13 28 10 -4 -3 -5 25 27 -16 20 -14 -10 -12 -8 -13 23 -6 -24 -1 -23 -2 -9 -30
right_child=1 3 4 12 5 -7 16 8 18 -11 19 21 17 -15 15 -17 -18 -19 -20 -21 -22 26 24 -25 -26 -27 -28 -29 29 -31
leaf_value=0.069674957979150146 -0.023680919121598774 -0.064958644008211316 0.03594120561404307 -0.095593788738533803 0.088947515346242054 0.024129745340840475 -0.043771559242023146 -0.0074677058819522428 -0.025976525136564611 0.052276379411143409 0.0015760352607863222 -0.028956197212574492 -0.076513454018451249 0.083532147573731522 -0.060711429241668537 -0.021838103170911685 0.011221797323406252 -0.042172925272798568 0.066399612684740997 0.027484377520186561 -0.0067503806405513874 -0.064510362086396433 -0.031654924889574193 -0.054182614932736642 0.0062654558936274876 0.046020161557578029 -0.022593988740982351 -0.0026090280013284541 -0.0016418738396899693 0.050737708513858497
leaf_weight=239.62725956086069 405.70210337685421 277.1155145179946 602.65955991204828 263.32360070000868 4.1318239606916896 433.08602232951671 67.804912106599659 69.45591020770371 9.9717411547899228 295.57575401756912 263.83471047133207 321.34685771143995 369.12811194080859 303.82126560015604 147.05585166229866 192.42242150125094 319.64421023288742 114.65211851033382 246.42543523246422 225.54179994389415 365.6974876075983 144.76525837555528 84.70027021272108 61.812799490056932 152.54318310879171 230.99425387801602 46.736050959210843 211.37463940773159 45.447901930660009 67.103643616661429
leaf_count=961 4735 6733 2889 10593 26 2435 876 429 41 1482 1785 5865 12511 1276 2313 2419 3133 3153 1011 1233 3610 3257 735 550 1107 981 823 2186 239 327
internal_value=0 -0.0372955 0.03629 -0.062425 0.0232921 0.00780031 -0.0147035 0.0590513 0.0431449 0.0315121 0.025892 -0.0477248 -0.0779685 0.0680557 -0.0243467 -0.0386773 -0.00245575 -0.068375 0.0628069 0.0135166 -0.0125409 -0.0384125 -0.0155253 -0.0452147 -0.00727282 0.0580645 -0.0542806 -0.0164629 0.0154466 0.029587
internal_weight=0 3246.77 3336.73 1537.07 2123.89 736.274 1709.7 1212.85 438.405 1387.61 1092.04 789.964 747.104 774.443 956.555 339.478 753.147 483.78 256.397 489.377 433.502 512.848 303.188 65.9446 237.243 470.622 191.501 617.077 182.007 112.552
internal_count=79714 62207 17507 42935 12242 4853 19272 5265 2047 7389 5907 16678 26257 3218 11653 4732 7619 15664 1052 3018 4486 9945 2418 576 1842 1942 4080 6921 995 566
is_linear=0
shrinkage=0.1


Tree=17
num_leaves=31
num_cat=0
split_feature=4 4 4 4 4 0 0 0 0 4 1 3 6 1 1 6 1 1 1 1 6 1 6 5 3 3 6 4 6 3
split_gain=805.375 190.702 62.2198 33.7537 26.5732 17.3191 16.681 13.8069 13.3181 12.4204 11.9205 11.5108 10.2665 10.1036 9.70792 9.91001 8.98917 8.86349 8.61312 8.53425 8.0708 7.61028 7.28096 8.9497 6.42608 6.39057 6.30267 5.79126 5.55251 5.28475
threshold=41.500000000000007 20.500000000000004 69.500000000000014 13.500000000000002 26.500000000000004 2.5000000000000004 3.5000000000000004 2.5000000000000004 3.5000000000000004 88.500000000000014 2.5000000000000004 2.5000000000000004 54.500000000000007 1.5000000000000002 3.5000000000000004 74.500000000000014 1.5000000000000002 3.5000000000000004 1.0000000180025095e-35 1.0000000180025095e-35 66.500000000000014 2.5000000000000004 55.500000000000007 87.500000000000014 2.5000000000000004 2.5000000000000004 62.500000000000007 47.500000000000007 61.500000000000007 3.5000000000000004
decision_type=2 2 2 2 2 2 2 2 2 2 2 2 2 2 2 2 2 2 2 2 2 2 2 2 2 2 2 2 2 2
left_child=1 3 6 8 12 14 10 13 21 11 25 16 -3 -6 15 -5 -4 28 -14 -7 -15 22 -1 26 -21 -2 -24 -27 -8 -26
right_child=2 4 9 5 7 19 17 -9 -10 -11 -12 -13 18 20 -16 -17 -18 -19 -20 24 -22 -23 23 -25 29 27 -28 -29 -30 -31
leaf_value=0.034879624524434383 -0.046256551706364293 0.0071668249646790576 -0.075862006004179305 0.0118944836027537 -0.027590230748035932 0.02455868679484104 -0.042948282314859289 0.0077862371486623954 0.090638745811228091 -0.093093907832102918 -0.032657409837962656 -0.085339833431503975 -0.0012113126038126665 -0.014206516169324139 0.049419238690508738 0.041006095652105057 -0.040224300873725069 0.00848116064059652 0.035376613191971822 0.066590239190934278 0.011028046302089003 0.071336424889789085 0.097597832360522344 0.11985310172606534 0.017578539327428509 -0.0436014471749233 0.04608751268032129 -0.079474888478708205 -0.012231795163695732 0.056203679417729427
leaf_weight=193.37596084945835 347.95572202838957 395.97935860883445 112.99075630283915 387.82845519436523 275.07169118523598 98.829668384045362 127.63292320026085 623.29705116292462 147.47158563649282 245.96115408919286 446.86617101728916 182.49349868635181 77.488612148910761 311.27440289687365 148.99375233193859 167.41011924250051 189.45342794433236 87.364685591077432 379.19546984974295 264.70329548791051 213.79572294652462 239.1485823339317 28.289905580226332 23.65226558689028 59.67662344314158 65.259027714375407 148.14936763886362 144.97075856290758 109.20136175304651 87.158579987939447
leaf_count=854 7036 2554 4084 2113 3102 498 2195 5296 686 10559 7839 6604 515 2991 716 852 5912 997 2156 1189 1741 1078 124 102 365 1122 627 3646 1763 398
internal_value=0 0.024772 -0.0513535 0.0473446 0.00499019 0.0369195 -0.0384668 -0.00337249 0.0635764 -0.0747898 -0.0448292 -0.0655059 0.0189509 -0.0120649 0.026754 0.0206719 -0.0535383 -0.0187428 0.0291685 0.0509464 -0.00393162 0.0572678 0.048717 0.0620899 0.0572834 -0.0545735 0.0543466 -0.0683391 -0.0287853 0.0405057
internal_weight=0 4270.79 2060.15 1994.69 2276.1 1214.6 1329.25 1423.44 780.088 730.899 1005.05 484.938 852.663 800.142 704.232 555.239 302.444 324.199 456.684 510.368 525.07 632.616 393.467 200.092 411.538 558.186 176.439 210.23 236.834 146.835
internal_count=79714 27957 51757 9602 18355 6131 24598 13130 3471 27159 19643 16600 5225 7834 3681 2965 9996 4955 2671 2450 4732 2785 1707 853 1952 11804 751 4768 3958 763
is_linear=0
shrinkage=0.1


Tree=18
num_leaves=31
num_cat=0
split_feature=4 4 4 3 3 3 3 4 4 4 4 0 3 1 0 3 5 6 4 6 0 6 1 6 0 1 5 1 5 6
split_gain=721.167 114.788 101.379 22.4337 32.8541 21.678 21.2034 18.5811 17.9275 17.0881 14.731 11.7804 9.4946 9.3168 8.23657 7.9269 7.89205 9.56646 7.4601 7.24529 7.20559 7.07862 6.69161 6.5401 6.18546 5.89604 5.66506 5.64302 6.20326 5.56662
threshold=34.500000000000007 17.500000000000004 59.500000000000007 2.5000000000000004 3.5000000000000004 2.5000000000000004 3.5000000000000004 84.500000000000014 45.500000000000007 25.500000000000004 12.500000000000002 1.5000000000000002 2.5000000000000004 2.5000000000000004 1.5000000000000002 3.5000000000000004 61.500000000000007 52.500000000000007 10.500000000000002 51.500000000000007 3.5000000000000004 43.500000000000007 1.5000000000000002 38.500000000000007 3.5000000000000004 3.5000000000000004 15.500000000000002 1.5000000000000002 54.500000000000007 51.500000000000007
decision_type=2 2 2 2 2 2 2 2 2 2 2 2 2 2 2 2 2 2 2 2 2 2 2 2 2 2 2 2 2 2
left_child=1 3 8 10 16 9 -7 11 12 13 24 -4 25 29 -10 -14 -5 -18 -6 20 -8 -11 -13 -16 -1 -2 -23 -28 -29 -3
right_child=2 5 7 4 18 6 19 -9 14 21 -12 22 15 -15 23 -17 17 -19 -20 -21 -22 26 -24 -25 -26 -27 27 28 -30 -31
leaf_value=0.069946223117392153 -0.012269087153450048 0.008457648941273526 -0.073755879104359559 -0.011783258942526806 0.095061957735178726 -0.019860997908273205 -0.011624395155229774 -0.085566743788660818 -0.051729961502927163 -0.0054202771095737678 0.050050268997233797 -0.062618348457968001 -0.047420702002263636 0.043903297966158036 -0.046785251052171274 -0.013229442479864914 -0.01274149376242649 0.053367092464835245 0.049128687852973599 0.025452500335165551 0.034121723474187592 -0.029678275398655796 -0.038120874370196109 -0.020125599583140481 0.10466708930497429 0.012374151319268726 0.0032807710991523287 0.01101789891506889 0.042186801546524391 0.031304930043159561
leaf_weight=287.54852603748441 395.50380187295377 182.89954988425598 254.23742314858828 126.49599510850385 40.900970045011491 306.442484669853 141.68690689932555 309.59089634253178 228.3232318663504 216.54614974651486 566.84993879124522 176.34795697813388 127.49538275273517 336.22447998635471 132.46142362151295 144.83593676891178 36.576976299285889 54.512473685666919 260.91163195623085 252.60082506807521 45.485512526705861 24.645191721618176 303.23847778222989 301.38558726245537 62.452325189951807 128.67488660849631 136.44678485020995 114.42450725845993 144.47223305981606 255.76679153135046
leaf_count=1259 4644 1152 8870 784 172 2923 1091 14022 4896 1793 2621 5364 1938 1699 2265 1971 248 299 1239 1613 269 212 7822 4869 333 1182 1111 762 890 1401
internal_value=0 0.0286989 -0.0412217 0.0506038 0.0339989 0.0141178 0.000332462 -0.0650216 -0.0241974 0.021406 0.0600104 -0.0563539 -0.0140893 0.0313786 -0.0363561 -0.0292365 0.00437801 0.0268212 0.0553535 0.0144037 -0.000507449 0.00926583 -0.0471288 -0.0282653 0.0761416 -0.00621969 0.016838 0.0197377 0.0284111 0.0217789
internal_weight=0 3593.89 2502.1 1436.25 519.398 2157.64 746.216 1043.41 1458.68 1411.43 916.851 733.824 796.51 774.891 662.17 272.331 217.585 91.0894 301.813 439.773 187.172 636.535 479.586 433.847 350.001 524.179 419.989 395.344 258.897 438.666
internal_count=79714 21871 57843 6955 2742 14916 5896 36078 21765 9020 4213 22056 9735 4252 12030 3909 1331 547 1411 2973 1360 4768 13186 7134 1592 5826 2975 2763 1652 2553
is_linear=0
shrinkage=0.1


Tree=19
num_leaves=31
num_cat=0
split_feature=4 4 4 4 1 0 1 0 0 4 3 4 1 5 3 0 3 4 1 0 4 1 1 4 3 4 6 6 6 6
split_gain=647.391 105.782 97.9461 22.6118 19.2009 16.8947 16.5728 13.9866 12.994 12.3324 11.5263 10.2303 9.95846 9.69541 8.86867 7.60473 7.47558 7.46273 7.02895 8.2492 6.87513 6.84898 6.78802 6.75202 6.67155 5.99913 5.93277 5.47413 5.36133 5.14993
threshold=33.500000000000007 19.500000000000004 56.500000000000007 11.500000000000002 2.5000000000000004 1.5000000000000002 3.5000000000000004 2.5000000000000004 1.5000000000000002 75.500000000000014 2.5000000000000004 22.500000000000004 1.0000000180025095e-35 82.500000000000014 2.5000000000000004 1.0000000180025095e-35 3.5000000000000004 47.500000000000007 1.5000000000000002 1.5000000000000002 85.500000000000014 3.5000000000000004 2.5000000000000004 13.500000000000002 2.5000000000000004 49.500000000000007 72.500000000000014 50.500000000000007 47.500000000000007 56.500000000000007
decision_type=2 2 2 2 2 2 2 2 2 2 2 2 2 2 2 2 2 2 2 2 2 2 2 2 2 2 2 2 2 2
left_child=1 3 7 18 9 10 11 12 -8 -4 28 -3 26 21 20 -13 -12 27 -1 -20 -6 -7 -9 -23 -17 -24 -2 -14 -5 -10
right_child=2 6 4 5 14 13 8 22 29 -11 16 15 17 -15 -16 24 -18 -19 19 -21 -22 23 25 -25 -26 -27 -28 -29 -30 -31
leaf_value=0.051537899348642557 -0.07085300594623764 0.020390355687152212 -0.060022789821484505 0.02090563424020124 -0.028114664118749917 0.038321055592556864 0.0048744328101216075 -0.019700290521969845 0.028378137340587247 -0.088792516028605689 -0.01999448518458552 -0.0188731324579254 -0.031118119243906946 0.070879562271199403 -0.063852620734989859 0.01092466784355545 0.022009122530041652 -0.04205938079599153 0.058352425038677526 0.098007612115589282 -0.062860309049185312 0.10250774190841916 0.0087234062000152036 0.051050780761477781 -0.0084402891148255259 -0.025391198827600537 -0.025894358732184583 -0.0085332190519456421 0.046776492659452967 0.057174703070610677
leaf_weight=144.44772424409166 85.327813218347728 335.35583542799577 331.53060456976527 130.19571572449058 241.96071764873341 514.91595722781494 143.68859587330371 340.12492707907222 125.26669049123302 270.61777254368644 70.282850068062544 173.1075879400596 184.09005475277081 163.7503767455928 185.03489112562966 517.87643099622801 106.69342743628658 181.08036610099953 95.460882915649563 116.4500864550937 74.477309764712118 33.323013499844819 228.49415867170319 108.6255912038032 271.00709282560274 66.564202479552478 44.742226576898247 257.34444461856037 208.19778136536479 123.16740208584815
leaf_count=713 1714 2067 9976 681 6107 2654 1017 4851 791 13246 511 1531 2646 819 6220 3714 582 3678 422 617 3043 157 2287 542 2413 968 781 3222 1019 725
internal_value=0 0.0284965 -0.0386812 0.0461676 -0.0609154 0.0401977 0.0107954 -0.0209995 0.0288106 -0.0729525 0.0260076 0.0053503 -0.0302224 0.0491095 -0.0464617 0.000107244 0.00532817 -0.0249643 0.0685486 0.0801439 -0.0362924 0.0436824 -0.0100718 0.0631305 0.00427218 0.00102726 -0.0553879 -0.0179517 0.0368228 0.0426548
internal_weight=0 3381.81 2491.39 1692.34 1103.62 1335.98 1689.47 1387.77 392.123 602.148 515.37 1297.35 752.585 820.615 501.473 961.991 176.976 622.515 356.359 211.911 316.438 656.865 635.183 141.949 788.884 295.058 130.07 441.434 338.393 248.434
internal_count=79714 20975 58739 8717 38592 6965 12258 20147 2533 23222 2793 9725 12041 4172 15370 7658 1093 9546 1752 1039 9150 3353 8106 699 6127 3255 2495 5868 1700 1516
is_linear=0
shrinkage=0.1


Tree=20
num_leaves=31
num_cat=0
split_feature=4 4 4 4 3 3 3 1 3 3 0 0 5 1 3 4 5 3 1 4 0 5 3 6 5 1 4 6 3 3
split_gain=581.77 122.013 63.0367 33.5441 17.1567 26.0479 15.1271 14.6873 13.1105 12.1791 11.5888 10.1037 9.09799 8.34526 7.09574 7.49363 6.41602 6.22653 6.18513 6.94479 6.15679 6.03792 6.26839 5.83028 5.69027 5.58096 5.57876 5.55072 5.54446 7.13869
threshold=38.500000000000007 22.500000000000004 66.500000000000014 14.500000000000002 2.5000000000000004 3.5000000000000004 2.5000000000000004 1.5000000000000002 2.5000000000000004 3.5000000000000004 1.5000000000000002 1.5000000000000002 18.500000000000004 3.5000000000000004 3.5000000000000004 54.500000000000007 99.500000000000014 1.5000000000000002 3.5000000000000004 81.500000000000014 1.5000000000000002 97.500000000000014 2.5000000000000004 15.500000000000002 85.500000000000014 2.5000000000000004 91.500000000000014 70.500000000000014 3.5000000000000004 2.5000000000000004
decision_type=2 2 2 2 2 2 2 2 2 2 2 2 2 2 2 2 2 2 2 2 2 2 2 2 2 2 2 2 2 2
left_child=1 3 6 4 20 -6 11 21 13 -10 26 -2 -9 27 -8 -16 24 -14 19 -12 -1 22 -5 -7 -11 -22 -4 -3 29 -19
right_child=2 8 10 7 5 23 14 12 9 16 18 -13 17 -15 15 -17 -18 28 -20 -21 25 -23 -24 -25 -26 -27 -28 -29 -30 -31
leaf_value=0.053374319720805009 -0.037431764556276385 -0.0016925380622023001 -0.077081933002972128 0.021304630889372476 0.0044233428326230532 0.00014879353174247068 -0.057072580205857842 0.0042445480132137095 -0.027199053960164161 -0.0015837111506874447 -0.051607883684405158 -0.014052475125298289 0.052627311520337929 0.025186184108969962 -0.020307373623947356 -0.057520504610378248 -0.12387363579009575 0.037672016686096696 -0.037764860683655671 -0.079694226950811908 0.064659006162673435 0.074715058560416048 -0.0038334667295493435 0.067339601807427332 0.033642053505363617 0.092407447502683315 -0.1140340894171345 0.015504006595938941 0.04800067786248409 0.0024340843964916043
leaf_weight=222.8315276876092 280.09793856483884 519.98919251048937 189.67859948257683 294.39057047665119 140.19495144253597 14.017811320722101 229.16395512316376 73.298683876171708 228.06031684833579 255.07832353841513 190.51707863598131 543.57913487730548 283.77605925314128 256.97956254612654 163.98962364485487 80.76249242934864 3.9271733332425347 145.06888417620212 113.53579188731965 163.66895604273304 190.78690314199775 16.348577328026295 149.60505093587562 164.0434241509065 55.908960603643209 116.8903990346007 52.072457624948584 293.72880799975246 154.2528958087787 95.230603965930641
leaf_count=1074 5957 4509 8834 1632 834 66 4959 418 2753 2281 6267 8716 1460 1746 2887 2120 31 758 3563 7947 948 92 1035 809 458 654 3149 2216 813 728
internal_value=0 0.0236501 -0.043297 0.0397753 0.0550211 0.0366649 -0.0301927 0.0290984 0.00305739 -0.00960003 -0.0672642 -0.0220028 0.0377136 0.00947626 -0.044427 -0.0325868 0.00314514 0.0413302 -0.0580758 -0.0645866 0.0660331 0.0150319 0.0128343 0.06205 0.00474914 0.075201 -0.0850413 0.00451492 0.0332049 0.0237072
internal_weight=0 3674.41 2007.07 2060.74 848.765 318.256 1297.59 1211.97 1613.67 542.975 709.473 823.677 751.627 1070.7 473.916 244.752 314.914 678.328 467.722 354.186 530.509 460.344 443.996 178.061 310.987 307.677 241.751 813.718 394.552 240.299
internal_count=79714 25315 54399 11321 4385 1709 24639 6936 13994 5523 29760 14673 4177 8471 9966 5007 2770 3759 17777 14214 2676 2759 2667 875 2739 1602 11983 6725 2299 1486
is_linear=0
shrinkage=0.1


Tree=21
num_leaves=31
num_cat=0
split_feature=4 4 4 1 0 3 3 0 4 4 4 4 4 6 6 1 0 6 3 3 4 1 6 0 0 5 5 1 0 6
split_gain=537.476 100.38 64.7425 19.4046 17.661 16.8369 21.9092 15.8201 12.3206 12.2323 11.1377 9.27656 9.09071 7.16418 6.88947 6.87367 6.70029 6.26 6.8624 5.7949 5.69117 5.81405 5.33204 4.9963 4.96736 5.12982 5.13855 4.83861 4.81924 5.28676
threshold=30.500000000000004 60.500000000000007 17.500000000000004 1.5000000000000002 2.5000000000000004 2.5000000000000004 3.5000000000000004 3.5000000000000004 74.500000000000014 12.500000000000002 46.500000000000007 25.500000000000004 43.500000000000007 81.500000000000014 76.500000000000014 1.0000000180025095e-35 3.5000000000000004 62.500000000000007 2.5000000000000004 2.5000000000000004 18.500000000000004 3.5000000000000004 86.500000000000014 1.0000000180025095e-35 2.5000000000000004 16.500000000000004 13.500000000000002 1.5000000000000002 1.0000000180025095e-35 47.500000000000007
decision_type=2 2 2 2 2 2 2 2 2 2 2 2 2 2 2 2 2 2 2 2 2 2 2 2 2 2 2 2 2 2
left_child=2 3 5 12 11 9 -7 8 -3 -1 16 17 19 -8 23 -6 -5 18 -4 -2 -19 -22 -17 -12 -11 26 -26 -10 -14 -30
right_child=1 7 4 10 15 6 13 -9 27 24 14 -13 28 -15 -16 22 -18 20 -20 -21 21 -23 -24 -25 25 -27 -28 -29 29 -31
leaf_value=0.071129741441322808 -0.013397652457920496 -0.053448838834246316 0.014932603281760427 -0.009656049252527903 0.0073283704500400051 0.0064134279400601957 0.041939525216982826 -0.036652790361948642 -0.096018928100841575 0.037657149707261292 -0.065662445325102445 -0.0071860330974288346 -0.078055281841613311 0.083008380012621993 -0.0044779650179129398 0.028931316268324382 0.012553040663480418 0.061544510394966827 -0.015123678632011296 -0.041066129018056605 0.011153041802387248 0.047525438156587343 0.055635388954623721 -0.028109197898580573 0.056386937183981502 0.062774468450991425 -0.049695076241615427 -0.072015582446402104 -0.061258612293273486 -0.029222765264674294
leaf_weight=300.45771458011586 220.72414911258966 299.16767019714462 234.68783210078254 568.01887024729513 126.43777483375743 201.43390026548877 212.86571187712252 205.21338265464874 133.39520159794483 306.70917189912871 41.851471136556938 299.5055435327813 43.739986893720925 53.064403261523694 112.68347174674273 476.65273781353608 178.53883962705731 37.489251721650362 112.31889402726665 115.2057960939128 187.00495918933302 57.448344917967916 88.683583285659552 230.85013578878716 9.8843323290348071 185.75951085751876 8.4868611013516766 226.7042962416599 84.237097441218793 132.60308518935926
leaf_count=1592 2700 9904 1477 6751 922 1331 1125 7132 7447 1602 1022 2592 1202 286 1973 3127 1739 205 953 1851 1245 322 547 4150 47 930 42 10722 1980 2796
internal_value=0 -0.0330782 0.029587 -0.0191633 0.016311 0.0464094 0.0312907 -0.0608996 -0.068447 0.0551189 -0.0114717 0.00729896 -0.0337591 0.0501345 -0.0252778 0.0284063 -0.00434476 0.0141967 0.00520401 -0.0228864 0.0252647 0.0197008 0.0331203 -0.0338725 0.0457019 0.0577892 0.00738069 -0.0809074 -0.0477758 -0.0416679
internal_weight=0 2592.93 2898.89 1728.45 1620.23 1278.66 467.364 864.481 659.267 811.298 1131.94 928.455 596.51 265.93 385.385 691.774 746.558 628.949 347.007 335.93 281.943 244.453 565.336 272.702 510.84 204.131 18.3712 360.099 260.58 216.84
internal_count=79714 61369 18345 26164 11390 6955 2742 35205 28073 4213 15635 6794 10529 1411 7145 4596 8490 4202 2430 4551 1772 1567 3674 5172 2621 1019 89 18169 5978 4776
is_linear=0
shrinkage=0.1


Tree=22
num_leaves=31
num_cat=0
split_feature=4 4 4 4 0 0 1 3 3 3 3 3 3 4 6 1 5 4 6 5 6 4 0 4 1 3 0 6 4 6
split_gain=479.26 96.4224 60.9852 20.6209 15.9475 12.7524 12.5 11.3228 11.8154 10.6456 10.5766 9.86201 15.0092 9.22962 8.96708 8.25258 6.94961 6.56576 6.42755 5.98906 5.77128 5.59278 5.55658 5.78646 5.42801 5.13433 5.05851 4.98944 4.93627 6.75609
threshold=30.500000000000004 52.500000000000007 15.500000000000002 78.500000000000014 1.5000000000000002 1.5000000000000002 1.0000000180025095e-35 2.5000000000000004 3.5000000000000004 2.5000000000000004 3.5000000000000004 2.5000000000000004 3.5000000000000004 20.500000000000004 37.500000000000007 3.5000000000000004 87.500000000000014 10.500000000000002 71.500000000000014 31.500000000000004 54.500000000000007 25.500000000000004 1.0000000180025095e-35 42.500000000000007 1.5000000000000002 2.5000000000000004 2.5000000000000004 84.500000000000014 27.500000000000004 12.500000000000002
decision_type=2 2 2 2 2 2 2 2 2 2 2 2 2 2 2 2 2 2 2 2 2 2 2 2 2 2 2 2 2 2
left_child=2 7 6 5 18 -3 14 22 -9 13 19 16 -13 -6 -1 25 17 -8 21 -11 -15 -4 -2 -24 -5 -7 -26 -14 29 -12
right_child=1 3 4 24 9 15 11 8 -10 10 28 12 27 20 -16 -17 -18 -19 -20 -21 -22 -23 23 -25 26 -27 -28 -29 -30 -31
leaf_value=-0.0059108443349156822 -0.025343425555188745 -0.062808376419504403 0.0054662807946377467 -0.090450462526652092 0.046384029458006446 -0.03431032565721033 0.087464218250174544 -0.044097525342006651 -0.012520988666139238 -0.042594806014559339 -0.071416616241665384 0.013835516283583644 0.052662049285401503 0.011548831373729498 0.04033507104666826 -0.013827554188736624 0.094142919382090837 0.053098181408144977 0.018854104442737628 0.0028808302627059863 0.033819273300864275 -0.019573804073418057 0.0021934062103877001 -0.016178234694828399 -0.078488678326172512 -0.058609606135463989 -0.048204311546916005 0.10160135221441449 -0.0070937005643099266 0.03496482624797391
leaf_weight=59.687528101494536 148.87811445887201 256.51542013406288 340.16411008895375 126.81062489678152 280.50945345475338 244.71586034458596 66.428765354328789 215.11517978145275 263.84345629485324 36.672601170837879 6.1547045651823273 124.03140145237558 133.74105334619526 217.92332035861909 140.9149138048524 130.90950778510887 64.033203675178811 340.84302974725142 248.40803375747055 137.70530608575791 249.68565076310188 120.90090374462306 492.19962986698374 263.07624797499739 119.54133354686201 134.884306541353 102.40269184543286 24.675925860879943 38.884147529490292 198.76710355142131
leaf_count=322 2279 9229 2423 7874 1534 6544 384 3835 3948 366 37 788 694 1557 741 2726 359 1828 1701 1175 1592 1181 5085 4097 6793 4394 4565 149 318 1196
internal_value=0 -0.0319147 0.0281794 -0.053785 0.0177088 -0.0446182 0.0487594 -0.0142716 -0.026703 0.0249003 0.0121217 0.0546635 0.0398877 0.0320432 0.026575 -0.0354782 0.0635184 0.0587035 0.0058867 -0.00668294 0.0234404 -0.00109975 -0.0076863 -0.00420577 -0.0739459 -0.0429447 -0.0645158 0.0602851 0.0255715 0.0317697
internal_weight=0 2498.89 2830.13 1115.78 1875.78 767.025 954.356 1383.11 478.959 1166.3 418.184 753.753 282.448 748.118 200.602 510.51 471.305 407.272 709.473 174.378 467.609 461.065 904.154 755.276 348.755 379.6 221.944 158.417 243.806 204.922
internal_count=79714 61369 18345 42125 13080 22893 5265 19244 7783 7775 3092 4202 1631 4683 1063 13664 2571 2212 5305 1541 3149 3604 11461 9182 19232 10938 11358 843 1551 1233
is_linear=0
shrinkage=0.1


Tree=23
num_leaves=31
num_cat=0
split_feature=4 4 4 4 1 1 4 0 1 4 0 3 5 6 6 3 3 0 0 0 3 0 5 4 4 3 6 6 6 0
split_gain=440.694 78.8844 66.7984 19.037 16.9307 12.7339 11.7388 11.5921 9.7404 8.67231 8.25584 7.15756 8.26627 7.09922 6.95287 6.54193 15.7135 7.87875 6.37861 5.98543 5.91895 5.84854 5.75515 5.73936 5.65182 4.93603 4.87906 4.86147 4.79675 4.85177
threshold=34.500000000000007 19.500000000000004 67.500000000000014 13.500000000000002 3.5000000000000004 1.5000000000000002 45.500000000000007 3.5000000000000004 1.0000000180025095e-35 90.500000000000014 3.5000000000000004 2.5000000000000004 39.500000000000007 96.500000000000014 34.500000000000007 2.5000000000000004 3.5000000000000004 2.5000000000000004 2.5000000000000004 2.5000000000000004 1.5000000000000002 3.5000000000000004 92.500000000000014 26.500000000000004 26.500000000000004 2.5000000000000004 56.500000000000007 77.500000000000014 62.500000000000007 2.5000000000000004
decision_type=2 2 2 2 2 2 2 2 2 2 2 2 2 2 2 2 2 2 2 2 2 2 2 2 2 2 2 2 2 2
left_child=1 3 4 10 6 23 28 24 13 18 15 14 -13 20 -10 -1 -17 22 -4 25 -5 -14 -18 -3 27 -8 -6 -7 -2 -30
right_child=2 5 9 8 26 7 19 -9 11 -11 -12 12 21 -15 -16 16 17 -19 -20 -21 -22 -23 -24 -25 -26 -27 -28 -29 29 -31
leaf_value=0.057697424659959709 -0.028054080249914754 0.005702658839754105 -0.068934889263268698 0.026619047129876977 -0.017371652218600063 0.011239653543262777 -0.039768464050964486 0.034899358764529036 0.02282018916789039 -0.086434837916935736 0.078711291094154145 -0.005388602876799666 0.024311906494995161 0.096458113006513302 0.051018297897677013 0.00068995904793324437 0.03458015865673774 0.10389356810277697 -0.04473967877375612 -0.029437715470318915 -0.012781397058126424 0.06779551693183998 0.13451472438724354 -0.014351731535564903 0.00060725851929775969 -0.065272843416009085 0.0055481858420470308 0.035793431495185844 -0.021296577919150204 0.0081926893021525057
leaf_weight=307.24140926369 294.44209150830284 321.72245312016457 234.29206763085676 67.294294484890997 187.01228371961042 317.58436737628654 201.66329225176014 234.30818060413003 117.93939857184887 137.94448668163386 112.70897221029736 73.993094699573703 130.52638326631859 8.8334590368904156 338.16734960093163 80.667531999759376 71.412816896336153 28.783785918960348 203.68680931886774 282.33688118774444 87.970587134128436 40.537438593804836 6.2685298463329664 256.46873945998959 372.54228596528992 121.66462408762891 184.51664403243922 108.07787825656123 131.0035131201148 97.178676353301853
leaf_count=1691 4535 2424 12148 399 3035 2209 5519 1629 700 8741 686 524 891 50 1864 519 385 155 7979 6141 592 226 35 2803 3383 3732 2752 706 1972 1289
internal_value=0 0.0239823 -0.0356203 0.0407128 -0.0245041 0.00868897 -0.0306009 0.0153426 0.0311882 -0.0645693 0.0542879 0.0363211 0.0225371 0.00925653 0.0437269 0.0487198 0.0339801 0.0592037 -0.0576826 -0.0400759 0.00429539 0.0346163 0.0426444 -0.00319288 0.00960186 -0.0493655 -0.00598871 0.017474 -0.0196204 -0.00873763
internal_weight=0 3083.05 2075.74 1472.35 1499.82 1610.7 1128.29 1032.51 865.262 575.923 607.083 701.164 245.057 164.098 456.107 494.374 187.133 106.465 437.979 605.665 155.265 171.064 77.6813 578.191 798.205 323.328 371.529 425.662 522.624 228.182
internal_count=79714 21871 57843 8717 28975 13154 23188 7927 5246 28868 3471 4205 1641 1041 2564 2785 1094 575 20127 15392 991 1117 420 5227 6298 9251 5787 2915 7796 3261
is_linear=0
shrinkage=0.1


Tree=24
num_leaves=31
num_cat=0
split_feature=4 4 4 4 4 1 1 3 3 0 0 1 0 0 3 3 0 0 1 6 5 5 6 4 1 4 6 1 4 3
split_gain=403.765 79.3188 54.0071 15.483 14.0507 11.0298 10.6025 9.6209 12.8257 8.42892 7.82588 7.22586 6.70658 6.16971 6.08647 8.42579 5.97826 5.45985 5.47534 7.78336 5.43738 4.9741 4.90779 4.87622 4.83988 4.51156 4.4943 4.38939 4.2724 4.23901
threshold=36.500000000000007 18.500000000000004 60.500000000000007 23.500000000000004 11.500000000000002 1.5000000000000002 1.5000000000000002 2.5000000000000004 3.5000000000000004 1.5000000000000002 3.5000000000000004 1.0000000180025095e-35 3.5000000000000004 2.5000000000000004 2.5000000000000004 3.5000000000000004 1.5000000000000002 1.0000000180025095e-35 2.5000000000000004 87.500000000000014 41.500000000000007 85.500000000000014 21.500000000000004 91.500000000000014 3.5000000000000004 79.500000000000014 13.500000000000002 1.5000000000000002 13.500000000000002 2.5000000000000004
decision_type=2 2 2 2 2 2 2 2 2 2 2 2 2 2 2 2 2 2 2 2 2 2 2 2 2 2 2 2 2 2
left_child=1 4 5 10 -1 13 25 17 22 11 14 -5 23 -2 21 -16 -7 26 19 -19 -17 -3 -9 29 -11 -4 -6 -12 -20 -8
right_child=2 3 6 9 7 16 12 8 -10 24 27 -13 -14 -15 15 20 -18 18 28 -21 -22 -23 -24 -25 -26 -27 -28 -29 -30 -31
leaf_value=0.06026638254556798 -0.048439991357015211 0.018275049525518589 -0.063075265832532965 -0.037624760583583612 -0.064032800085415884 -0.028292017162948858 -0.041106920589986329 -0.051036677398729836 0.038585616165664659 0.0039133407094952164 0.020283975125584254 -0.0033200293576033458 -0.02775328911764105 -0.022891891322120717 -0.026498979490805603 -0.014212758235446455 -0.0091862537596433171 0.032075931658459705 0.083350649056172607 0.077216270329192316 0.034536462028931757 0.053395316287005702 0.0065510808419571923 -0.081575701422550856 0.022711522193525492 -0.089526124096173193 0.027931790868601432 0.056175806818083832 0.051041565367974329 -0.06546947720112882
leaf_weight=291.89717893011402 204.69965703878552 279.02309578610584 167.1437500534812 73.84433925896883 5.5649738311767569 247.47927068115678 191.64175931422506 16.596494078636169 204.33179203118198 589.58096074266359 56.608572967816144 364.41033909330145 116.98782589822076 175.62370024435222 70.40570891648531 34.234202595427632 484.21145668125246 261.01658625807613 55.885409549809992 44.745967355673201 68.984945897944272 47.140483809635043 136.62166661769152 59.056964612333104 178.40817259950563 104.9868516480492 117.8229307057336 85.591281117172912 152.92172989516985 113.84773146468797
leaf_count=1752 5111 1779 6824 930 29 5028 7733 157 1261 5448 377 3640 4238 3323 656 225 7448 1500 337 246 442 320 1003 3688 1391 7501 682 549 875 5221
internal_value=0 0.0219168 -0.0368355 0.00864276 0.0409735 -0.0228287 -0.0575023 0.0353165 0.022185 0.00196554 0.0211887 -0.00910025 -0.0485859 -0.0366425 0.0152995 0.00017425 -0.0156484 0.0426762 0.0472063 0.0386819 0.018368 0.023351 0.000313211 -0.0552713 0.00828026 -0.0732799 0.0237841 0.0418876 0.0596888 -0.0501862
internal_weight=0 3135.64 1865.68 1848.23 1287.4 1112.01 753.665 995.508 357.55 1206.24 641.988 438.255 481.534 380.323 499.788 173.625 731.691 637.958 514.57 305.763 103.219 326.164 153.218 364.546 767.989 272.131 123.388 142.2 208.807 305.489
internal_count=79714 23599 56115 15757 7842 20910 35205 6090 2421 11409 4348 4570 20880 8434 3422 1323 12476 3669 2958 1746 667 2099 1160 16642 6839 14325 711 926 1212 12954
is_linear=0
shrinkage=0.1


Tree=25
num_leaves=31
num_cat=0
split_feature=4 4 4 4 3 3 3 3 3 4 3 3 0 4 1 4 0 0 2 0 5 6 3 4 1 0 5 6 1 3
split_gain=369.263 90.0664 31.8535 20.2375 12.352 9.85305 9.71345 17.5378 8.75794 7.82792 7.79132 8.67643 7.39362 6.57608 5.94712 6.0026 5.64526 5.44074 6.05476 5.32388 5.18445 5.04529 4.76111 5.01865 4.51257 4.23981 4.18229 5.27329 4.13468 4.11433
threshold=41.500000000000007 22.500000000000004 73.500000000000014 15.500000000000002 2.5000000000000004 2.5000000000000004 2.5000000000000004 3.5000000000000004 3.5000000000000004 27.500000000000004 2.5000000000000004 3.5000000000000004 3.5000000000000004 55.500000000000007 1.5000000000000002 11.500000000000002 1.5000000000000002 1.5000000000000002 1.0000000180025095e-35 1.5000000000000002 47.500000000000007 68.500000000000014 3.5000000000000004 54.500000000000007 2.5000000000000004 2.5000000000000004 44.500000000000007 74.500000000000014 3.5000000000000004 1.0000000180025095e-35
decision_type=2 2 2 2 2 2 2 2 2 2 2 2 2 2 2 2 2 2 2 2 2 2 2 2 2 2 2 2 2 2
left_child=1 3 5 6 9 13 14 -8 -6 21 16 -12 24 -2 17 -16 -5 18 -1 20 -9 -3 -7 -24 -4 -10 27 -17 -13 -19
right_child=2 4 12 10 8 22 7 19 25 -11 11 28 -14 -15 15 26 -18 29 -20 -21 -22 -23 23 -25 -26 -27 -28 -29 -30 -31
leaf_value=0.048329478049159005 -0.016781028034046876 0.01061511976660974 -0.084263321818506765 0.018367494218598592 -0.025695179483679949 -0.056298261294550456 0.0053442968871001782 -0.0056892741734210321 -0.010669225695825249 0.001425418244377027 -0.0088564809906267698 0.016152257525570583 -0.041098585465752673 -0.036247374497155163 0.082759825813402535 0.051133273666039127 0.038566744123814389 0.082908712927835249 -0.002754930705060085 0.065300490384284815 0.052269225142355338 0.035218011965506252 -0.020173598274071156 -0.0514004777593896 -0.059776734392284731 0.012842600520939993 0.063826857964412564 -0.0044738776176830265 0.05012754411381775 0.043086919754664582
leaf_weight=45.389812150853686 393.63238986313809 230.57095013512298 165.00757114331645 230.72730984468944 232.06271163886413 193.28635176795069 144.39850949961692 25.5501941323746 168.95183571102098 710.0324355638586 130.25688321655616 144.44624324608594 94.783094246289693 310.37240313482471 96.923218059295323 59.998949662782252 345.62023966060951 35.520198926562443 47.463451004121453 113.39143329311628 38.978982334723696 130.54282766277902 112.32753378921188 94.99058153515216 138.37281317487941 140.45688763167709 133.50672865810338 23.825939602334984 47.630402882583439 96.248450703918934
leaf_count=272 7205 1731 11409 1494 3279 5676 995 165 1968 7431 1169 992 4775 9579 640 344 2137 233 259 645 242 897 2359 3310 7444 1330 788 142 264 540
internal_value=0 0.0183713 -0.0412285 0.0340147 0.00129941 -0.0324875 0.0449691 0.0312369 -0.0110101 0.00752193 0.0235172 0.0110665 -0.0654782 -0.0253631 0.0531827 0.0620643 0.0304804 0.0407569 0.0222169 0.0522511 0.0293207 0.0195091 -0.0450077 -0.0344814 -0.0730949 4.02843e-06 0.0528348 0.0353278 0.0245773 0.0538215
internal_weight=0 3372.49 1502.77 1759.88 1612.62 1104.61 861.196 322.319 541.471 1071.15 898.681 322.334 398.163 704.005 538.877 314.255 576.348 224.622 92.8533 177.921 64.5292 361.114 400.604 207.318 303.38 309.409 217.332 83.8249 192.077 131.769
internal_count=79714 27957 51757 11321 16636 28129 5265 2047 6577 10059 6056 2425 23628 16784 3218 1914 3631 1304 531 1052 407 2628 11345 5669 18853 3298 1274 486 1256 773
is_linear=0
shrinkage=0.1


Tree=26
num_leaves=31
num_cat=0
split_feature=4 4 4 4 1 3 3 5 0 6 4 1 0 3 6 6 0 1 6 0 5 0 5 6 0 0 1 1 4 6
split_gain=340.008 69.8082 46.5476 15.034 10.0968 9.70509 15.3718 9.61348 9.2648 7.49613 7.48729 6.32969 5.90062 5.76883 5.4322 5.07064 5.01076 4.85506 4.71265 4.57249 4.91636 4.55202 4.49598 10.2772 4.1961 4.18868 4.07181 3.96398 4.34746 3.98525
threshold=30.500000000000004 52.500000000000007 17.500000000000004 78.500000000000014 1.5000000000000002 2.5000000000000004 3.5000000000000004 33.500000000000007 1.5000000000000002 51.500000000000007 11.500000000000002 3.5000000000000004 3.5000000000000004 1.5000000000000002 51.500000000000007 19.500000000000004 1.0000000180025095e-35 1.0000000180025095e-35 67.500000000000014 1.5000000000000002 93.500000000000014 3.5000000000000004 61.500000000000007 55.500000000000007 3.5000000000000004 2.5000000000000004 3.5000000000000004 2.5000000000000004 16.500000000000004 52.500000000000007
decision_type=2 2 2 2 2 2 2 2 2 2 2 2 2 2 2 2 2 2 2 2 2 2 2 2 2 2 2 2 2 2
left_child=2 4 5 8 14 10 22 24 17 -9 21 -10 18 -5 -2 26 -16 -3 -6 -12 27 -1 -7 -24 -4 -15 -8 28 -21 -29
right_child=1 3 7 13 12 6 15 9 11 -11 19 -13 -14 25 16 -17 -18 -19 -20 20 -22 -23 23 -25 -26 -27 -28 29 -30 -31
leaf_value=0.059506840133708008 -0.038292102158986215 -0.091272774930296507 -0.0064221153610846743 -0.051168939742556409 -0.01828743562140232 -0.0069549453990212177 -0.014122073828712476 0.00837732660990133 -0.039627186601471985 0.025235188516221498 0.030571855251880171 -0.012684740733853143 0.0083257474275890871 -0.094774060170039559 -0.046714961789990753 0.051733799083513714 -0.009365526486780431 -0.051045954727863968 -0.00043059872365502471 0.043439877201727733 0.096501914993580185 0.10525447805863963 -0.016661093993926106 0.057086540732107907 0.019893490867834412 -0.063077935647575759 0.074107729275670151 0.041623478490937851 -0.00088472446672754998 0.078212272213179598
leaf_weight=136.90748183586402 186.94496599124977 35.847745847189799 283.71510707354173 117.14973595271294 383.02469590376131 102.89914147229865 22.014792206231508 459.46844746172428 332.81315733434167 619.31201302073896 204.81203120481223 118.15562677331036 200.43916137120686 90.001186195280752 43.389540625503287 195.53462527366355 208.6520936206216 184.01427761395462 240.65181160438806 145.21968075027689 21.026861964724958 25.858490998740308 33.442887013312429 43.443468136247247 77.047309142537415 77.677242372767068 6.8607673617079845 57.901918028015643 26.106199584668502 61.267793362610973
leaf_count=850 3527 1860 2426 7622 5881 784 141 3802 10938 4580 1269 2726 2346 6971 879 1236 3304 7369 3307 857 123 224 272 275 582 4639 34 333 171 386
internal_value=0 -0.0285543 0.0251127 -0.0489466 -0.0131256 0.0407709 0.0285022 0.0133294 -0.0407738 0.0180552 0.0480731 -0.0325682 -0.00660024 -0.0681952 -0.0253757 0.0459573 -0.0157953 -0.0576048 -0.0113972 0.0421777 0.0498081 0.0667747 0.00671458 0.0250089 -0.000801944 -0.0800908 0.00684113 0.0464282 0.0366858 0.0604346
internal_weight=0 2218.76 2522.84 955.659 1263.1 1083.3 404.196 1439.54 670.831 1078.78 679.1 450.969 824.116 284.828 438.987 224.41 252.042 219.862 623.677 516.334 311.522 162.766 179.785 76.8864 360.762 167.678 28.8756 290.496 171.326 119.17
internal_count=79714 61369 18345 42125 19244 6955 2742 11390 22893 8382 4213 13664 11534 19232 7710 1411 4183 9229 9188 3139 1870 1074 1331 547 3008 11610 175 1747 1028 719
is_linear=0
shrinkage=0.1


Tree=27
num_leaves=31
num_cat=0
split_feature=4 4 4 1 4 3 0 1 0 4 4 3 6 1 4 3 3 3 4 0 3 6 0 5 5 6 0 5 5 6
split_gain=313.385 77.9055 32.5745 14.9973 12.054 9.19378 8.11161 7.44581 7.03132 6.42869 6.32046 6.17456 5.97888 5.75515 5.60772 5.44946 5.15879 12.2499 5.06254 4.93333 4.80156 4.43505 4.33234 4.15575 4.89163 5.1383 5.11033 4.15267 4.13086 4.11667
threshold=39.500000000000007 19.500000000000004 67.500000000000014 2.5000000000000004 12.500000000000002 2.5000000000000004 2.5000000000000004 3.5000000000000004 1.5000000000000002 27.500000000000004 87.500000000000014 2.5000000000000004 49.500000000000007 3.5000000000000004 28.500000000000004 3.5000000000000004 2.5000000000000004 3.5000000000000004 24.500000000000004 3.5000000000000004 2.5000000000000004 20.500000000000004 2.5000000000000004 62.500000000000007 78.500000000000014 49.500000000000007 2.5000000000000004 15.500000000000002 22.500000000000004 87.500000000000014
decision_type=2 2 2 2 2 2 2 2 2 2 2 2 2 2 2 2 2 2 2 2 2 2 2 2 2 2 2 2 2 2
left_child=1 4 5 8 16 12 13 10 18 11 -4 -5 -2 20 -10 -13 19 -18 28 -1 -6 -11 -7 -19 26 -26 -25 -21 -3 -30
right_child=2 3 7 9 6 22 -8 -9 14 21 -12 15 -14 -15 -16 -17 17 23 -20 27 -22 -23 -24 24 25 -27 -28 -29 29 -31
leaf_value=0.054039557358994295 -0.0313027728744169 -0.043734247250183551 -0.056826294747364614 0.033380774757944938 0.024764513794423598 -0.049601573023696638 0.041913778414150275 -0.036586880763976384 0.011523040575154589 -0.022799247791055688 -0.085274952946942872 -0.016139957951870048 -0.012051480897910444 0.042935657005068989 -0.0076270112139935238 0.023983165715437845 0.0083832426813766313 0.081225911316180399 -0.022980547733287202 -0.018590577705707028 0.0021359614385815687 0.009887814055303451 -0.028071935942768675 -0.051110623541393167 0.11727726506853714 0.020506725883914997 0.071479753003917734 0.10153353271802353 0.00039648543613120902 0.053272992609867675
leaf_weight=201.90955723891966 276.64170074352296 17.329213357996196 254.0737995034724 252.59754503984004 281.19887556834146 202.16619514705963 363.12027477985248 116.87433321459685 343.68986645457335 46.820801293477416 112.75223120463488 58.349447831977159 387.01033818261931 109.63214089814574 275.4794491417706 80.621618247590959 77.066498282365501 51.632050177082419 240.7549686190905 3.1179201221093527 140.68502372666262 365.91132854064927 173.82980844844133 9.4971471428871137 10.595242871437224 11.380731960758565 5.2970551766920826 37.375212144921534 92.817127973772585 17.499848550185561
leaf_count=1259 6368 169 13953 1690 1804 5948 2421 5740 2736 531 9175 598 8312 715 3413 563 506 299 3125 20 1165 3711 4036 53 65 63 34 313 798 131
internal_value=0 0.0182784 -0.0371289 0.00475038 0.036889 -0.0271546 0.0303935 -0.0585674 -0.0035058 0.0148878 -0.0655706 0.0240666 -0.0200763 0.0225231 0.00300284 0.00713677 0.0511364 0.0375244 -0.0144448 0.0604283 0.0172186 0.00617976 -0.039648 0.0629288 0.0372364 0.0671626 -0.00721721 0.0922841 0.00165449 0.00878441
internal_weight=0 3094.38 1523.35 1791.87 1302.51 1039.65 894.636 483.7 987.57 804.301 366.826 391.569 663.652 531.516 619.169 138.971 407.871 165.469 368.401 242.403 421.884 412.732 375.996 88.4022 36.7702 21.976 14.7942 40.4931 127.646 110.317
internal_count=79714 26182 53532 17465 8717 24664 6105 28868 10372 7093 23128 2851 14680 3684 6149 1161 2612 1020 4223 1592 2969 4242 9984 514 215 128 87 333 1098 929
is_linear=0
shrinkage=0.1


Tree=28
num_leaves=31
num_cat=0
split_feature=4 4 4 4 1 3 1 6 0 3 1 0 3 3 1 4 5 0 4 6 4 5 0 6 0 6 3 5 5 6
split_gain=284.003 54.1565 49.6387 12.9277 12.1859 11.8744 7.76145 8.46256 7.63485 7.12194 6.76393 6.4405 6.11004 8.16482 5.90083 5.53623 5.26211 4.42987 4.37552 4.24644 4.24465 3.85074 5.09504 4.4072 3.78284 3.6675 4.46076 5.51017 5.13242 5.02237
threshold=32.500000000000007 57.500000000000007 15.500000000000002 22.500000000000004 2.5000000000000004 2.5000000000000004 1.5000000000000002 43.500000000000007 1.5000000000000002 3.5000000000000004 3.5000000000000004 1.5000000000000002 2.5000000000000004 3.5000000000000004 3.5000000000000004 65.500000000000014 12.500000000000002 2.5000000000000004 45.500000000000007 86.500000000000014 10.500000000000002 88.500000000000014 3.5000000000000004 73.500000000000014 1.5000000000000002 45.500000000000007 1.5000000000000002 97.500000000000014 18.500000000000004 97.500000000000014
decision_type=2 2 2 2 2 2 2 2 2 2 2 2 2 2 2 2 2 2 2 2 2 2 2 2 2 2 2 2 2 2
left_child=2 5 6 12 11 10 7 -1 -5 -7 18 -3 24 -14 -10 19 -9 -17 -2 -6 -18 22 -8 -23 -4 -22 -27 28 -28 -30
right_child=1 4 3 8 15 9 21 16 14 -11 -12 -13 13 -15 -16 17 20 -19 -20 -21 25 23 -24 -25 -26 26 27 -29 29 -31
leaf_value=0.0093412763039433262 -0.007649461865888405 -0.080866443331488208 0.01786316770011967 -0.0072151645724980139 -0.026859557657001792 -0.043695994660057164 0.042532199003575161 -0.03991171912445899 0.0060734548974562931 -0.017474194060201863 0.0074151573409248182 -0.05347100656512524 -0.0095312879343393067 0.023911715690225144 0.029671116126065319 -0.058314874118991923 0.079117899713418594 -0.03121528711319569 -0.025658305373461435 0.025737383772968705 0.12218200845458671 0.056237294323182786 0.071473967708823888 0.11740112638991379 0.035023447356531394 0.056706222316845079 -0.051149608654667028 -0.076860956866049268 0.042825442781178016 -0.055621112892444202
leaf_weight=116.27047067316016 382.44340381550137 128.22862926300149 215.19814526371192 346.10519502544776 84.289813223411329 191.69514853053261 331.80022068822291 7.3647051379084578 469.50378315313719 225.33590552717214 196.48717161617242 259.44390015666431 122.98094138689339 179.63385760725942 136.85715746274218 122.4819690870936 32.666218871832825 118.85472847215715 208.44839034270262 18.767570001888089 5.2184123946353784 35.6779587053461 74.481484079093207 17.588418189436197 318.71314047882333 66.952986981836148 7.3605400994420043 5.2273049401119343 75.459329885896295 5.5642473618499926
leaf_count=796 5462 9067 1494 3546 2395 4389 2200 42 4193 4507 2611 13646 1169 1256 1086 7336 220 4879 4849 427 33 264 533 126 2137 423 49 27 515 37
internal_value=0 -0.0289219 0.0217871 0.0126019 -0.050372 -0.015884 0.0428101 0.0309072 0.00463534 -0.0295275 -0.00865776 -0.0625325 0.0216727 0.0103207 0.0113995 -0.0366835 0.0430905 -0.0449687 -0.0140024 -0.0172812 0.0461708 0.0511525 0.0478379 0.0764334 0.0281068 0.0396789 0.0369975 0.0229013 0.0288016 0.0360647
internal_weight=0 1936.48 2570.62 1788.99 732.067 1204.41 781.632 322.084 952.466 417.031 787.379 387.673 836.526 302.615 606.361 344.394 205.814 241.337 590.892 103.057 198.449 459.548 406.282 53.2664 533.911 165.783 160.564 93.6114 88.3841 81.0236
internal_count=79714 59568 20146 14881 37750 21818 5265 2142 8825 8896 12922 22713 6056 2425 5279 15037 1346 12215 10311 2822 1304 3123 2733 390 3631 1084 1051 628 601 552
is_linear=0
shrinkage=0.1


Tree=29
num_leaves=31
num_cat=0
