tree
version=v4
num_class=1
num_tree_per_iteration=1
label_index=0
max_feature_idx=8
objective=lambdarank
feature_names=weather field_type condition_horse condition_rider fine_type skill speed hp power
feature_infos=[0:2] [0:1] [0:4] [0:4] [0:1] [0:4] [10:100] [10:100] [10:100]
tree_sizes=3335 3332 3358 3365 3355 3354 3357 3339 3342 3365 3340 3349 3369 3380 3368 3369 3354 3367 3359 3386 3353 3406 3377 3390 3365 3369 3392 3381 3388 3367 3392 3401 3395 3404 3400 3389 3400 3402 3389 3376 3402 3399 3405 3387 3411 3399 3429 3430 3411 3399 3397 3403 3390 3411 3417 3419 3391 3407 3401 3403 3398 3390 3403 3397 3394 3426 3419 3429 3434 3398 3427 3414 3404 3412 3439 3364 3414 3403 3432 3427 3441 3427 3425 3415 3437 3427 3417 3412 3425 3426 3418 3416 3395 3418 3431 3419 3417 3436 3433 3433

Tree=0
num_leaves=31
num_cat=0
split_feature=6 6 6 5 6 2 6 3 2 3 6 6 3 3 5 3 5 4 2 6 6 6 6 1 6 5 2 5 5 6
split_gain=1074.05 88.89 56.7994 12.6828 9.72132 8.1529 5.4458 3.81927 3.06105 3.00997 2.73943 2.71771 2.54846 2.35795 2.16095 2.03383 2.02654 2.16413 1.78879 2.39431 1.72396 1.66478 1.60471 1.57803 1.52019 1.46927 1.35822 1.33818 1.89107 1.32892
threshold=36.500000000000007 52.500000000000007 24.500000000000004 2.5000000000000004 68.500000000000014 2.5000000000000004 18.500000000000004 1.5000000000000002 1.5000000000000002 2.5000000000000004 29.500000000000004 48.500000000000007 1.5000000000000002 3.5000000000000004 2.5000000000000004 3.5000000000000004 3.5000000000000004 1.0000000180025095e-35 2.5000000000000004 57.500000000000007 50.500000000000007 89.500000000000014 47.500000000000007 1.0000000180025095e-35 39.500000000000007 2.5000000000000004 1.0000000180025095e-35 2.5000000000000004 3.5000000000000004 29.500000000000004
decision_type=2 2 2 2 2 2 2 2 2 2 2 2 2 2 2 2 2 2 2 2 2 2 2 2 2 2 2 2 2 2
left_child=2 5 6 8 15 7 27 24 10 20 -4 25 -12 29 -8 18 -5 -18 -3 -20 -7 -6 26 -19 -2 -11 -9 -1 -29 -10
right_child=1 4 3 16 21 9 14 22 13 11 12 -13 -14 -15 -16 -17 17 23 19 -21 -22 -23 -24 -25 -26 -27 -28 28 -30 -31
leaf_value=0.18980021557772953 -0.048047802487264195 -0.15895909138760489 0.11330433744430438 -0.0014834399191970037 -0.17097125473289132 -0.023318893359466849 0.16058648400949618 -0.072333881481264073 0.1267158300601928 0.071526870035729759 -0.023327029339188343 -0.040672622770201061 0.07731317450386968 0.15661511379644866 0.11866804790544712 -0.10385003356734393 0.084310448600547483 0.054392857191810542 -0.081685868163223721 -0.14624579773968446 -0.11411260216650182 -0.19335960131451191 -0.085300374484762242 -0.0441020464248187 -0.12411410368551311 -0.0026665985574251122 -0.016745598140139078 0.1464673045891707 0.1870345037940315 0.081210157460176291
leaf_weight=91.895414749160409 3.2733627608977285 32.303648725152016 8.1272239536047 16.008867251686752 93.24589398689568 17.96102095767856 33.136730026453733 6.353904218412942 12.100040609948339 8.3946043108589965 4.2839210005477053 4.8156468067318192 6.09743039496243 11.763086598366497 19.55565941799432 16.812797154299915 8.1522114593535679 3.380956955254077 8.8954121256247181 16.217634270898998 2.3668930660933247 51.588870689272881 8.601241023745386 3.1348297144286335 13.312250946648417 3.9134489130228749 14.260459725745021 20.700620306655765 25.82838948071003 13.665221425704656
leaf_count=465 63 649 97 230 1826 288 267 122 117 109 57 56 81 85 194 301 104 48 164 318 42 997 166 50 252 55 224 161 157 172
internal_value=0 -0.130437 0.141933 0.0748075 -0.163865 -0.0424777 0.172389 -0.0707756 0.103104 -0.00787107 0.0698233 0.0230172 0.0357834 0.119518 0.145029 -0.134439 0.0231189 0.0499703 -0.143396 -0.123378 -0.0338905 -0.178946 -0.049018 0.00700568 -0.109102 0.0479364 -0.0338794 0.182804 0.168986 0.102581
internal_weight=0 302.317 277.831 86.7138 219.064 83.2528 191.117 45.8012 56.0369 37.4516 18.5086 17.1237 10.3814 37.5283 52.6924 74.2295 30.6769 14.668 57.4167 25.113 20.3279 144.835 29.2156 6.51579 16.5856 12.3081 20.6144 138.424 46.529 25.7653
internal_count=7917 5632 2285 1041 4255 1377 1244 827 609 550 235 220 138 374 461 1432 432 202 1131 482 330 2823 512 98 315 164 346 783 318 289
is_linear=0
shrinkage=0.1


Tree=1
num_leaves=31
num_cat=0
split_feature=6 6 6 6 5 6 6 2 2 5 8 7 6 5 3 3 8 7 2 7 8 6 3 8 6 3 1 8 8 7
split_gain=1247.35 151.772 148.36 43.0932 23.1383 22.3394 21.0391 18.8995 13.8001 10.1565 10.0971 15.8065 9.80695 9.30874 9.25693 8.84623 9.8452 9.60864 8.69691 16.3404 13.9074 8.65617 8.5711 7.63681 7.61297 7.15835 7.1195 6.60094 6.18582 6.03684
threshold=31.500000000000004 60.500000000000007 15.500000000000002 21.500000000000004 2.5000000000000004 89.500000000000014 12.500000000000002 1.5000000000000002 3.5000000000000004 1.5000000000000002 67.500000000000014 99.500000000000014 44.500000000000007 2.5000000000000004 2.5000000000000004 2.5000000000000004 24.500000000000004 21.500000000000004 1.5000000000000002 85.500000000000014 62.500000000000007 36.500000000000007 2.5000000000000004 17.500000000000004 19.500000000000004 2.5000000000000004 1.0000000180025095e-35 82.500000000000014 78.500000000000014 43.500000000000007
decision_type=2 2 2 2 2 2 2 2 2 2 2 2 2 2 2 2 2 2 2 2 2 2 2 2 2 2 2 2 2 2
left_child=2 4 6 9 8 10 13 -5 15 14 25 -12 -6 -1 -4 17 23 26 19 20 -8 -10 -9 -17 -11 -3 -2 -15 -23 -18
right_child=1 5 3 7 12 -7 18 22 21 24 11 -13 -14 27 -16 16 29 -19 -20 -21 -22 28 -24 -25 -26 -27 -28 -29 -30 -31
leaf_value=0.16733893380094023 0.068860920793014577 -0.14649955898080139 0.065975424981952246 -0.018235782043854339 -0.052939718965878652 -0.16826579222271409 0.0027004619740724012 0.017332682532475437 0.066479691939343805 0.044304113392502682 -0.099154437112449409 0.13819007415288895 -0.10476461142220897 0.098809172346744023 0.11694926492914576 -0.017348533832342462 -0.073694796357084591 -0.072417475967847575 0.11926202835905082 0.17247400422753548 0.11540347903972928 -0.036447317977137565 0.063976037030983979 0.10149413079486942 0.094763484431083234 -0.10799652500596849 -0.062397192908097122 0.1685921078890108 0.039691644868372636 -0.01304046220113869
leaf_weight=126.15999391674995 9.2030834481120127 113.932870618999 70.648120746016502 96.5127216540277 78.623090550303459 111.40397307649255 29.074948638677597 89.799471564590931 19.972281504422426 133.67742751538754 118.35979697108269 2.8740738332271567 68.175675895996392 43.841181486845016 71.868000313639641 10.998272115364673 26.516887690871954 93.520053159445524 122.47317309677601 12.856631606817244 17.562797158956528 32.841248705983162 70.189771000295877 10.636321526952086 38.514633491635323 83.803014323115349 7.4999691285192958 19.622225925326347 15.806005991995333 43.048224437981844
leaf_count=141 45 981 106 347 446 997 47 283 55 242 876 7 515 72 101 58 173 638 160 17 28 191 184 38 90 690 47 26 77 239
internal_value=0 -0.0880601 0.0791321 0.047137 -0.0450533 -0.129715 0.128315 0.0167131 -0.0276823 0.0719339 -0.11625 -0.0935277 -0.077008 0.151624 0.0916805 -0.0408769 -0.0178378 -0.0599396 0.104025 0.0726583 0.0451421 0.0110485 0.0377958 0.0410787 0.0555905 -0.130181 0.00992368 0.120385 -0.011709 -0.0361607
internal_weight=0 847.215 942.801 571.21 416.841 430.374 371.591 256.502 270.042 314.708 318.97 121.234 146.799 189.623 142.516 201.423 91.1997 110.223 181.968 59.4944 46.6377 68.6195 159.989 21.6346 172.192 197.736 16.7031 63.4634 48.6473 69.5651
internal_count=7917 6073 1844 1353 2522 3551 491 814 1561 539 2554 883 961 239 207 1238 508 730 252 92 75 323 467 96 332 1671 92 98 268 412
is_linear=0
shrinkage=0.1


Tree=2
num_leaves=31
num_cat=0
split_feature=6 6 6 5 5 5 6 6 4 1 3 2 2 1 7 6 8 6 8 3 2 5 3 8 7 5 2 6 2 5
split_gain=1013.19 152.203 83.6519 20.7302 19.7626 36.2312 19.3895 12.4741 9.08928 31.0035 8.68832 8.18566 8.00628 8.34297 7.98159 7.68163 7.60868 7.44973 8.79249 7.40254 8.02264 7.22437 6.77056 10.1668 6.4713 5.8625 5.8528 5.53713 5.24224 6.24391
threshold=35.500000000000007 20.500000000000004 52.500000000000007 2.5000000000000004 2.5000000000000004 3.5000000000000004 78.500000000000014 23.500000000000004 1.0000000180025095e-35 1.0000000180025095e-35 3.5000000000000004 1.0000000180025095e-35 3.5000000000000004 1.0000000180025095e-35 90.500000000000014 16.500000000000004 91.500000000000014 25.500000000000004 64.500000000000014 2.5000000000000004 2.5000000000000004 3.5000000000000004 3.5000000000000004 67.500000000000014 49.500000000000007 1.5000000000000002 2.5000000000000004 16.500000000000004 1.5000000000000002 2.5000000000000004
decision_type=2 2 2 2 2 2 2 2 2 2 2 2 2 2 2 2 2 2 2 2 2 2 2 2 2 2 2 2 2 2
left_child=1 4 10 8 15 22 14 21 12 -10 26 -12 13 -3 -4 -1 17 18 25 -16 -21 -5 23 -6 -14 -11 -2 -7 -8 -30
right_child=2 3 6 7 5 27 28 -9 9 16 11 -13 24 -15 19 -17 -18 -19 -20 20 -22 -23 -24 -25 -26 -27 -28 -29 29 -31
leaf_value=0.13150464263001113 -0.067195701233149163 0.0012380461330894162 -0.10373172435694498 -0.028701948888891906 0.041123581005899378 0.13500767878183206 -0.15851760842246837 -0.036494847376787445 0.06787221441522015 -0.13752125522197908 -0.1162083483728401 0.012184284599845286 0.14242259237302923 0.068320303949906902 -0.094141678614498459 0.099237996439014764 0.071258334273366655 -0.079274186853418305 0.08875901153135235 -0.077939382230529181 0.067258585244318256 0.079665930036471613 0.095482190490135427 -0.045727611070007813 0.052396262472049128 0.018288734148114629 -0.029150925723342543 0.085210176710977178 -0.10812022344889741 -0.15441908909017885
leaf_weight=226.12487985193729 91.358258279040456 32.054755385965109 227.92949708737433 9.4316244199872035 48.95187071710825 71.062200635671616 78.099968299269676 80.007045848295093 57.78945104777813 4.7553302869200724 5.6039147656410924 43.595790456980467 16.805538892745972 43.972770925611258 18.566651374101639 109.51408357918262 5.7352246120572081 31.408259209245443 7.0032981634140006 7.1071082800626746 8.1911737509071809 17.690037526190281 13.212883248925207 18.599306412041187 15.212096422910689 4.906483918428421 72.546670602634549 32.559951283037663 77.775732586160302 46.569363655522466
leaf_count=357 702 126 2011 31 117 120 782 427 187 20 54 233 33 151 159 200 19 130 17 59 39 49 30 52 43 20 462 82 718 487
internal_value=0 0.0729203 -0.0911629 0.0194377 0.106527 0.0802259 -0.114973 -0.0166273 0.0370281 0.0170119 -0.039294 -0.00243981 0.0577024 0.0400371 -0.0970013 0.120977 -0.0376111 -0.0505994 0.00344313 -0.0517022 -0.000195896 0.0419807 0.0300154 0.0172103 0.0996496 -0.0583975 -0.0503565 0.11936 -0.138213 -0.12546
internal_weight=0 846.797 677.344 326.772 520.025 184.386 464.239 107.129 219.643 111.598 213.105 49.1997 108.045 76.0275 261.794 335.639 53.8086 48.0734 16.6651 33.8649 15.2983 27.1217 80.7641 67.5512 32.0176 9.66181 163.905 103.622 202.445 124.345
internal_count=7917 2211 5706 1253 958 401 4255 507 746 393 1451 287 353 277 2268 557 206 187 57 257 98 80 199 169 76 40 1164 202 1987 1205
is_linear=0
shrinkage=0.1


Tree=3
num_leaves=31
num_cat=0
split_feature=6 6 6 6 3 5 3 5 0 6 6 2 5 6 3 2 0 8 8 3 8 2 7 4 1 1 0 7 7 5
split_gain=786.632 116.616 44.1968 21.5727 11.1777 8.86649 8.81965 7.93043 9.46973 7.88425 7.83944 6.13465 5.28884 7.86375 4.99222 10.3615 4.84102 4.61369 4.60734 4.49659 5.41068 4.44999 4.29882 3.96465 7.80392 7.17551 5.75905 5.48565 5.0893 3.8458
threshold=39.500000000000007 18.500000000000004 64.500000000000014 29.500000000000004 3.5000000000000004 2.5000000000000004 3.5000000000000004 3.5000000000000004 1.5000000000000002 12.500000000000002 89.500000000000014 1.5000000000000002 2.5000000000000004 48.500000000000007 3.5000000000000004 3.5000000000000004 1.0000000180025095e-35 93.500000000000014 77.500000000000014 1.5000000000000002 81.500000000000014 1.0000000180025095e-35 91.500000000000014 1.0000000180025095e-35 1.0000000180025095e-35 1.0000000180025095e-35 1.5000000000000002 24.500000000000004 79.500000000000014 2.5000000000000004
decision_type=2 2 2 2 2 2 2 2 2 2 2 2 2 2 2 2 2 2 2 2 2 2 2 2 2 2 2 2 2 2
left_child=1 9 6 5 11 19 12 -7 -9 22 14 -5 13 -2 -4 -16 -14 18 -11 20 -3 -8 -1 24 -23 26 28 -27 -25 -17
right_child=2 3 10 4 -6 7 21 8 -10 17 -12 -13 16 -15 15 29 -18 -19 -20 -21 -22 23 -24 25 -26 27 -28 -29 -30 -31
leaf_value=0.12699041736453512 -0.02786102469127405 0.016264658475710982 -0.11444951355738586 -0.049224983103467082 0.046143281791921037 -0.019606261969451061 -0.10026107840317647 0.067853476996877909 -0.031194829733183924 0.088954352176564597 -0.14303632034011979 -0.0015173972926417574 -0.055503728216344618 -0.078948583335337039 -0.10393449816818201 0.050365405653866192 -0.1112794292507876 0.043741665798245885 0.12426417918961108 0.070057839620259174 0.08161937606898978 -0.10625447394740878 0.064313343207179324 -0.083998209481180419 -5.9114091520410252e-05 0.055987226897282305 0.10303299206863742 -0.084622771929353566 0.092901304311077029 -0.076403334828047051
leaf_weight=126.61936543136835 49.702072650194168 42.351530950516462 174.01141132973135 41.519554384052753 34.90196917951107 34.001423329114914 7.7096080146729937 38.072566714137793 12.930990580469368 193.28064525127411 81.737090974114835 76.828833490610123 23.145268443971872 76.513449529185891 34.500458840280771 7.2151517271995527 47.491409812122583 18.402081817388535 45.689210526645184 104.922003980726 18.073698602616787 12.284354731440544 11.978070393204687 4.3334142565727243 15.846421038731933 3.8056854829192188 9.2113570645451546 10.240487661212681 2.6033423058688641 3.5807726960629225
leaf_count=217 359 146 1740 283 153 176 88 135 62 413 997 435 201 701 355 47 451 41 90 324 52 92 22 42 107 19 34 84 11 40
internal_value=0 0.0637885 -0.0904426 0.0259613 -0.00358817 0.0440497 -0.0604846 0.0178029 0.0427416 0.102345 -0.116603 -0.0182544 -0.0710932 -0.058831 -0.106752 -0.07718 -0.0930036 0.0919899 0.0957053 0.0575432 0.0358128 -0.02886 0.121574 -0.0194219 -0.0464333 0.00574347 0.051209 -0.0465257 -0.0176084 0.00831898
internal_weight=0 799.572 563.932 403.603 153.25 250.352 262.887 85.005 51.0036 395.969 301.045 118.348 196.852 126.216 219.308 45.2964 70.6367 257.372 238.97 165.347 60.4252 66.0347 138.597 58.3251 28.1308 30.1943 16.1481 14.0462 6.93676 10.7959
internal_count=7917 2549 5368 1766 871 895 2189 373 197 783 3179 718 1712 1060 2182 442 652 544 503 522 198 477 239 389 199 190 87 103 53 87
is_linear=0
shrinkage=0.1


Tree=4
num_leaves=31
num_cat=0
split_feature=6 6 6 2 5 5 6 6 5 3 2 5 2 6 4 3 3 8 6 7 8 8 7 7 8 5 7 5 7 0
split_gain=600.629 76.2969 50.6017 16.1767 15.2147 21.9524 11.9627 10.5712 7.55322 6.82855 5.9801 5.79318 6.00573 5.28016 4.83568 4.54932 4.21866 4.12221 4.32928 4.10558 3.86629 6.56829 5.80762 5.56623 3.84155 4.45649 4.76074 3.63801 4.33292 3.58038
threshold=36.500000000000007 18.500000000000004 67.500000000000014 1.5000000000000002 2.5000000000000004 3.5000000000000004 51.500000000000007 24.500000000000004 2.5000000000000004 2.5000000000000004 2.5000000000000004 2.5000000000000004 3.5000000000000004 89.500000000000014 1.0000000180025095e-35 2.5000000000000004 3.5000000000000004 12.500000000000002 12.500000000000002 88.500000000000014 23.500000000000004 45.500000000000007 39.500000000000007 63.500000000000007 37.500000000000007 2.5000000000000004 98.500000000000014 1.5000000000000002 15.500000000000002 1.0000000180025095e-35
decision_type=2 2 2 2 2 2 2 2 2 2 2 2 2 2 2 2 2 2 2 2 2 2 2 2 2 2 2 2 2 2
left_child=1 4 6 8 17 19 10 16 -3 -10 27 12 -9 24 -14 -12 -5 -1 -19 -6 -20 22 -22 -24 -4 26 29 -2 -29 -26
right_child=2 3 13 7 5 -7 -8 11 9 -11 15 -13 14 -15 -16 -17 -18 18 20 -21 21 -23 23 -25 25 -27 -28 28 -30 -31
leaf_value=0.040763713651612153 -0.026626813685586823 0.016445697350003573 -0.12609405110856628 0.057506747747331825 0.0089285403680046931 0.10211066200814441 -0.072951408426562309 0.016520451440600121 -0.073970266469903623 0.0060872201581588731 -0.035113448392479353 -0.0081587301137173874 0.099376042668368969 -0.13541864740762774 0.026975266405159432 0.015081048461426886 0.10838856377036177 0.13080663551526081 0.14306672246815563 0.090648563621471182 0.11755027028150274 0.11112536902540826 -0.017363314399227271 0.072662110504913419 -0.11534446858741546 -0.11792890700645747 0.065492124639202121 0.027038266644890924 -0.076160582194693266 -0.06789042034320357
leaf_weight=8.5703192204236966 38.100073341280222 77.173494417220354 51.179234338924289 72.211619151756167 49.399631500244141 73.169865168631077 137.58009608462453 52.22760471701622 22.441268716007471 20.284725680947304 38.384852407500148 37.775843784213066 21.874346688389778 71.389038403518498 15.952948883175848 34.095199186354876 21.043280653655529 75.907353118062019 19.271814465522766 7.0216127187013617 13.258276909589766 84.103121712803841 11.247808396816255 17.637783482670784 23.246910410001874 46.207224331796169 2.2278074398636809 4.449860641732811 47.468514077365398 50.305192694067955
leaf_count=18 305 348 618 231 144 157 1416 236 150 112 311 239 63 997 75 206 48 136 37 17 29 183 24 38 251 519 15 34 441 519
internal_value=0 0.0612362 -0.0787692 0.027347 0.0933722 0.0659689 -0.0512522 0.043387 -0.00222968 -0.0359619 -0.0328805 0.0247103 0.0384981 -0.112534 0.0688424 -0.0115016 0.0689884 0.108813 0.111446 0.0190986 0.101347 0.0949789 0.0627568 0.037607 -0.103099 -0.0934517 -0.0785266 -0.0500941 -0.0673155 -0.0828888
internal_weight=0 700.573 544.634 340.985 359.588 129.591 300.079 221.086 119.899 42.726 162.498 127.831 90.0549 244.555 37.8273 72.4801 93.2549 229.996 221.426 56.4212 145.519 126.247 42.1439 28.8856 173.166 121.987 75.7799 90.0184 51.9184 73.5521
internal_count=7917 2285 5632 1502 783 318 2713 892 610 262 1297 613 374 2919 138 517 279 465 447 161 311 274 91 62 1922 1304 785 780 475 770
is_linear=0
shrinkage=0.1


Tree=5
num_leaves=31
num_cat=0
split_feature=6 6 6 5 5 5 6 3 5 5 2 6 6 3 8 3 8 6 7 5 6 7 5 6 6 7 6 6 8 7
split_gain=510.649 64.3615 47.8888 12.019 11.7487 7.25883 7.03473 6.96264 6.22703 6.18954 6.15257 6.12188 5.82648 5.16693 4.99819 4.88046 4.19632 4.16504 3.87019 3.8283 3.79515 3.67496 3.97244 3.64271 3.42765 3.2625 3.19358 3.82599 3.11911 5.4004
threshold=31.500000000000004 59.500000000000007 16.500000000000004 2.5000000000000004 2.5000000000000004 3.5000000000000004 25.500000000000004 2.5000000000000004 2.5000000000000004 3.5000000000000004 3.5000000000000004 88.500000000000014 39.500000000000007 3.5000000000000004 17.500000000000004 2.5000000000000004 52.500000000000007 37.500000000000007 22.500000000000004 1.0000000180025095e-35 51.500000000000007 50.500000000000007 1.0000000180025095e-35 14.500000000000002 27.500000000000004 96.500000000000014 84.500000000000014 72.500000000000014 69.500000000000014 61.500000000000007
decision_type=2 2 2 2 2 2 2 2 2 2 2 2 2 2 2 2 2 2 2 2 2 2 2 2 2 2 2 2 2 2
left_child=2 4 8 6 7 -5 -4 10 -1 -6 20 13 -11 -3 -7 23 -17 -9 -8 26 -2 22 -20 -10 -16 -23 27 -15 -12 -30
right_child=1 11 3 5 9 14 18 17 15 12 28 -13 -14 19 24 16 -18 -19 21 -21 -22 25 -24 -25 -26 -27 -28 -29 29 -31
leaf_value=0.11236121368120773 -0.037985143638227636 -0.10088090140262573 0.068840237683214678 -0.014257903416705176 -0.087715824080100341 0.10929071809949174 -0.038692691950612298 0.037788761493632257 0.071061981260797047 0.004824018551108639 -0.024887429556409307 -0.12650765662710423 -0.064167333218486208 0.0042039477717181186 0.036259838767821177 0.065977071514963945 0.12902779503723016 -0.011676989267063596 0.0042519830607002911 -0.079848460020000164 -0.088604889728799582 0.0072643909244356547 0.094625174149478686 0.0015727166174151379 -0.0368414244011687 0.098431817106982622 0.077736981429465779 -0.13230697885128764 0.088927281386303542 -0.051877249302783826
leaf_weight=156.61957325041294 57.15264480561018 162.38445871509612 138.31866580992937 47.924673102796078 47.578542046248913 8.3782094903290254 7.3984571769833556 23.616523083299398 38.089820571243763 19.831534942612052 16.980640709400181 70.425223810598254 31.981714794412255 5.8872455991804582 47.332803882658482 17.705648981034756 26.139613851904869 60.95941892080009 6.8278254270553616 35.149195043370128 19.992150628939271 32.613228917121887 16.909122426062822 9.4068412855267507 7.4197517856955519 4.4623674824833861 2.8662722520530215 3.1524778045713902 8.0734152160584909 4.1108909733593455
leaf_count=357 479 2021 428 258 464 26 41 122 100 138 124 1088 324 52 181 45 61 481 30 419 222 154 57 36 55 15 18 46 36 39
internal_value=0 -0.0667842 0.0673269 0.0416144 -0.0337937 0.0150851 0.0558798 -0.0192768 0.100259 -0.0616742 -0.0363116 -0.101002 -0.0377609 -0.0924258 0.0373603 0.0795082 0.103567 0.00213556 0.0295986 -0.0632478 -0.0511033 0.0379069 0.0686297 0.0572994 0.0263536 0.0182372 -0.014239 -0.0434023 0.00281436 0.0414209
internal_weight=0 570.142 565.547 317.585 290.277 111.055 206.53 190.886 247.961 99.3918 106.31 279.865 51.8132 209.44 63.1308 91.3419 43.8453 84.5759 68.211 47.0552 77.1448 60.8125 23.7369 47.4967 54.7526 37.0756 11.906 9.03972 29.1649 12.1843
internal_count=7917 6073 1844 1245 2429 520 725 1503 599 926 900 3644 462 2556 262 242 106 603 297 535 701 256 87 136 236 169 116 98 199 75
is_linear=0
shrinkage=0.1


Tree=6
num_leaves=31
num_cat=0
split_feature=6 6 6 6 6 5 5 5 6 3 2 8 2 2 3 7 3 5 6 6 6 1 5 8 6 4 2 8 1 5
split_gain=413.207 53.4703 40.1447 10.953 8.94951 6.44054 9.38964 5.4793 5.38588 4.44746 4.28415 3.7206 3.25677 3.22406 2.97288 2.93341 2.71749 2.68916 2.89173 3.71024 2.95544 2.91208 5.34762 2.71876 2.60611 2.70555 4.86902 2.65401 2.58277 2.50005
threshold=35.500000000000007 20.500000000000004 52.500000000000007 13.500000000000002 78.500000000000014 2.5000000000000004 3.5000000000000004 2.5000000000000004 23.500000000000004 2.5000000000000004 1.5000000000000002 31.500000000000004 1.5000000000000002 1.5000000000000002 2.5000000000000004 72.500000000000014 3.5000000000000004 2.5000000000000004 89.500000000000014 99.500000000000014 84.500000000000014 1.0000000180025095e-35 1.0000000180025095e-35 81.500000000000014 24.500000000000004 1.0000000180025095e-35 3.5000000000000004 77.500000000000014 1.0000000180025095e-35 1.5000000000000002
decision_type=2 2 2 2 2 2 2 2 2 2 2 2 2 2 2 2 2 2 2 2 2 2 2 2 2 2 2 2 2 2
left_child=1 3 9 -1 14 -5 -7 12 11 -2 -6 -9 -3 15 -4 -8 24 18 20 -20 -12 22 -22 -23 -14 26 27 29 -27 -26
right_child=2 7 4 5 10 6 13 8 -10 -11 17 -13 16 -15 -16 -17 -18 -19 19 -21 21 23 -24 -25 25 28 -28 -29 -30 -31
leaf_value=0.10478946753758651 -0.044655388171737337 0.011174750201788524 -0.087745873080370185 0.080706864503091238 -0.1343729768068119 0.0043680793448989414 -0.012212416575978265 0.10101180317397494 -0.016790944750937214 -0.011314468148814406 -0.094360858312109996 0.012217244322426232 0.059718293756835787 0.094391405729775169 -0.061893603381523658 0.077146097039535538 0.067875427917901784 -0.12176623832268366 -0.12640971818890179 0.014618481732781574 0.075238350858314373 -0.11688321179440656 -0.089787015544715243 0.023917496179704029 -0.072663338519963566 0.029302774436366558 0.085953917314883846 0.061082468071520526 -0.036015958180879763 0.031417910400785308
leaf_weight=127.88971202075481 86.494371358305216 55.051120590418577 102.51516151148826 138.92762775719166 48.830265319906175 33.031075179576874 6.6580861359834662 7.0942309014499214 59.296807248145342 74.443773111328483 15.525236908346416 14.09360186010599 22.441535510122776 28.975435115396976 78.575754263438284 8.1958137825131399 28.024227183312178 27.749744432047009 18.463084996677939 2.0751495799049726 4.84682474657893 5.1607812941074362 3.3009710609912872 1.8677007369697092 5.6039461717009527 11.41290445625782 12.627888731658459 4.8482977747917184 12.891186993569136 3.9236828424036503
leaf_count=313 856 299 1321 373 782 134 29 18 427 595 208 62 82 81 947 28 96 487 320 23 29 81 39 18 38 58 44 21 85 23
internal_value=0 0.0563913 -0.0697301 0.0816002 -0.0908284 0.0678568 0.04463 0.019883 -0.00132775 -0.0292332 -0.111088 0.0419479 0.0307686 0.0749725 -0.0765285 0.0370922 0.0413673 -0.0966937 -0.0831153 -0.11216 -0.0636851 -0.032304 0.00838052 -0.0794678 0.0312944 0.0188621 0.0406474 0.000849926 -0.00534308 -0.0298004
internal_weight=0 580.987 469.849 343.678 308.911 215.788 76.8604 237.309 80.4846 160.938 127.82 21.1878 156.825 43.8293 181.091 14.8539 101.774 78.9895 51.2397 20.5382 30.7015 15.1763 8.1478 7.02848 73.7494 51.3079 27.0038 14.3759 24.3041 9.52763
internal_count=7917 2211 5706 958 4255 645 272 1253 507 1451 1987 80 746 138 2268 57 447 1205 718 343 375 167 68 99 351 269 126 82 143 61
is_linear=0
shrinkage=0.1


Tree=7
num_leaves=31
num_cat=0
split_feature=6 6 6 6 5 5 6 6 5 2 7 8 8 2 8 2 3 5 6 3 4 1 8 1 8 2 8 6 3 7
split_gain=344.22 50.494 29.183 9.36696 5.24854 9.48151 5.01575 4.95276 4.44782 4.30524 4.22171 3.53209 4.38037 3.07334 3.17654 2.79648 3.95311 4.25282 2.65498 2.62719 2.61726 6.81557 4.73735 4.43067 3.81977 2.4262 2.35763 2.23423 2.06318 2.24324
threshold=31.500000000000004 60.500000000000007 18.500000000000004 42.500000000000007 2.5000000000000004 3.5000000000000004 25.500000000000004 78.500000000000014 2.5000000000000004 2.5000000000000004 22.500000000000004 68.500000000000014 53.500000000000007 2.5000000000000004 79.500000000000014 2.5000000000000004 1.5000000000000002 2.5000000000000004 13.500000000000002 3.5000000000000004 1.0000000180025095e-35 1.0000000180025095e-35 55.500000000000007 1.0000000180025095e-35 66.500000000000014 3.5000000000000004 81.500000000000014 12.500000000000002 2.5000000000000004 82.500000000000014
decision_type=2 2 2 2 2 2 2 2 2 2 2 2 2 2 2 2 2 2 2 2 2 2 2 2 2 2 2 2 2 2
left_child=2 3 4 13 9 11 19 -3 28 20 -8 12 -6 14 -2 16 17 26 -7 -4 23 -22 -23 24 -1 -21 -12 -11 -5 -30
right_child=1 7 6 8 5 18 10 -9 -10 27 15 -13 -14 -15 -16 -17 -18 -19 -20 25 21 22 -24 -25 -26 -27 -28 -29 29 -31
leaf_value=0.024169615465077059 -0.037092105563523069 -0.079979893322596848 0.036737538014667934 -0.048376064842733726 0.022145958559866303 0.11320685937418651 -0.047461894350184275 -0.11004356566407383 -0.071788067235299666 0.140430297123953 -0.04043225263304686 -0.021177163682392142 0.10604136104794198 0.0074512440792354629 0.016287504429712836 0.042505782928752837 0.026418890137780943 -0.095939331197018474 0.069339111900726516 0.052651215467928669 0.10542410938259712 0.071594622391473198 -0.013402487644527032 0.11325723024168288 0.10547356105053779 0.11720765316588717 0.06432215909400249 0.099751243810149701 -0.032557600722886118 0.017808825318879874
leaf_weight=13.77186840772629 48.191854316741228 108.48533545527607 99.898939948529005 53.469745728187263 23.735295429825783 25.831718076020479 10.082283057272432 110.72897390089929 49.130162768065929 18.760720580816269 4.449288619682191 11.146125871688126 8.4352690465748292 56.25544542260468 14.503164685331283 34.687667898833752 28.765024576336145 6.7371510230004779 29.61217987537384 20.278142772614956 19.568138189613819 12.629924029111864 13.638083800673483 38.367410071194172 9.9557852819561941 8.1660802885890025 4.1547242701053619 48.164123497903347 34.102250033989549 11.938600854948161
leaf_count=42 431 1564 449 584 86 64 64 1987 584 43 31 50 25 404 110 181 161 54 93 79 53 39 33 95 30 22 20 130 317 92
internal_value=0 -0.0595825 0.0590932 -0.0304324 0.080819 0.0623902 0.0317268 -0.0951656 -0.0471694 0.0912278 0.0134663 0.0273355 0.0441437 -0.00951778 -0.0247439 0.0212625 0.00455556 -0.0364387 0.0897774 0.044372 0.0788718 0.0607469 0.027465 0.0922508 0.0582836 0.0711848 0.0101518 0.111155 -0.0350147 -0.0194974
internal_weight=0 486.806 490.836 267.591 273.617 98.7606 217.219 219.214 148.641 174.856 88.8761 43.3167 32.1706 118.95 62.695 78.7939 44.1062 15.3412 55.4439 128.343 107.931 45.8361 26.268 62.0951 23.7277 28.4442 8.60401 66.9248 99.5106 46.0409
internal_count=7917 6073 1844 2522 783 318 1061 3551 1577 465 511 161 111 945 541 447 266 105 157 550 292 125 72 167 72 101 51 173 993 409
is_linear=0
shrinkage=0.1


Tree=8
num_leaves=31
num_cat=0
split_feature=6 6 6 6 5 6 5 2 3 6 2 3 7 8 6 8 2 5 2 7 8 7 5 6 3 8 8 8 8 3
split_gain=294.462 42.8522 29.0383 6.23617 5.57045 5.86091 5.33731 5.09201 4.74981 4.9493 3.88092 3.84889 3.19281 2.9405 2.8666 2.70676 2.85609 2.68716 2.93983 2.4587 2.38842 2.28104 2.1015 2.00062 3.54948 2.84406 2.514 2.39066 2.20885 1.99468
threshold=31.500000000000004 55.500000000000007 17.500000000000004 81.500000000000014 2.5000000000000004 12.500000000000002 3.5000000000000004 2.5000000000000004 1.5000000000000002 21.500000000000004 1.5000000000000002 3.5000000000000004 32.500000000000007 55.500000000000007 39.500000000000007 71.500000000000014 2.5000000000000004 2.5000000000000004 3.5000000000000004 88.500000000000014 47.500000000000007 15.500000000000002 2.5000000000000004 39.500000000000007 1.0000000180025095e-35 87.500000000000014 90.500000000000014 94.500000000000014 75.500000000000014 1.5000000000000002
decision_type=2 2 2 2 2 2 2 2 2 2 2 2 2 2 2 2 2 2 2 2 2 2 2 2 2 2 2 2 2 2
left_child=2 7 4 11 5 -1 -6 14 10 -10 13 -3 -13 -4 -2 16 20 18 -11 -12 -8 -7 -15 24 -9 28 -25 -28 -26 -16
right_child=1 3 8 -5 6 21 15 23 9 17 19 12 -14 22 29 -17 -18 -19 -20 -21 -22 -23 -24 26 25 -27 27 -29 -30 -31
leaf_value=0.12293555339395104 -0.019885786452833197 -0.08227257788305628 -0.047851305242108837 -0.10707700772494411 0.032851635176478058 0.024162497463000778 0.068226420981861963 -0.052319688695861413 0.067727727291435544 0.028519323548601455 0.036664994840151476 -0.10681345885781342 -0.029964062540084255 0.044394781517130076 -0.076670594321421315 0.11252433652220212 0.10559692307393971 0.0049891439589199327 0.077924564455373713 -0.030068470649127862 -0.011224148966524289 0.08474635666067222 -0.03056533992779345 -0.028637162795000504 0.020129751108392501 -0.061031750582373104 0.077735295702290333 -0.027282767103910411 0.091018801123291318 -0.040137643990820711
leaf_weight=50.271600009873509 48.138659006915987 116.92980339657515 14.200217049568893 87.3213702570647 34.455457281321287 6.7341213747858992 9.7138750702142733 7.7784707471728316 54.366044130176306 45.814504645764828 51.518977850675583 6.6718874759972087 28.497892132028937 9.5255311727523786 21.831315819174051 20.030711065977812 9.9433755576610547 29.816103905439377 16.339653495699167 6.1836787089705458 6.1978604868054381 80.568403111770749 6.1576372422277919 49.646343233063817 25.336386140435938 3.6429979912936679 4.7246609982103092 4.0052502676844597 5.3180974982678881 47.382375791668892
leaf_count=141 411 1782 88 1729 141 21 29 69 201 233 249 107 361 46 292 60 28 201 60 35 21 247 43 498 169 26 29 41 30 529
internal_value=0 -0.0565775 0.0572521 -0.0857769 0.0835177 0.0957357 0.0625958 -0.0244801 0.0327839 0.043808 0.0143651 -0.0735484 -0.0445428 -0.0148854 -0.0386265 0.0849306 0.0635529 0.0296685 0.0415074 0.0295135 0.0372792 0.0800732 0.0149634 -0.00795379 0.008669 0.0225009 -0.019935 0.0295534 0.0324279 -0.0516608
internal_weight=0 457.226 451.838 239.421 217.915 137.574 80.3413 217.805 233.922 146.336 87.586 152.1 35.1698 29.8834 117.352 45.8858 25.8551 91.9703 62.1542 57.7027 15.9117 87.3025 15.6832 100.452 42.076 34.2975 58.3763 8.72991 30.6545 69.2137
internal_count=7917 6073 1844 3979 688 409 279 2094 1156 695 461 2250 468 177 1232 138 78 494 293 284 50 268 89 862 294 225 568 70 199 821
is_linear=0
shrinkage=0.1


Tree=9
num_leaves=31
num_cat=0
split_feature=6 6 6 6 5 5 6 5 5 3 6 7 2 5 2 2 2 3 5 8 3 6 3 5 8 5 5 7 4 3
split_gain=247.234 37.6633 25.2907 7.78499 6.9092 5.79646 5.38759 4.3546 3.57636 3.54481 3.54155 3.76116 3.14058 3.26552 2.65969 2.56085 2.34247 4.42064 2.30305 3.05077 2.24763 2.05959 3.01213 2.02883 2.0064 1.98634 2.48764 1.94903 1.93057 2.97012
threshold=31.500000000000004 52.500000000000007 18.500000000000004 68.500000000000014 2.5000000000000004 2.5000000000000004 12.500000000000002 3.5000000000000004 3.5000000000000004 1.5000000000000002 24.500000000000004 18.500000000000004 1.0000000180025095e-35 2.5000000000000004 2.5000000000000004 1.5000000000000002 3.5000000000000004 3.5000000000000004 2.5000000000000004 25.500000000000004 1.0000000180025095e-35 13.500000000000002 2.5000000000000004 1.5000000000000002 33.500000000000007 3.5000000000000004 2.5000000000000004 86.500000000000014 1.0000000180025095e-35 2.5000000000000004
decision_type=2 2 2 2 2 2 2 2 2 2 2 2 2 2 2 2 2 2 2 2 2 2 2 2 2 2 2 2 2 2
left_child=2 4 5 12 9 6 -1 28 -6 -2 11 -4 -3 -14 20 -10 -5 -18 19 -12 -8 22 -9 24 -13 26 -25 -11 -7 -30
right_child=1 3 10 16 8 7 14 21 15 27 18 23 13 -15 -16 -17 17 -19 -20 -21 -22 -23 -24 25 -26 -27 -28 -29 29 -31
leaf_value=0.11802437645737576 -0.029787549919872782 -0.099405344489129202 -0.016548089676296611 -0.10116518013275613 -0.070317143474903226 0.049423922917014161 0.02318700073018197 0.064213470874956491 -0.060375448132771015 0.01348114345860354 0.069041433074860423 0.015509506211044603 -0.035259727136789425 -0.077389679320711169 0.095618366289893453 -0.004397593966109648 -0.091972143805957904 -0.0027607661820706845 -0.0085868775450080245 0.01357646440642582 0.07226295832642371 0.057528973584125044 0.13935335851523953 0.041180736298555218 0.075781218422495161 0.05748289301319251 -0.016674798605436164 -0.029039827937528004 -0.036741692352222424 0.052092978733336272
leaf_weight=44.60023689456284 40.344542933627963 15.318177023902534 10.318690322339533 113.96725343354046 31.420837409794331 23.161238776519895 11.737867359071968 11.345871407538654 12.610179422423242 66.660346737131476 12.437546897679566 6.7301123440265647 52.508157749660313 28.321354973595589 40.788945756852627 23.222546743229032 22.110570403281603 7.4180030832067123 31.098089255392551 48.930358879268169 45.535785712301731 25.627646408975124 10.070059433579443 18.797947760671377 30.799041479825974 22.173600643873215 12.291283655911686 12.859386585652826 8.2989796623587591 6.8869260922074309
leaf_count=141 414 263 48 2260 367 90 38 36 152 551 63 30 745 424 130 208 450 113 250 287 156 93 28 87 120 98 78 126 45 26
internal_value=0 -0.0536574 0.0543104 -0.0799081 -0.0200378 0.0768747 0.089209 0.0562678 -0.0456911 -0.00564423 0.0277272 0.0406621 -0.0578892 -0.0500214 0.0761033 -0.0240972 -0.0946617 -0.069561 0.0135831 0.0248177 0.0622052 0.0766563 0.0995453 0.0471642 0.0649727 0.0346163 0.0183073 0.00660494 0.0312556 0.00354552
internal_weight=0 426.761 421.63 239.644 187.118 228.054 142.663 85.3907 67.2536 119.864 193.577 101.111 96.1477 80.8295 98.0626 35.8327 143.496 29.5286 92.466 61.3679 57.2737 47.0436 21.4159 90.792 37.5292 53.2628 31.0892 79.5197 38.3471 15.1859
internal_count=7917 6073 1844 4255 1818 783 465 318 727 1091 1061 461 1432 1169 324 360 2823 563 600 350 194 157 64 413 150 263 165 677 161 71
is_linear=0
shrinkage=0.1


Tree=10
num_leaves=31
num_cat=0
split_feature=6 6 6 6 3 5 8 3 6 3 8 8 7 7 2 0 6 5 8 8 2 6 8 5 8 8 8 6 0 3
split_gain=211.544 32.5044 23.0876 10.3588 4.04032 3.61466 3.90931 3.41349 3.27717 2.8197 4.20086 2.62578 2.9574 2.60004 2.5177 3.32467 3.12985 2.45678 2.39114 2.8941 2.2999 2.18473 3.6915 2.12589 2.06507 2.25281 3.19518 3.03142 2.476 2.40877
threshold=35.500000000000007 15.500000000000002 64.500000000000014 25.500000000000004 2.5000000000000004 2.5000000000000004 40.500000000000007 3.5000000000000004 89.500000000000014 2.5000000000000004 73.500000000000014 76.500000000000014 47.500000000000007 94.500000000000014 3.5000000000000004 1.5000000000000002 52.500000000000007 2.5000000000000004 67.500000000000014 70.500000000000014 1.5000000000000002 12.500000000000002 17.500000000000004 3.5000000000000004 51.500000000000007 30.500000000000004 35.500000000000007 18.500000000000004 1.0000000180025095e-35 2.5000000000000004
decision_type=2 2 2 2 2 2 2 2 2 2 2 2 2 2 2 2 2 2 2 2 2 2 2 2 2 2 2 2 2 2
left_child=1 9 4 5 14 24 23 -5 18 10 21 12 -8 17 16 -16 -2 -6 -4 -20 -13 22 -1 -7 25 27 -27 -3 -29 -30
right_child=2 3 8 7 13 6 11 -9 -10 -11 -12 20 -14 -15 15 -17 -18 -19 19 -21 -22 -23 -24 -25 -26 26 -28 28 29 -31
leaf_value=-0.0011406766757423442 -0.042941757320206456 0.097025101434463468 -0.089908528197109816 -0.0050891533787300724 -0.012877681112649834 0.014552190990188339 -0.060435674942240017 0.03202351976318718 -0.11269229769083433 0.10305457956062317 0.10593417092506895 -0.017636771239863316 0.011323604082678919 0.03794937981666946 -0.048540792314423535 0.024264446141630328 -0.083937907870364037 -0.049357362546706605 0.019095754975034577 -0.068565941627953028 0.059613674401221339 0.035186492868972317 0.094370465447358623 0.078261890454208491 0.06478370733831329 -0.039522860266983616 0.040183515344295817 -0.037260045951015751 0.0042810473488189343 0.098298264555044895
leaf_weight=4.9641731306910541 54.466316390782595 11.363478165119888 71.494330449495465 87.820508236065507 56.658927366137505 7.8701540045440206 9.0539630092680472 34.526380714029074 37.370622541289777 58.968190153129399 27.009101642295718 5.6175168827176121 15.705919235944746 7.175288774073123 17.066834950819612 9.9167527472600359 28.297643939498812 27.384053699672222 4.159556668251752 39.81666900543496 12.276190809905527 23.972516071051359 21.89372856169939 15.657677866518497 67.903635989874601 7.2880851253867176 16.22750042565167 4.1383387818932524 5.198530510067938 5.7274380251765251
leaf_count=16 677 40 1431 676 609 51 51 202 997 197 99 37 91 65 204 99 495 378 66 685 58 99 80 59 275 32 76 22 28 22
internal_value=0 0.0460326 -0.057661 0.0279355 -0.0353835 0.0429283 0.0242265 0.00538407 -0.0869528 0.0865602 0.0740646 0.00617578 -0.0149167 -0.0198309 -0.0483103 -0.0217841 -0.0569587 -0.024764 -0.0786225 -0.0602743 0.0353618 0.0571305 0.076717 0.0569507 0.053431 0.0379957 0.0154805 0.0580298 0.0286145 0.0535653
internal_weight=0 443.183 353.807 306.375 200.966 184.028 66.1814 122.347 152.841 136.808 77.8395 42.6536 24.7599 91.2183 109.748 26.9836 82.764 84.043 115.471 43.9762 17.8937 50.8304 26.8579 23.5278 117.847 49.9434 23.5156 26.4278 15.0643 10.926
internal_count=7917 2211 5706 1720 2527 842 347 878 3179 491 294 237 142 1052 1475 303 1172 987 2182 751 95 195 96 110 495 220 108 112 72 50
is_linear=0
shrinkage=0.1


Tree=11
num_leaves=31
num_cat=0
split_feature=6 6 6 5 6 5 5 6 3 2 3 6 2 7 5 7 2 6 5 8 2 8 5 0 7 6 6 8 7 3
split_gain=180.327 37.0695 14.274 6.1688 6.05218 5.11056 4.77099 3.39908 3.551 3.00702 2.79611 3.01654 2.7358 3.12423 3.2135 2.83903 2.46697 2.39924 2.27803 3.34123 2.24459 2.1634 2.09573 2.02957 2.00471 1.94189 1.89433 2.33997 2.77245 2.45542
threshold=39.500000000000007 21.500000000000004 61.500000000000007 2.5000000000000004 15.500000000000002 3.5000000000000004 2.5000000000000004 89.500000000000014 3.5000000000000004 3.5000000000000004 3.5000000000000004 27.500000000000004 2.5000000000000004 13.500000000000002 2.5000000000000004 35.500000000000007 3.5000000000000004 70.500000000000014 3.5000000000000004 41.500000000000007 1.5000000000000002 91.500000000000014 3.5000000000000004 1.5000000000000002 66.500000000000014 34.500000000000007 38.500000000000007 74.500000000000014 42.500000000000007 3.5000000000000004
decision_type=2 2 2 2 2 2 2 2 2 2 2 2 2 2 2 2 2 2 2 2 2 2 2 2 2 2 2 2 2 2
left_child=1 4 9 10 6 24 -1 8 -4 -2 11 -3 13 -6 15 -15 17 -10 -8 -20 -12 -14 -16 -11 -5 -26 27 29 -29 -7
right_child=2 3 7 5 12 26 18 -9 16 23 20 -13 21 14 22 -17 -18 -19 19 -21 -22 -23 -24 -25 25 -27 -28 28 -30 -31
leaf_value=0.096745852990846953 -0.045320642424271591 0.033447451472217844 -0.08278246604177468 -0.067131229658630165 -0.045343811841632539 -0.035370931216711664 0.034074221957551686 -0.10942526057948586 -0.019274595812774419 -0.02979707353770298 0.0082687812056535977 -0.0020620424645274894 0.073946015881271865 0.096705052414090997 -0.03378567284852186 0.041318625610324226 0.011688141376390739 -0.087879321389582085 0.024039718800577124 0.10204133604475568 0.063756161536505707 0.0025704766774873461 0.032758310621995447 0.022256610797728577 0.0037841516172321798 -0.084989553531538503 0.076964366115475843 -0.03172329331386689 0.07685722015706109 0.035512202483955792
leaf_weight=77.475757124833763 112.97159702517092 40.701285574585199 93.185529763810337 18.048070147633556 4.3106303587555876 17.393609417602423 23.147972194477916 33.64146568113938 8.8808038569986874 20.415112497285008 10.719308014959095 58.034488735720515 46.956976603716612 13.255559742450712 7.0681667141616353 30.662691323086619 6.5530580282211295 11.966198951005934 8.0226903706789034 17.40658905915916 22.790417421609163 4.6687924265861502 14.324037406593561 11.831209910102187 10.719026669859884 3.1996035128831855 3.7016587127000085 3.5174482464790326 7.0947606153786182 6.7965567782521239
leaf_count=290 1539 227 1961 185 17 157 103 997 139 247 72 500 194 51 46 133 94 271 31 67 110 21 77 120 97 29 25 30 41 46
internal_value=0 0.0400129 -0.0601327 0.00831269 0.0659981 -0.0155842 0.0813409 -0.0813185 -0.0734772 -0.0376326 0.0210468 0.0125758 0.0500472 0.0371121 0.0425544 0.0580356 -0.0418306 -0.0586538 0.0567715 0.0774326 0.0460065 0.0674911 0.0107716 -0.0106985 -0.0451395 -0.0166231 0.00895301 0.00171917 0.0408679 -0.0154553
internal_weight=0 450.016 299.445 202.716 247.3 70.4707 126.053 154.227 120.586 145.218 132.245 98.7358 121.247 69.6211 65.3105 43.9183 27.4001 20.847 48.5773 25.4293 33.5097 51.6258 21.3922 32.2463 31.9667 13.9186 38.504 34.8024 10.6122 24.1902
internal_count=7917 2549 5368 1519 1030 610 491 3462 2465 1906 909 727 539 324 307 184 504 410 201 98 182 215 123 367 311 126 299 274 71 203
is_linear=0
shrinkage=0.1


Tree=12
num_leaves=31
num_cat=0
split_feature=6 6 6 6 5 2 5 5 8 6 8 3 3 5 5 2 8 0 3 0 4 1 1 6 7 2 7 8 7 0
split_gain=156.971 26.2958 20.3022 4.50375 3.86573 3.81931 3.80273 4.05391 3.98166 3.52754 3.08374 2.64312 2.47771 2.1408 2.82853 2.6193 2.47852 2.03307 2.13489 2.49022 2.01344 5.28158 3.10671 2.00682 2.39911 2.00552 1.8983 2.25417 2.46143 2.35289
threshold=31.500000000000004 51.500000000000007 18.500000000000004 89.500000000000014 2.5000000000000004 1.0000000180025095e-35 2.5000000000000004 3.5000000000000004 68.500000000000014 12.500000000000002 53.500000000000007 1.5000000000000002 1.5000000000000002 2.5000000000000004 3.5000000000000004 1.0000000180025095e-35 85.500000000000014 1.5000000000000002 1.5000000000000002 1.0000000180025095e-35 1.0000000180025095e-35 1.0000000180025095e-35 1.0000000180025095e-35 19.500000000000004 28.500000000000004 2.5000000000000004 42.500000000000007 28.500000000000004 27.500000000000004 1.0000000180025095e-35
decision_type=2 2 2 2 2 2 2 2 2 2 2 2 2 2 2 2 2 2 2 2 2 2 2 2 2 2 2 2 2 2
left_child=2 5 6 4 12 -2 9 8 10 -1 -8 -7 -3 15 -15 -4 23 18 19 -16 22 -22 -11 -17 -25 -20 27 28 -13 -29
right_child=1 3 13 -5 -6 11 7 -9 -10 20 -12 26 -14 14 17 16 -18 -19 25 -21 21 -23 -24 24 -26 -27 -28 29 -30 -31
leaf_value=0.10952422813470444 -0.051703996923935118 -0.072834324683724555 -0.0036251682902721316 -0.10638372749220792 -0.085097991201930845 -0.029245705175369632 0.026137527980062449 0.075654091650753819 -0.029553740899689974 0.045522749709942231 0.10632806423808439 0.065851564201985013 -0.04146894895343111 -0.018380957391343784 0.054867740003645415 0.079027053755562029 0.073406701189863269 -0.016640038440840318 0.038605690819643129 -0.047337171866670941 0.093017397838541918 0.015229227687447729 0.10360940926266569 -0.015274002270436821 0.033697815264159367 0.11508909639806122 0.011385021624550549 0.011460297625414333 -0.041472962727317021 -0.058349430580050023
leaf_weight=33.676638158969581 25.708068673498929 40.396413764450699 18.18252276070416 30.530604782979935 59.281891582068056 45.259952457621694 17.151964478194717 36.297432343475521 8.9898994453251344 13.433052398264406 6.6565572908148161 5.3752699103206414 66.885919005610049 24.771028399467468 4.6697536651045102 7.571710340678691 16.201779706403613 8.3853482417762262 10.982044346630571 4.87019432336092 16.954334090463817 17.99014687538147 29.271889302879572 12.25483889505267 54.456944042816758 4.9844619818031779 56.778986727818847 7.0601987242698678 3.5470366477966309 15.270777154713869
leaf_count=141 352 815 122 997 1272 540 86 157 50 70 25 34 1251 219 31 32 76 70 72 30 72 77 105 77 310 22 539 77 31 165
internal_value=0 -0.0466683 0.0477879 -0.0710758 -0.0646039 -0.0164132 0.071057 0.0526291 0.0271478 0.0824945 0.0485578 -0.00960667 -0.0532794 0.0226984 0.00730371 0.0310089 0.0379685 0.0260763 0.0401194 0.00269159 0.0707716 0.0529704 0.085338 0.0302391 0.0247018 0.0624825 0.000490327 -0.0193025 0.023185 -0.0362783
internal_weight=0 356.095 347.753 197.095 166.564 159 180.422 69.0959 32.7984 111.326 23.8085 133.292 107.282 167.331 58.6628 108.668 90.4853 33.8918 25.5065 9.53995 77.6494 34.9445 42.7049 74.2835 66.7118 15.9665 88.0323 31.2533 8.92231 22.331
internal_count=7917 6073 1844 4335 3338 1738 783 318 161 465 111 1386 2066 1061 444 617 495 225 155 61 324 149 175 419 387 94 846 307 65 242
is_linear=0
shrinkage=0.1


Tree=13
num_leaves=31
num_cat=0
split_feature=6 6 6 5 5 6 5 6 5 6 3 8 8 2 0 2 2 3 2 6 8 5 7 4 3 8 6 8 4 1
split_gain=139.528 23.5925 14.8843 5.21245 4.14701 3.56156 3.095 3.10138 3.04284 2.73774 2.52406 2.37319 2.52409 2.19974 2.1689 2.16012 2.10761 2.27582 2.08805 1.94798 2.21971 2.52321 1.79529 3.30841 2.40196 1.79033 1.75913 1.74938 1.72873 2.80434
threshold=36.500000000000007 21.500000000000004 68.500000000000014 2.5000000000000004 2.5000000000000004 12.500000000000002 3.5000000000000004 13.500000000000002 2.5000000000000004 48.500000000000007 2.5000000000000004 73.500000000000014 69.500000000000014 1.5000000000000002 1.0000000180025095e-35 1.5000000000000002 1.5000000000000002 3.5000000000000004 3.5000000000000004 24.500000000000004 43.500000000000007 1.0000000180025095e-35 46.500000000000007 1.0000000180025095e-35 1.5000000000000002 77.500000000000014 53.500000000000007 90.500000000000014 1.0000000180025095e-35 1.0000000180025095e-35
decision_type=2 2 2 2 2 2 2 2 2 2 2 2 2 2 2 2 2 2 2 2 2 2 2 2 2 2 2 2 2 2
left_child=1 3 4 5 9 -1 -5 -8 18 -2 -11 12 -12 -6 -15 -9 -4 -18 19 -3 -21 25 23 -20 -24 -22 -13 -23 -16 -30
right_child=2 8 16 6 13 -7 7 15 -10 10 11 26 -14 14 28 -17 17 -19 22 20 21 27 24 -25 -26 -27 -28 -29 29 -31
leaf_value=0.10462942748484333 -0.0077254737295303806 0.041034229796677958 -0.099618972929667676 0.021416391751340191 -0.080854458999188417 0.065598335935270841 0.098497069860864317 0.005952132073312048 -0.0079200730975073682 -0.056139462217704418 -0.012478258341248279 -0.0027167487510158586 0.092779996420487676 -0.0089936010779196659 -0.081741688081823541 0.061274053158448596 -0.081047959109109891 -0.03641198920534186 0.1113960261799174 0.028383087422590682 -0.012969650411724352 -0.045659125553122022 -0.029508711696320085 0.0015842464338644826 0.05106208970094156 0.061257613144801597 -0.10074783815454753 0.020567483233374637 0.0038489532201707735 -0.087512177767829394
leaf_weight=30.588111937977374 55.701067063957453 18.57677886262536 41.235359020065516 37.446046872995794 22.26935528498143 99.190294040367007 14.45429691672325 10.667105406522753 53.827635824214667 35.172299059573561 20.426897490397103 2.9079350735992184 2.5641814917325965 13.521200240589677 14.55726485978812 20.860890323296189 48.824586138827726 14.911218998953698 7.9625852480530757 22.769997099414468 6.5501593891531211 18.191316222772006 5.7073796018958118 4.185909204185009 10.520425420254467 6.4483069032430649 4.9404240949079394 5.1087031364440909 8.4349920162931067 5.5838883100077519
leaf_count=141 635 106 1121 207 415 461 64 62 516 659 298 41 20 203 216 95 1360 342 29 170 62 164 44 35 54 43 93 32 114 115
internal_value=0 0.0404864 -0.0518937 0.0622613 -0.0349088 0.0747978 0.0427599 0.0601412 0.0114432 -0.0240525 -0.0378293 -0.0169466 -0.000738867 -0.0554372 -0.0419915 0.0425566 -0.0820026 -0.0706052 0.021274 0.0127902 0.00390752 -0.011446 0.0444882 0.0735591 0.022725 0.0238532 -0.0644258 -0.0311384 -0.057605 -0.0325413
internal_weight=0 373.056 291.051 213.207 186.08 129.778 83.4283 45.9823 159.849 121.713 66.0117 30.8394 22.9911 64.3667 42.0973 31.528 104.971 63.7358 106.022 77.6453 59.0685 36.2985 28.3763 12.1485 16.2278 12.9985 7.84836 23.3 28.5761 14.0189
internal_count=7917 2285 5632 1030 2809 602 428 221 1255 1746 1111 452 318 1063 648 157 2823 1702 739 577 471 301 162 64 98 105 134 196 445 229
is_linear=0
shrinkage=0.1


Tree=14
num_leaves=31
num_cat=0
split_feature=6 6 6 6 5 3 5 3 8 2 3 6 3 8 8 8 3 0 8 5 6 0 8 1 8 7 7 3 2 8
split_gain=121.884 22.0114 13.3787 5.4419 3.30634 2.99245 2.49394 2.15269 2.21202 2.0507 2.12933 1.87791 1.86006 1.9587 1.83187 2.30867 1.80752 2.30838 1.76883 1.72438 2.08638 1.77573 1.69435 2.03093 1.67361 1.62887 1.62281 1.53541 1.53227 2.73549
threshold=29.500000000000004 48.500000000000007 18.500000000000004 70.500000000000014 2.5000000000000004 3.5000000000000004 2.5000000000000004 3.5000000000000004 74.500000000000014 3.5000000000000004 3.5000000000000004 12.500000000000002 2.5000000000000004 81.500000000000014 94.500000000000014 82.500000000000014 1.5000000000000002 1.0000000180025095e-35 86.500000000000014 3.5000000000000004 36.500000000000007 1.5000000000000002 66.500000000000014 1.0000000180025095e-35 19.500000000000004 72.500000000000014 97.500000000000014 1.5000000000000002 2.5000000000000004 46.500000000000007
decision_type=2 2 2 2 2 2 2 2 2 2 2 2 2 2 2 2 2 2 2 2 2 2 2 2 2 2 2 2 2 2
left_child=2 5 4 7 11 6 -2 18 24 -5 22 -1 13 -4 15 28 -13 -18 -3 20 -8 -21 -11 -24 -9 -25 -7 -15 29 -6
right_child=1 3 12 9 14 26 19 8 -10 10 -12 16 -14 27 -16 -17 17 -19 -20 21 -22 -23 23 25 -26 -27 -28 -29 -30 -31
leaf_value=0.10086249710403883 -0.0080475929946521359 -0.062704820256142171 0.0034748182414983328 -0.088703212399445661 0.061991115627391659 0.0086493269052894967 -0.029959416781715782 -0.098278757223705313 -0.076192474944162675 -0.10261728903558541 -0.0011495487283624357 0.048718996513991919 0.036909895609963453 0.023837216966695898 -0.013375275268418635 0.10316203194965037 0.045345618646268182 0.097233999645578675 -0.023509418909347806 0.0035414710822681086 -0.093929023853429827 -0.061068795689702193 -0.10683487551882256 0.053246184871241921 0.0027116197868006058 -0.098509277688527588 0.095916666543257589 0.090720611329104417 0.066182565011938976 -0.0010501580354026448
leaf_weight=28.16290621412918 70.729478238150477 62.528847832931206 52.44729220494628 70.576132115907967 13.712021088227631 32.262829501181841 11.032084259204568 1.8029632493853629 5.8619224610738447 8.2250214542727935 5.7664208193309596 24.896138556301594 61.672495104372501 12.324905626475813 4.3205616688355795 8.2258133925497514 11.922840368002651 30.521605842746794 14.112239744747056 12.858268626034262 9.4796313382685167 6.3566841427236787 2.2693134285509577 2.7046126518398528 18.260381912812591 0.9577582194469868 2.2815974690020075 4.75710530206561 21.055071284994483 13.820838939398525
leaf_count=141 787 1280 391 2130 74 304 121 46 116 264 108 128 391 86 24 41 64 132 246 164 163 87 71 58 246 33 15 27 102 77
internal_value=0 -0.0407187 0.0478239 -0.0628321 0.067555 -0.0112751 -0.0193089 -0.0470617 -0.0221526 -0.0807053 -0.0523732 0.0791791 0.0242674 0.0130535 0.049396 0.0541696 0.0701108 0.0826583 -0.0554876 -0.0393586 -0.0595234 -0.0178329 -0.073238 -0.0325 -0.00636373 0.0135601 0.0144132 0.0424633 0.0458753 0.0303459
internal_weight=0 338.066 287.84 193.066 156.638 145.001 110.456 102.566 25.9253 90.4993 19.9231 95.5035 131.202 69.5293 61.1343 56.8137 67.3406 42.4444 76.6411 39.7267 20.5117 19.215 14.1567 5.93168 20.0633 3.66237 34.5444 17.082 48.5879 27.5329
internal_count=7917 6239 1678 4598 783 1641 1322 1934 408 2664 534 465 895 504 318 294 324 196 1526 535 284 251 426 162 292 91 319 113 253 151
is_linear=0
shrinkage=0.1


Tree=15
num_leaves=31
num_cat=0
split_feature=6 6 6 6 2 2 3 3 6 6 8 7 2 5 7 4 1 1 7 8 3 2 6 6 8 6 7 5 6 0
split_gain=107.675 17.9841 12.3737 5.04543 3.67256 3.38157 2.35857 2.16715 1.98137 1.73626 1.7768 1.92548 1.73446 1.73083 2.13108 1.724 7.20024 4.36753 2.15183 1.66513 2.36201 1.66346 1.61147 1.51061 1.50369 1.46914 1.44304 1.4399 1.43111 1.36995
threshold=35.500000000000007 16.500000000000004 68.500000000000014 23.500000000000004 1.5000000000000002 2.5000000000000004 2.5000000000000004 1.5000000000000002 60.500000000000007 89.500000000000014 52.500000000000007 98.500000000000014 2.5000000000000004 2.5000000000000004 94.500000000000014 1.0000000180025095e-35 1.0000000180025095e-35 1.0000000180025095e-35 63.500000000000007 77.500000000000014 2.5000000000000004 2.5000000000000004 87.500000000000014 67.500000000000014 31.500000000000004 12.500000000000002 53.500000000000007 1.5000000000000002 11.500000000000002 1.0000000180025095e-35
decision_type=2 2 2 2 2 2 2 2 2 2 2 2 2 2 2 2 2 2 2 2 2 2 2 2 2 2 2 2 2 2
left_child=1 19 5 -3 -5 7 8 -2 -7 10 12 -12 -4 23 -15 17 -17 18 24 20 25 -22 -14 -9 -6 -1 -8 -26 -21 -30
right_child=2 3 9 4 15 6 26 13 -10 -11 11 -13 22 14 -16 16 -18 -19 -20 28 21 -23 -24 -25 27 -27 -28 -29 29 -31
leaf_value=0.068215243143567722 -0.06678260049542549 0.038232430061066421 -0.10773760838789584 -0.015098916665924124 -0.029735466496599895 -0.024002033827956022 -0.021937535392210758 -0.026106151049521534 -0.08825519778219193 -0.10067981417019466 -0.059156578358458403 0.061015343258772003 -0.072778097028050881 -0.066338174363023805 0.047950742193402875 0.048809144899479219 -0.042125101859539708 0.065068813174268686 -0.050632644638563054 0.12604811945576155 0.064760110570008786 0.10837522102155049 0.034572149634963571 0.078738964929197575 0.087680760288515791 0.032200858450182772 0.019333416052296944 0.0040261194466681164 0.11029839059128282 0.057625524158712305
leaf_weight=20.530638999305665 30.182416065596044 97.634241783991456 17.476053297752518 44.672964068129659 3.720776196569207 36.255164657253772 14.228739495389162 41.388506988063455 5.5315075260587028 24.151114176725969 35.174181582871825 1.3858490204438556 10.598636314272877 20.243584120646123 1.774530978873371 18.026551529765129 16.843457689508796 22.077331831678748 5.9351394921541205 8.3996891593560594 21.47727375337854 14.750210282392798 1.6108822394162423 1.4214172121137369 4.2168827503919584 25.266601728275418 20.940406451001763 4.0181243494153023 7.8698666254058507 13.253269975073634
leaf_count=107 634 566 542 429 25 540 225 638 160 997 894 21 334 400 20 137 176 161 54 46 111 73 35 17 20 147 249 44 39 76
internal_value=0 0.0381328 -0.0477734 0.0213678 0.00759031 -0.032028 -0.0164468 -0.0446484 -0.0325075 -0.0777267 -0.0693587 -0.0546013 -0.0875336 -0.0343433 -0.0571272 0.0211341 0.00488466 0.0353108 -0.00141043 0.0707686 0.0634386 0.0825182 -0.0586147 -0.022625 0.0230247 0.0483459 0.00263601 0.046863 0.0911337 0.0772499
internal_weight=0 328.693 262.363 217.145 119.511 171.966 76.9558 95.0105 41.7867 90.3967 66.2456 36.56 29.6856 64.828 22.0181 74.8383 34.87 39.9683 17.8909 111.548 82.0247 36.2275 12.2095 42.8099 11.9558 45.7972 35.1691 8.23501 29.5228 21.1231
internal_count=7917 2211 5706 1612 1046 2883 1174 1709 700 2823 1826 915 911 1075 420 617 313 304 143 599 438 184 369 655 89 254 474 64 161 115
is_linear=0
shrinkage=0.1


Tree=16
num_leaves=31
num_cat=0
split_feature=6 6 6 5 5 2 2 6 6 6 7 7 0 2 3 1 3 8 8 7 8 3 6 3 8 2 8 7 7 2
split_gain=97.3716 18.0575 7.96025 4.01332 4.98636 2.95156 2.54258 2.57229 2.5004 2.25692 1.70775 3.92723 1.87966 2.17103 1.69414 1.65416 1.55228 1.86563 1.82348 1.71728 1.55061 3.03223 1.82715 1.54328 1.49782 1.45693 1.44706 1.43435 1.40459 1.37709
threshold=39.500000000000007 20.500000000000004 57.500000000000007 2.5000000000000004 3.5000000000000004 1.5000000000000002 3.5000000000000004 17.500000000000004 88.500000000000014 12.500000000000002 41.500000000000007 32.500000000000007 1.0000000180025095e-35 3.5000000000000004 3.5000000000000004 1.0000000180025095e-35 2.5000000000000004 65.500000000000014 90.500000000000014 25.500000000000004 55.500000000000007 2.5000000000000004 18.500000000000004 3.5000000000000004 11.500000000000002 1.5000000000000002 59.500000000000007 74.500000000000014 22.500000000000004 3.5000000000000004
decision_type=2 2 2 2 2 2 2 2 2 2 2 2 2 2 2 2 2 2 2 2 2 2 2 2 2 2 2 2 2 2
left_child=1 3 29 9 10 16 7 -6 14 -1 11 26 -12 -14 -4 -9 18 19 -3 -18 21 22 -11 -7 -16 -23 -5 -22 -19 -2
right_child=2 5 8 4 6 23 -8 15 -10 20 12 -13 13 -15 24 -17 17 28 -20 -21 27 25 -24 -25 -26 -27 -28 -29 -30 -31
leaf_value=0.096458412917055536 -0.036454653128969339 -0.031087610871795974 -0.068292501519920154 0.032760691329650996 0.069404668721502111 0.014599925551121629 0.11909022683962463 -0.056108377935093504 -0.096241273342463338 0.036727816009176552 0.025664826166782412 0.12265320876815161 -0.0086514220247827286 -0.1082893389465794 0.089897040812247753 0.039520516628206721 -0.034951291693122381 0.05408004518171277 0.03654494200028513 0.039824893084447532 0.063069031163834652 0.043875812742651316 -0.037695682489981272 0.043252141141039119 -0.042801857457691585 0.10684397231997314 -0.052246818766508434 0.10515050896794016 -0.044101050344594717 -0.0083903547744379071
leaf_weight=24.109829353168607 74.660630111116916 27.826089736074209 75.894828084623441 5.2893791608512419 20.271585508249704 83.171543197706342 6.8030704148113719 3.0341138914227477 25.051981825614348 18.10895238630474 8.5394852086901682 3.8170826137065879 7.6135098505765182 3.0680955625139177 0.88251569680869835 4.4791491962969303 3.7296510413289132 1.7818547319620828 4.6531019406393161 17.397473115473986 28.06456408649683 6.206133645027875 4.0335520543158045 24.288410564884543 23.520123052876443 9.0076871130149794 3.2224873900413513 11.385867846198378 7.9951747003942728 22.831311370246112
leaf_count=141 1245 319 2167 34 116 764 33 22 1088 102 45 16 55 23 16 31 36 13 45 147 154 34 27 182 549 43 26 56 85 303
internal_value=0 0.0338408 -0.0513134 0.0572188 0.0380727 0.0109813 0.064297 0.050881 -0.0679816 0.0697665 0.00932332 0.0383728 -0.00930984 -0.0372706 -0.0609229 0.000902282 -0.00613309 0.00991011 -0.0213983 0.0266244 0.0613879 0.0467865 0.0231706 0.021076 -0.0380028 0.0811575 0.000577899 0.0752143 -0.0262076 -0.0298824
internal_weight=0 337.898 222.841 167.055 66.138 170.843 34.5879 27.7848 125.349 100.917 31.55 12.3289 19.2211 10.6816 100.297 7.51326 63.3833 30.9042 32.4792 21.1271 76.8068 37.3563 22.1425 107.46 24.4026 15.2138 8.51187 39.4504 9.77703 97.4919
internal_count=7917 2549 5368 958 401 1591 202 169 3820 557 199 76 123 78 2732 53 645 281 364 183 416 206 129 946 565 77 60 210 98 1548
is_linear=0
shrinkage=0.1


Tree=17
num_leaves=31
num_cat=0
split_feature=6 6 6 6 5 5 3 2 8 5 5 6 6 5 7 8 8 0 6 8 5 6 0 3 8 0 7 6 8 0
split_gain=84.1061 17.409 8.39432 3.24005 2.76801 3.24282 2.32219 2.25603 1.72724 2.41346 1.68822 1.58978 1.54626 1.52713 1.41514 1.28042 2.22266 1.76786 1.23002 1.34167 1.19546 1.49862 1.19304 1.85595 1.78506 1.16634 1.58845 1.15415 1.15333 2.39438
threshold=29.500000000000004 52.500000000000007 16.500000000000004 78.500000000000014 2.5000000000000004 3.5000000000000004 3.5000000000000004 1.5000000000000002 77.500000000000014 2.5000000000000004 2.5000000000000004 41.500000000000007 25.500000000000004 2.5000000000000004 97.500000000000014 19.500000000000004 23.500000000000004 1.0000000180025095e-35 89.500000000000014 37.500000000000007 3.5000000000000004 14.500000000000002 1.0000000180025095e-35 1.5000000000000002 61.500000000000007 1.0000000180025095e-35 53.500000000000007 40.500000000000007 26.500000000000004 1.5000000000000002
decision_type=2 2 2 2 2 2 2 2 2 2 2 2 2 2 2 2 2 2 2 2 2 2 2 2 2 2 2 2 2 2
left_child=2 6 8 15 -4 -6 11 -5 9 22 18 13 -7 27 -8 -3 17 -17 19 -9 21 -11 24 -24 -1 -22 -27 -2 29 -15
right_child=1 3 4 7 5 12 14 10 -10 20 -12 -13 -14 28 -16 16 -18 -19 -20 -21 25 -23 23 -25 -26 26 -28 -29 -30 -31
leaf_value=0.071560930490887284 -0.0031151986342500418 -0.091409681285298527 0.03811569577608559 -0.10956830076896394 -0.019621324479445743 0.043185959622653709 0.0046248101891568022 -0.080153583782316976 0.087762022735741671 0.033946586979490767 -0.099484788811826916 -0.034203594694156271 -0.010951846957097845 0.050205442569596609 0.090169332832477508 0.060274122704779054 -0.051491877003407904 -0.053643034603722328 -0.082782632566800241 -0.012152485753445815 0.09472919993943768 -0.038581728707235988 0.049018077108730823 0.1030666065118179 -0.0049526705444409552 -0.01802430543417604 0.070838764326161971 0.05868143736881111 -0.041727014596487817 -0.085376603375310278
leaf_weight=10.797587654553352 38.511703548021615 7.0630565406754604 93.592129751108587 18.894835242303088 22.178480956703424 23.109890153631572 33.416858028620481 4.1261011743918123 25.895083068404347 12.414892987813802 10.115541836712508 45.454717735294253 6.836377650499343 4.2133385855704573 2.0525935795158139 3.3241507750935844 76.818768471013755 2.308235933072865 7.4093992433045051 9.775494307279585 5.2090229075402048 3.6973227970302096 9.6004987116903084 18.783633759012446 4.2489958060905328 3.410992354154585 4.9029699731618166 3.2796430978924027 18.885113234631717 1.8853907790035007
leaf_count=68 462 249 630 782 215 164 381 118 161 70 487 746 70 44 16 50 1912 57 343 257 29 29 66 106 20 20 30 36 273 26
internal_value=0 -0.036671 0.0430942 -0.0619595 0.0278301 0.00936178 -0.012729 -0.0822614 0.0655702 0.0577052 -0.0658434 -0.019778 0.0308269 -0.00995838 0.00957521 -0.0505466 -0.0470461 0.0135892 -0.0498751 -0.0323357 0.0357035 0.0173033 0.0727182 0.0847855 0.0499543 0.0576268 0.0343807 0.00173439 -0.0295173 0.00829095
internal_weight=0 287.535 244.678 139.836 145.717 52.1247 147.699 50.3214 98.961 73.0659 31.4265 112.23 29.9463 66.7752 35.4695 89.5142 82.4512 5.63239 21.311 13.9016 29.6352 16.1122 43.4307 28.3841 15.0466 13.523 8.31396 41.7913 24.9838 6.09873
internal_count=7917 6239 1678 4255 1079 449 1984 1987 599 438 1205 1587 234 841 397 2268 2019 107 718 375 178 99 260 172 88 79 50 498 343 70
is_linear=0
shrinkage=0.1


Tree=18
num_leaves=31
num_cat=0
split_feature=6 6 6 6 2 3 5 8 2 3 7 6 2 6 3 5 3 8 7 7 8 7 1 6 5 0 8 6 2 8
split_gain=74.2592 13.6068 9.34107 3.58013 3.01047 2.28429 2.09268 1.90563 1.85484 1.8508 1.79532 1.69142 1.60518 1.51555 1.49271 1.431 1.38174 1.35643 1.79284 1.89926 1.43635 1.26211 2.17078 1.24978 1.23155 1.63146 1.19561 1.26225 1.18582 1.17203
threshold=35.500000000000007 23.500000000000004 57.500000000000007 11.500000000000002 1.5000000000000002 1.5000000000000002 2.5000000000000004 52.500000000000007 3.5000000000000004 1.0000000180025095e-35 14.500000000000002 13.500000000000002 2.5000000000000004 96.500000000000014 2.5000000000000004 2.5000000000000004 1.5000000000000002 80.500000000000014 61.500000000000007 49.500000000000007 34.500000000000007 20.500000000000004 1.0000000180025095e-35 83.500000000000014 2.5000000000000004 1.5000000000000002 74.500000000000014 26.500000000000004 3.5000000000000004 77.500000000000014
decision_type=2 2 2 2 2 2 2 2 2 2 2 2 2 2 2 2 2 2 2 2 2 2 2 2 2 2 2 2 2 2
left_child=1 3 12 7 10 17 9 15 14 -4 -5 -7 16 -11 26 -1 -2 18 19 -6 -20 22 -13 -8 25 29 27 -3 -23 -14
right_child=2 8 6 4 5 11 23 -9 -10 13 -12 21 24 -15 -16 -17 -18 -19 20 -21 -22 28 -24 -25 -26 -27 -28 -29 -30 -31
leaf_value=0.086375596710168118 -0.056904447926950853 0.0068926851172133249 -0.085877618701821659 -0.040000357758720677 0.0257997734125502 0.10888971049355207 -0.070373441508809129 0.11530727219499973 0.029281728360082478 -0.041546950666233526 0.031792199838356121 -0.044633865148408232 -0.033898449711459964 -0.11440626842837286 0.012911936644175379 0.015313062354601538 -0.023944184936076175 0.071905564504257821 0.098546314698774479 -0.050217075566855209 0.029724423079967466 0.055198120544122632 0.07498279260903401 -0.10917565511272653 -0.032920778217695783 0.02421413807659225 0.0079711461255960597 -0.040180684661165283 0.089610455393426824 0.016679603108819472
leaf_weight=7.282558709150182 18.309229717589915 7.9581503290683058 14.032087877276352 3.7257982306182376 11.90653460938484 8.7707709977403265 27.76873579248786 11.887018203269688 24.950469653122127 54.447135768015869 53.505568692926317 2.8692535548470905 14.708556659519674 3.0129512675339347 36.604253172874451 4.6387104894965887 41.654683299828321 8.6264425143599492 4.7149953469634047 4.5399569142609826 8.4985351376235467 28.74917527846992 3.2195712849497795 11.840152663527986 16.527601179666817 15.831629104912279 15.285930162295697 20.042500441893935 15.365535661578177 6.6543654873967162
leaf_count=50 407 73 464 23 87 54 881 79 218 1671 371 26 231 163 342 29 697 53 27 26 55 184 17 641 284 174 158 255 84 93
internal_value=0 0.0340689 -0.0429131 0.0508788 0.0453161 0.0560242 -0.063534 0.0869751 0.00548069 -0.0533185 0.0271185 0.0683723 -0.0227611 -0.0453674 -0.00195254 0.0587243 -0.0340082 0.037004 0.026853 0.00481577 0.0542822 0.0612937 0.0186155 -0.0819725 -0.0102073 -0.000114421 -0.0145223 -0.0268018 0.0671842 -0.0181438
internal_weight=0 283.142 224.787 178.3 154.492 97.2608 111.101 23.8083 104.841 71.4922 57.2314 58.9743 113.686 57.4601 79.8908 11.9213 59.9639 38.2865 29.66 16.4465 13.2135 50.2035 6.08882 39.6089 53.7222 37.1946 43.2866 28.0007 44.1147 21.3629
internal_count=7917 2211 5706 1165 1007 613 3820 158 1046 2298 394 365 1886 1834 828 79 1104 248 195 113 82 311 43 1522 782 498 486 328 268 324
is_linear=0
shrinkage=0.1


Tree=19
num_leaves=31
num_cat=0
split_feature=6 6 6 6 5 2 3 3 5 5 6 8 5 8 7 0 6 5 8 8 0 8 0 6 0 4 1 1 7 7
split_gain=64.8874 15.4563 6.13627 3.62055 3.1427 2.1151 1.94731 1.90882 1.88786 1.67317 1.52098 1.76723 1.76798 2.09856 1.53561 1.78885 2.08375 1.50555 1.45515 2.72409 1.4096 1.32507 1.30736 1.36134 1.28084 1.23742 4.24716 3.33526 1.46158 1.38211
threshold=41.500000000000007 21.500000000000004 68.500000000000014 15.500000000000002 2.5000000000000004 1.0000000180025095e-35 3.5000000000000004 1.5000000000000002 3.5000000000000004 2.5000000000000004 89.500000000000014 52.500000000000007 2.5000000000000004 54.500000000000007 71.500000000000014 1.0000000180025095e-35 78.500000000000014 3.5000000000000004 38.500000000000007 72.500000000000014 1.5000000000000002 54.500000000000007 1.5000000000000002 29.500000000000004 1.5000000000000002 1.0000000180025095e-35 1.0000000180025095e-35 1.0000000180025095e-35 80.500000000000014 68.500000000000014
decision_type=2 2 2 2 2 2 2 2 2 2 2 2 2 2 2 2 2 2 2 2 2 2 2 2 2 2 2 2 2 2
left_child=1 3 5 25 7 21 -7 20 -6 -5 11 -4 14 -14 24 -16 -17 -11 -19 -20 -3 -2 -9 -24 -13 27 29 -1 -28 -27
right_child=2 4 10 9 8 6 -8 22 -10 17 -12 12 13 -15 15 16 -18 18 19 -21 -22 -23 23 -25 -26 26 28 -29 -30 -31
leaf_value=0.047456888313511907 -0.037576076883746791 0.0099905404347359894 -0.083904723320314026 0.047638897547607029 -0.034235776522335851 -0.036095128289740083 -0.0043357104893183519 0.015147773520375564 0.0038900314170956804 -0.0082873292931810554 -0.097314595547113344 -0.075470954657675782 0.076511832635670102 -0.094299747879011131 -0.069627248173595224 0.11117346051432708 -0.020639715337673312 0.074761688738494189 -0.038011945434821774 0.058949078393062959 -0.034356861633734047 -0.093052545600708095 0.067126745080763009 0.01988457036257929 -0.010550638080570444 0.066611788208647368 0.035255886827967403 0.1062589195707488 -0.031385699133288057 0.12613281183911723
leaf_weight=17.907105969265103 8.6108796992339212 25.366796406917274 22.087113901041448 48.657567124813795 24.759996825363487 69.400342012289912 26.746143724769354 39.38167620357126 27.316327082924545 12.84428731352091 16.622645942261443 7.6247762800194376 0.78071134444326062 9.1379071800038201 2.0245184064842752 2.2997916648164392 2.5062746317125857 6.4119455367326763 5.2497190842404944 6.4668277055025101 9.9900396354496461 8.6110514500178379 12.784729482606055 11.665241254493592 5.0530094229616225 10.467702365247535 12.566076971124859 20.908778714481741 4.4587903805077067 6.2190333579201242
leaf_count=132 226 273 911 312 347 1506 409 379 330 104 997 250 17 342 71 38 65 37 42 44 123 244 91 136 132 73 91 125 27 43
internal_value=0 0.0282919 -0.0472957 0.0507954 0.00565555 -0.0330411 -0.0272603 0.0160997 -0.0142371 0.0360739 -0.0710128 -0.0625258 -0.0464793 -0.0808549 -0.0290017 0.00922108 0.0424353 0.0179055 0.0364636 0.0155047 -0.00253977 -0.0653146 0.0264242 0.0445872 -0.0495955 0.0669586 0.0529427 0.0791315 0.0178025 0.0887949
internal_weight=0 303.423 181.505 152.158 151.265 113.368 96.1465 99.1885 52.0763 79.6303 68.1367 51.5141 29.427 9.91862 19.5084 6.83058 4.80607 30.9728 18.1285 11.7165 35.3568 17.2219 63.8316 24.45 12.6778 72.5275 33.7116 38.8159 17.0249 16.6867
internal_count=7917 2709 5208 1030 1679 2385 1915 1002 677 539 2823 1826 915 359 556 174 103 227 123 86 396 470 606 227 382 491 234 257 118 116
is_linear=0
shrinkage=0.1


Tree=20
num_leaves=31
num_cat=0
split_feature=6 6 6 6 5 6 3 2 7 6 3 8 0 3 7 6 2 2 4 8 5 5 3 7 3 5 8 8 8 5
split_gain=57.4166 11.4607 7.6114 2.45753 2.33911 2.25547 1.91224 1.7645 1.90818 1.70382 1.80393 1.59844 1.66521 1.40341 2.68155 1.51089 1.61494 1.34637 1.41405 1.33433 1.29394 1.2357 1.18131 1.78304 2.13225 1.59976 1.77678 1.47 1.46083 1.30646
threshold=31.500000000000004 53.500000000000007 15.500000000000002 89.500000000000014 2.5000000000000004 24.500000000000004 1.5000000000000002 3.5000000000000004 76.500000000000014 11.500000000000002 2.5000000000000004 89.500000000000014 1.5000000000000002 2.5000000000000004 19.500000000000004 86.500000000000014 2.5000000000000004 3.5000000000000004 1.0000000180025095e-35 52.500000000000007 2.5000000000000004 2.5000000000000004 3.5000000000000004 17.500000000000004 2.5000000000000004 2.5000000000000004 16.500000000000004 54.500000000000007 58.500000000000007 3.5000000000000004
decision_type=2 2 2 2 2 2 2 2 2 2 2 2 2 2 2 2 2 2 2 2 2 2 2 2 2 2 2 2 2 2
left_child=2 6 9 4 7 22 -2 8 13 19 -11 12 -9 15 -15 -3 -17 -7 -19 21 -8 -1 23 24 -4 27 -27 -25 -29 -28
right_child=1 3 5 -5 -6 17 20 11 -10 10 -12 -13 -14 14 -16 16 -18 18 -20 -21 -22 -23 -24 25 -26 26 29 28 -30 -31
leaf_value=0.090784554496040559 -0.030627880862466029 -0.08910941311119995 -0.056220763390168238 -0.094713371520059833 -0.07300398299673784 -0.00057299685986220486 0.0045542352350859223 -0.054488945380671984 -0.017839465923533724 0.035823676539435148 0.075177187602086804 0.06608161602906823 0.019460115354484726 0.043816187796905354 -0.058930044379181493 -0.1162410511035505 0.08883877913820154 0.065851842053562398 0.0013396883522072568 0.11358426641264707 -0.022602604931807851 0.021255911853470699 0.054001121397829047 0.023366456129843453 0.054165504771757939 0.093652452295631516 -0.020100330051716978 0.11952281231320919 0.049931794071669047 0.0253065427150042
leaf_weight=6.372453588992359 41.615278944838792 17.248293077806014 5.0937923714518538 15.223708801320752 33.623029935639352 43.785013474524021 54.348872487433255 7.4733512646052969 13.851933611091225 26.271900433814153 20.925696935853921 2.3126004533842197 5.1391034142579883 3.0659507298842099 14.810723783448337 0.61652568238787231 1.0180235099978745 7.2010737936943752 6.4328876063227654 10.14380088704638 25.909053478389978 4.2682415992021561 20.786845347844064 20.348053254187107 2.6655975878238678 2.5089356079697636 11.240405799821019 3.4826491996645954 22.532260591164231 14.524373349733651
leaf_count=50 756 600 42 997 1197 473 714 233 411 192 141 36 115 58 448 42 14 55 72 79 452 29 139 153 17 17 104 18 152 111
internal_value=0 -0.0345699 0.0357302 -0.0573045 -0.0515612 0.023858 -0.0132325 -0.0405601 -0.0494706 0.0637773 0.0532716 -0.0103442 -0.0243575 -0.0613901 -0.0413085 -0.0804016 0.011486 0.00797181 0.0354132 0.0876337 -0.0042126 0.0628949 0.0326983 0.0273241 -0.0182996 0.0320672 0.0133196 0.0435001 0.059248 0.00549688
internal_weight=0 236.256 228.584 114.383 99.1595 160.602 121.873 65.5365 50.6115 67.9821 47.1976 14.9251 12.6125 36.7595 17.8767 18.8828 1.63455 57.419 13.634 20.7845 80.2579 10.6407 103.183 82.3961 7.75939 74.6367 28.2737 46.363 26.0149 25.7648
internal_count=7917 6073 1844 4151 3154 1353 1922 1957 1573 491 333 384 348 1162 506 656 56 600 127 158 1166 79 753 614 59 555 232 323 170 215
is_linear=0
shrinkage=0.1


Tree=21
num_leaves=31
num_cat=0
split_feature=6 6 6 5 2 5 5 6 2 2 6 4 1 1 8 4 1 1 0 7 7 0 3 0 6 5 6 3 6 6
split_gain=51.6347 11.2819 5.32361 2.94578 2.42785 2.37718 2.20671 2.18257 2.16802 1.83533 1.75175 1.56059 3.77028 2.88745 2.60703 1.47918 7.77565 4.85251 1.59107 1.96392 1.8145 1.37317 1.36127 1.30546 1.82664 1.58044 1.2613 1.23762 2.00314 1.20876
threshold=39.500000000000007 21.500000000000004 78.500000000000014 2.5000000000000004 1.5000000000000002 3.5000000000000004 2.5000000000000004 11.500000000000002 1.5000000000000002 1.5000000000000002 48.500000000000007 1.0000000180025095e-35 1.0000000180025095e-35 1.0000000180025095e-35 90.500000000000014 1.0000000180025095e-35 1.0000000180025095e-35 1.0000000180025095e-35 1.0000000180025095e-35 65.500000000000014 36.500000000000007 1.0000000180025095e-35 3.5000000000000004 1.0000000180025095e-35 66.500000000000014 3.5000000000000004 76.500000000000014 3.5000000000000004 77.500000000000014 16.500000000000004
decision_type=2 2 2 2 2 2 2 2 2 2 2 2 2 2 2 2 2 2 2 2 2 2 2 2 2 2 2 2 2 2
left_child=1 7 6 9 -4 -5 10 -1 -9 -3 -2 13 14 21 23 17 -17 29 19 -18 -20 -8 -11 -13 25 -25 -15 28 -12 -10
right_child=2 3 4 5 -6 -7 11 8 15 22 27 12 -14 26 -16 16 18 -19 20 -21 -22 -23 -24 24 -26 -27 -28 -29 -30 -31
leaf_value=0.078429395573697713 -0.005049495378563508 -0.0015361748854542689 -0.11040857811162237 -0.037859121220121174 -0.057012544802540255 0.0074977535462055576 -0.052782343621446619 0.024382213163297729 0.048815037704123841 0.019121811840055999 -0.046759190598269898 -0.081367650427979235 -0.076082324282290351 -0.041999992279827231 0.098185611977618992 0.086825576717039055 -0.08913703637148368 0.097434972621143659 0.07355077484645961 0.011424781256853275 -0.0068129061442039262 -0.12453207813561151 0.055063634261575949 -0.081852809698546899 0.08259127431070401 0.022848161575091688 0.077054265928539131 -0.011004964429087251 0.086842667279041635 -0.0075644123276813044
leaf_weight=19.271863535745069 30.948480096645653 32.451097629964352 13.277060668915508 21.866230486892164 23.743443736224435 24.504418153315783 3.8689745455048987 43.553204892203212 8.6108966544270498 40.470910968258977 42.239255198044702 2.4652696186676604 11.004660621052608 9.2281996542587859 2.3818259816616782 18.029259394388646 3.8738279361277845 21.487144534476101 4.0977023523300877 3.8943629488348961 8.9373543001711351 8.5885957998689246 14.247359741479157 2.7433108808472753 2.0725375378970057 3.0385842069517821 0.98483846709132272 16.459518619114533 1.1528715873137105 6.8104007383808485
leaf_count=158 465 357 782 311 1205 299 98 331 67 442 1238 78 360 291 28 128 28 143 29 22 63 229 110 74 50 66 23 346 35 61
internal_value=0 0.0272149 -0.0425112 0.00647319 -0.0761625 -0.0138904 -0.0334296 0.0472044 0.04216 0.0173058 -0.0243652 -0.0511766 -0.0332378 -0.0699349 0.00388298 0.0523827 0.0387585 0.0667171 -0.00289904 -0.0387232 0.0184502 -0.102249 0.0284802 -0.0178824 0.00204367 -0.0268289 -0.0305196 -0.0343531 -0.0432096 0.0239166
internal_weight=0 272.106 174.197 133.54 37.0205 46.3706 137.177 138.566 119.294 87.1694 90.8001 46.3768 23.7062 22.6706 12.7015 75.7409 38.8325 36.9084 20.8032 7.76819 13.0351 12.4576 54.7183 10.3197 7.85443 5.7819 10.213 59.8516 43.3921 15.4213
internal_count=7917 2549 5368 1519 1987 610 3381 1030 872 909 2084 1297 656 641 296 541 270 271 142 50 92 327 552 268 190 140 314 1619 1273 128
is_linear=0
shrinkage=0.1


Tree=22
num_leaves=31
num_cat=0
split_feature=6 6 6 5 5 5 2 3 6 6 2 6 8 2 6 8 5 8 7 5 3 2 3 2 3 7 5 3 7 6
split_gain=45.2131 8.17129 7.26926 3.36054 3.01362 5.64265 2.21512 2.04086 1.90793 1.62568 1.51067 1.81703 1.49679 1.46425 1.35822 1.34705 1.30295 1.47275 1.80776 1.15651 1.14707 1.14526 1.11665 1.10404 1.03399 1.1555 1.07002 0.991647 1.18132 2.80883
threshold=36.500000000000007 21.500000000000004 57.500000000000007 2.5000000000000004 2.5000000000000004 3.5000000000000004 2.5000000000000004 3.5000000000000004 15.500000000000002 81.500000000000014 3.5000000000000004 25.500000000000004 70.500000000000014 2.5000000000000004 13.500000000000002 53.500000000000007 1.0000000180025095e-35 69.500000000000014 49.500000000000007 3.5000000000000004 1.0000000180025095e-35 1.5000000000000002 3.5000000000000004 3.5000000000000004 1.0000000180025095e-35 92.500000000000014 1.0000000180025095e-35 2.5000000000000004 82.500000000000014 45.500000000000007
decision_type=2 2 2 2 2 2 2 2 2 2 2 2 2 2 2 2 2 2 2 2 2 2 2 2 2 2 2 2 2 2
left_child=1 4 6 10 8 12 -2 9 -1 -4 11 -3 15 -14 -7 -6 22 18 -18 20 -5 -16 -12 -9 -13 26 -26 -8 -29 -30
right_child=2 3 7 19 5 14 27 23 -10 -11 16 24 13 -15 21 -17 17 -19 -20 -21 -22 -23 -24 -25 25 -27 -28 28 29 -31
leaf_value=0.07459762663092237 -0.0334943969055767 0.039806684618218402 -0.055931746498681295 -0.079751610483137669 -0.0087318018176588859 0.093331910642470303 -0.016748502880602704 -0.044850192395047173 0.043201581880169766 -0.088998555883154348 -0.029859502792892637 -0.034257512547350752 0.003865596318074128 -0.086683374783952008 0.01093240889181412 0.051753823891895069 0.087299828260742271 0.10706848364948998 -0.0033468842955330898 0.0015786330577213876 -0.020087052416892303 0.061391404144670127 0.060195298530396568 0.0075078260103341385 0.028532212724626423 0.067505959131916746 -0.012408850872922497 -0.0028310174757493192 -0.046433818005861278 0.092285984162073634
leaf_weight=35.592114322935231 48.077273617032915 16.810023043304682 42.979937878553756 4.0875094383955028 13.330370117910212 7.792486535850915 24.037800408899784 16.532283196807843 42.430947620421648 22.731360393692739 3.5374658070504692 7.0429109744727603 3.2578641287982455 3.9525369219481945 6.8414259850978878 5.0870309709571293 4.0338339582085592 4.7052905559539786 4.8396293232217431 20.034034027718008 15.221527368761597 13.132037912495433 2.2543921247124672 5.3244178649038068 9.8165829367935711 2.9693548642098895 18.254639575257897 15.025326770730318 2.151381652802228 4.5397313619032502
leaf_count=290 1055 148 1654 54 107 64 463 633 312 1392 39 91 33 26 62 41 33 26 50 247 215 95 14 141 105 31 202 218 31 45
internal_value=0 0.0280173 -0.0378441 0.00837626 0.0449965 0.0266909 -0.0185055 -0.0585659 0.0575237 -0.0673705 0.0208946 0.0124222 -0.00714655 -0.0457708 0.0579226 0.0079748 0.0449041 0.0618425 0.0378607 -0.0152534 -0.0327174 0.0441079 0.00519295 -0.0320955 0.000334693 0.00818345 0.00190835 -0.00275554 0.0127332 0.0476837
internal_weight=0 245.024 181.4 113.607 131.417 53.3938 93.8315 87.568 78.0231 65.7113 74.2641 54.8935 25.6278 7.2104 27.766 18.4174 19.3706 13.5788 8.87346 39.3431 19.309 19.9735 5.79186 21.8567 38.0835 31.0406 28.0712 45.7542 21.7164 6.69111
internal_count=7917 2285 5632 1255 1030 428 1812 3820 602 3046 739 577 207 59 221 148 162 109 83 516 269 157 53 774 429 338 307 757 294 76
is_linear=0
shrinkage=0.1


Tree=23
num_leaves=31
num_cat=0
split_feature=6 6 6 3 2 8 6 2 6 8 8 5 5 7 7 6 8 0 5 2 8 3 8 8 6 4 1 1 7 7
split_gain=44.1441 8.53479 6.12755 2.09181 2.02653 1.75712 1.5356 1.43625 1.42748 1.31093 1.42574 1.23932 1.9989 1.21221 1.26189 1.11488 1.08328 1.07627 1.2271 0.987644 0.978051 0.971627 0.966128 1.09379 0.972534 0.907615 3.70845 1.36584 1.05765 0.936403
threshold=31.500000000000004 55.500000000000007 16.500000000000004 3.5000000000000004 1.5000000000000002 10.500000000000002 23.500000000000004 1.5000000000000002 81.500000000000014 53.500000000000007 49.500000000000007 2.5000000000000004 3.5000000000000004 84.500000000000014 63.500000000000007 26.500000000000004 24.500000000000004 1.0000000180025095e-35 2.5000000000000004 1.0000000180025095e-35 29.500000000000004 2.5000000000000004 69.500000000000014 70.500000000000014 47.500000000000007 1.0000000180025095e-35 1.0000000180025095e-35 1.0000000180025095e-35 79.500000000000014 52.500000000000007
decision_type=2 2 2 2 2 2 2 2 2 2 2 2 2 2 2 2 2 2 2 2 2 2 2 2 2 2 2 2 2 2
left_child=2 7 11 8 15 -5 -6 -2 -3 10 17 -1 -13 14 21 -4 -17 20 -19 -7 -8 -11 24 -24 -9 27 -27 29 -28 -21
right_child=1 3 4 5 6 19 9 22 -10 13 -12 12 -14 -15 -16 16 -18 18 -20 25 -22 -23 23 -25 -26 26 28 -29 -30 -31
leaf_value=0.068356178241072069 -0.029847004819605796 -0.054275613433795368 0.014217878757304195 0.10881763093318364 0.043912281814415637 -0.084519994134379356 -0.058443305171322124 -0.0058262254878784399 -0.085504802809672611 -0.038396427319112289 0.11686534742179969 0.015554752859594149 0.067749943863633658 -0.067240582019310199 0.050951040610342981 0.036487350544863704 -0.032652856710642011 0.062957071293512107 -0.0088731557274776014 -0.1334401099489779 0.031548166605633747 0.020620059106864933 0.0883306969151854 0.0038981304356260822 -0.037051211322317784 0.047773189814682385 -0.10378057873890577 -0.010603696841257655 0.0070556697738376299 -0.043697353880979617
leaf_weight=41.289577436167747 39.17452197521925 46.451899121631868 37.208137974143028 0.88259456469677644 41.409910253249109 3.4217865234240916 2.4626480303704801 35.769616669043899 21.370695372053888 5.9973118118941802 1.897515658289193 14.77275276160799 14.577300984878093 2.534185590222477 4.6638170685619107 2.8349840231239787 11.292768830433486 8.1272586435079557 3.3621753361076108 2.2513986801495776 2.3699273644015193 5.2158368304371834 1.6347352871671343 24.976169967092574 13.831864994019268 5.700550761888735 3.2402545189252123 4.68205503502395 1.1724876891821621 2.4043886717408895
leaf_count=357 811 1782 341 15 336 158 31 538 1392 69 10 122 120 33 46 31 142 72 55 78 24 55 16 438 291 142 130 167 33 82
internal_value=0 -0.0323767 0.0335016 -0.0551712 0.0205683 -0.0296342 0.0307191 -0.0142856 -0.0641158 0.0158046 0.0348215 0.0571888 0.0414786 -0.00301438 0.00723702 0.00513716 -0.0187786 0.0252835 0.0419373 -0.0349766 -0.0143109 -0.0109447 -0.00628679 0.00908491 -0.0145336 -0.0262611 -0.00550457 -0.0487414 -0.0743308 -0.0870943
internal_weight=0 206.965 200.016 91.5781 129.376 23.7555 78.0406 115.387 67.8226 36.6307 18.2195 70.6396 29.3501 18.4112 15.877 51.3359 14.1278 16.322 11.4894 22.8729 4.83258 11.2131 76.2124 26.6109 49.6015 19.4511 10.1133 9.33784 4.41274 4.65579
internal_count=7917 6073 1844 3979 1245 805 731 2094 3174 395 192 599 242 203 170 514 173 182 127 790 55 124 1283 454 829 632 305 327 163 160
is_linear=0
shrinkage=0.1


Tree=24
num_leaves=31
num_cat=0
split_feature=6 6 6 3 6 6 3 2 6 8 2 5 5 2 7 8 6 6 7 6 4 1 2 8 8 8 4 6 5 5
split_gain=39.6322 7.85961 6.2379 2.25413 1.82628 1.46 1.28831 1.28082 1.40525 1.21688 1.15142 1.14122 2.28709 1.09963 1.09754 1.04731 1.06169 1.04304 1.40124 2.68123 1.3244 3.93407 1.55367 1.31155 2.36942 1.47028 1.46154 1.17836 1.0118 1.00999
threshold=35.500000000000007 17.500000000000004 67.500000000000014 2.5000000000000004 24.500000000000004 51.500000000000007 1.5000000000000002 3.5000000000000004 22.500000000000004 75.500000000000014 3.5000000000000004 2.5000000000000004 3.5000000000000004 3.5000000000000004 96.500000000000014 71.500000000000014 62.500000000000007 23.500000000000004 65.500000000000014 24.500000000000004 1.0000000180025095e-35 1.0000000180025095e-35 3.5000000000000004 82.500000000000014 67.500000000000014 53.500000000000007 1.0000000180025095e-35 26.500000000000004 3.5000000000000004 1.0000000180025095e-35
decision_type=2 2 2 2 2 2 2 2 2 2 2 2 2 2 2 2 2 2 2 2 2 2 2 2 2 2 2 2 2 2
left_child=1 11 5 17 7 6 -2 8 29 15 -11 -1 -13 -4 -6 -7 -17 23 20 -20 22 -22 27 24 25 28 -26 -19 -3 -5
right_child=2 3 13 4 14 9 -8 -9 -10 10 -12 12 -14 -15 -16 16 -18 18 19 -21 21 -23 -24 -25 26 -27 -28 -29 -30 -31
leaf_value=0.06326446401159494 -0.033819771414082191 -0.010701730713639382 -0.072211849836047476 0.063297766382664419 0.0080252895190507361 -0.032320680781844545 -0.0052316709800490063 0.088011331988247316 0.074698205200380979 -0.079698778216258426 -0.010541365824018052 0.011842595318999172 0.065299190085809228 -0.038234329584140414 0.085736267522771845 -0.025052215852837973 0.098800480389793111 0.056179947517786211 -0.13294051261753823 -0.014319522833454857 0.038010396662893207 -0.068107678815113079 0.0779488291345386 0.057650840135692452 -0.1022104835554869 0.06250811665986844 -0.00076510954556504587 -0.012859666482985203 0.059087308049756884 0.0054673278252662548
leaf_weight=46.930827968637459 23.16558959428221 10.0411674482748 41.119405776669737 4.0284163728356459 32.027602976188064 29.868512599729002 49.332886746618897 5.9509677402675143 6.6136109959334126 9.9249201789498311 3.1784175389911971 15.884381533367558 16.131522551528178 12.396547435200771 1.9267497528344382 1.5085400005336844 1.278888158034533 3.5091119958087829 2.1706071868538883 15.602378764189778 6.8729683505371231 7.1049705594778061 4.2578706843778482 6.3185013551264992 2.7623645532876244 6.4127493500709525 2.9229272846132517 8.3662569038569909 2.6193074602633706 12.063948757480828
leaf_count=409 530 97 2332 32 373 950 841 36 54 326 75 141 138 587 19 44 21 31 18 233 83 100 38 56 21 50 25 120 25 112
internal_value=0 0.0280526 -0.0360134 0.0139547 0.0281251 -0.023194 -0.0143665 0.0467155 0.0358924 -0.0371797 -0.0629236 0.053334 0.0387772 -0.0643412 0.012435 -0.0268499 0.0317721 0.00271853 -0.00654055 -0.0288067 0.00660192 -0.0159293 0.0261231 0.0169851 0.00660701 0.0234968 -0.0500553 0.00754119 0.00373682 0.0199441
internal_weight=0 220.519 171.774 141.572 62.6113 118.258 72.4985 28.6569 22.706 45.7593 13.1033 78.9467 32.0159 53.516 33.9544 32.6559 2.78743 78.9612 47.8842 17.773 30.1112 13.9779 16.1332 31.077 24.7585 19.0732 5.68529 11.8754 12.6605 16.0924
internal_count=7917 2211 5706 1523 626 2787 1371 234 198 1416 401 688 279 2919 392 1015 65 897 623 251 372 183 189 274 218 172 46 151 122 144
is_linear=0
shrinkage=0.1


Tree=25
num_leaves=31
num_cat=0
split_feature=6 6 6 5 6 5 5 5 5 2 8 8 8 2 3 7 2 0 2 8 8 0 7 8 8 7 3 0 0 8
split_gain=35.3405 8.38659 4.22224 2.17117 1.88532 1.76114 1.92634 1.39181 1.74351 1.50102 1.48211 1.39959 1.42299 1.5449 1.58385 1.34978 1.20074 1.19075 2.28548 1.37536 1.90095 1.20406 1.18901 1.18309 1.72492 1.99766 1.18269 1.11612 1.07918 1.0663
threshold=39.500000000000007 20.500000000000004 65.500000000000014 2.5000000000000004 11.500000000000002 2.5000000000000004 3.5000000000000004 2.5000000000000004 3.5000000000000004 2.5000000000000004 19.500000000000004 24.500000000000004 46.500000000000007 1.5000000000000002 2.5000000000000004 74.500000000000014 1.5000000000000002 1.5000000000000002 2.5000000000000004 23.500000000000004 16.500000000000004 1.0000000180025095e-35 53.500000000000007 67.500000000000014 76.500000000000014 41.500000000000007 1.0000000180025095e-35 1.5000000000000002 1.0000000180025095e-35 43.500000000000007
decision_type=2 2 2 2 2 2 2 2 2 2 2 2 2 2 2 2 2 2 2 2 2 2 2 2 2 2 2 2 2 2
left_child=1 4 3 17 -1 -3 -7 10 -9 -10 28 -12 13 -13 22 -14 26 19 -19 20 -2 -22 -15 -18 25 -25 -4 -5 -6 -21
right_child=2 5 16 27 7 6 -8 8 9 -11 11 12 15 14 -16 -17 23 18 -20 29 21 -23 -24 24 -26 -27 -28 -29 -30 -31
leaf_value=0.076827263933355108 -0.060317847307785791 0.015686903752981481 -0.12539788806791788 -0.033615653089383045 -0.055072046130683588 -0.032611351437143929 0.009620637831890955 0.0017026897836580691 0.022866457400490828 0.082029228871031687 0.11570242187772735 -0.01404200029309648 0.048703376390455258 -0.036401271057717365 0.10353575751651399 0.094099192017862418 -0.063141207772206817 -0.030408489935903751 0.031865261295715104 -0.064142717277426695 0.08495460610941126 -0.029331863529665388 0.057657222037610145 -0.10864804576409855 -0.052026707492784319 0.052448683487411288 -0.066575185988285421 -0.075641598587632697 0.040074869884663231 -0.022847691367762393
leaf_weight=15.968635327066293 2.2159177425783119 78.53135720314458 4.357332766987386 18.607830252265558 2.1992647740989915 19.624590653926134 24.020695277489722 17.537645949982107 10.966927295550706 7.0418728251243001 3.4939289162866762 6.0907194344326845 21.971262425882745 2.3401993522420508 3.5189130318467505 9.3317374584730697 22.307047210633755 10.922173727536576 12.800215617287902 8.5854048719629663 3.2606621785089374 1.2851967585738746 3.1570859216153622 0.95342624559998412 9.0402252207277325 3.9955635216319934 15.856897360819856 9.5692046382464486 2.6030110493302345 23.015683177160099
leaf_count=158 72 954 263 567 21 319 318 171 109 59 20 53 187 24 28 77 1236 267 188 207 36 37 22 49 462 127 966 293 29 598
internal_value=0 0.0246036 -0.0382865 -0.0248662 0.0451547 0.00673634 -0.00936848 0.0395508 0.0241452 0.0460005 0.0495609 0.0546669 0.0500719 0.0248661 0.0511497 0.0622363 -0.0597222 -0.0144179 0.00319341 -0.0253082 0.0156248 0.0526437 0.0176164 -0.048844 -0.0260457 0.0214133 -0.0792549 -0.0478881 -0.0034989 -0.0340668
internal_weight=0 228.398 146.773 90.2623 106.221 122.177 43.6453 90.2526 35.5464 18.0088 54.7061 49.9038 46.4099 15.1069 9.0162 31.303 56.5105 62.0853 23.7224 38.3629 6.76178 4.54586 5.49729 36.2963 13.9892 4.94899 20.2142 28.177 4.80228 31.6011
internal_count=7917 2549 5368 2265 958 1591 637 800 339 168 461 411 391 127 74 264 3103 1405 455 950 145 73 46 1874 638 176 1229 860 50 805
is_linear=0
shrinkage=0.1


Tree=26
num_leaves=31
num_cat=0
split_feature=6 6 6 6 3 3 8 2 6 7 2 8 6 0 2 5 1 8 8 8 8 7 8 2 3 5 7 8 3 6
split_gain=33.8926 8.24886 3.23395 1.52086 1.40698 1.22595 0.962274 1.04847 0.959781 0.917384 1.01691 1.06806 1.17213 1.02705 0.865843 0.987551 1.17833 1.10328 1.64049 0.837632 0.822326 1.71739 1.45617 1.30491 1.63173 1.16996 1.13369 1.11776 0.823494 0.821091
threshold=42.500000000000007 21.500000000000004 70.500000000000014 14.500000000000002 2.5000000000000004 1.5000000000000002 91.500000000000014 1.5000000000000002 89.500000000000014 92.500000000000014 3.5000000000000004 27.500000000000004 45.500000000000007 1.5000000000000002 3.5000000000000004 1.0000000180025095e-35 1.0000000180025095e-35 74.500000000000014 39.500000000000007 41.500000000000007 19.500000000000004 35.500000000000007 16.500000000000004 3.5000000000000004 1.5000000000000002 2.5000000000000004 22.500000000000004 24.500000000000004 3.5000000000000004 52.500000000000007
decision_type=2 2 2 2 2 2 2 2 2 2 2 2 2 2 2 2 2 2 2 2 2 2 2 2 2 2 2 2 2 2
left_child=1 3 4 -1 9 -3 7 -7 14 10 11 -2 -13 -12 15 16 17 18 -4 -15 21 -5 -23 25 -25 27 -27 -22 -29 -6
right_child=2 5 8 20 29 6 -8 -9 -10 -11 13 12 -14 19 -16 -17 -18 -19 -20 -21 23 22 -24 24 -26 26 -28 28 -30 -31
leaf_value=0.057958683200451722 -0.0092596994569058965 -0.0085266594549144835 -0.092715365719326287 0.079808453235733517 -0.002575604730511515 -0.0069454608678734143 0.044602627154024035 0.018267384678284721 -0.089553872800259796 -0.083704366019663898 -0.034242228117208687 -4.9030310991444798e-05 -0.064116373535370516 -0.050254895963195649 -0.027244615130777805 -0.075707590673905145 -0.091128917152981562 -0.095205681453224403 0.087903242087938843 0.060402648783018764 0.1060865889663834 0.014374954331638427 -0.094586020592268338 0.019339125682980161 0.093692694382500538 -0.051837550383412583 0.019959724460235029 0.04440036470084447 0.00030478677468644653 -0.030701284362815953
leaf_weight=41.435565514722839 6.2591754182940376 43.168436349136755 0.68327596923336731 2.0091774184256783 20.766788631677628 26.684353171382099 8.3263142611831409 43.187108937650919 10.674736613931598 4.747785738669335 6.0872413730248791 3.2977837952785221 21.298644100665115 0.91120425635017488 8.3487511633429694 18.232027484104037 1.8193523747613651 0.78388283820822824 1.9044753030175341 2.7440783029887825 2.490505346562716 3.0577516257762909 2.0479896403849125 4.7001142185181362 7.9333932995796204 2.5657862648367908 15.396238767541943 22.679722434375439 5.2076267807278773 20.752068543573841
leaf_count=406 178 706 46 20 371 393 96 564 997 145 174 80 765 29 342 1064 146 28 41 51 16 35 16 49 57 33 158 189 51 671
internal_value=0 0.0229559 -0.0409887 0.042853 -0.029934 0.00500035 0.0124678 0.00863844 -0.0636116 -0.042112 -0.0372479 -0.0461411 -0.0555265 -0.0090822 -0.0548955 -0.0647512 -0.0262698 0.00872849 0.0402123 0.0328175 0.0336603 0.00148887 -0.0293309 0.0374144 0.0660305 0.0299356 0.00970384 0.0418984 0.036166 -0.0166335
internal_weight=0 230.89 129.311 109.524 86.8648 121.366 78.1978 69.8715 42.4465 45.3459 40.5981 30.8556 24.5964 9.74252 31.7718 23.423 5.19099 3.37163 2.58775 3.65528 68.0883 7.11492 5.10574 60.9734 12.6335 48.3399 17.962 30.3779 27.8873 41.5189
internal_count=7917 2789 5128 1030 2464 1759 1053 957 2664 1422 1277 1023 845 254 1667 1325 261 115 87 80 624 71 51 553 106 447 191 256 240 1042
is_linear=0
shrinkage=0.1


Tree=27
num_leaves=31
num_cat=0
split_feature=6 6 6 6 2 5 7 3 2 6 0 2 6 4 1 3 6 5 6 8 5 6 7 5 0 5 6 7 6 2
split_gain=31.0756 6.92776 3.80256 1.55001 1.4796 1.27571 1.09622 1.09587 1.45738 1.291 1.06619 1.1858 1.34045 1.14348 1.27195 0.949712 1.03124 0.890767 0.863443 0.947411 1.03898 0.862806 1.21098 0.824193 0.771546 1.32769 0.840952 0.817256 0.894881 0.767743
threshold=31.500000000000004 51.500000000000007 18.500000000000004 89.500000000000014 1.5000000000000002 2.5000000000000004 91.500000000000014 2.5000000000000004 2.5000000000000004 50.500000000000007 1.0000000180025095e-35 1.5000000000000002 49.500000000000007 1.0000000180025095e-35 1.0000000180025095e-35 1.0000000180025095e-35 11.500000000000002 2.5000000000000004 43.500000000000007 60.500000000000007 1.5000000000000002 41.500000000000007 98.500000000000014 3.5000000000000004 1.0000000180025095e-35 2.5000000000000004 15.500000000000002 74.500000000000014 13.500000000000002 3.5000000000000004
decision_type=2 2 2 2 2 2 2 2 2 2 2 2 2 2 2 2 2 2 2 2 2 2 2 2 2 2 2 2 2 2
left_child=2 7 4 5 -1 -3 15 10 18 -10 11 -2 13 -13 -15 16 -6 -4 -9 -20 -21 -12 -23 -19 27 26 -26 28 -17 -27
right_child=1 3 17 -5 6 -7 -8 8 9 -11 21 12 -14 14 -16 24 -18 23 19 20 -22 22 -24 -25 25 29 -28 -29 -30 -31
leaf_value=0.029402939230377775 -0.036193370643799329 -0.03574328577674659 0.023710837879276303 -0.086708501317700901 0.095964829734383916 -0.063219608795353932 0.0061834709617432961 0.00014763105073998801 0.014369633600011242 0.11347463116671447 -0.016574004635195771 0.034789645244042197 0.11217733831218415 0.043736923861341724 -0.079523873016051155 0.075339338253978955 0.018640797008228124 -0.014593684349951667 -0.066589571718921547 0.045100536296977412 -0.061684377210860425 -0.041829631152298173 -0.15873007065153277 0.017321682587076188 0.11839471084449989 0.067792331090877025 0.065592135771472534 0.090285722193710796 0.0095049209979030328 0.0002287433078507127
leaf_weight=32.16415814741049 5.8000546542461988 51.388757273962256 57.819959552492946 9.9633908273535763 2.1840838429052374 25.176740036637057 3.9038019003346554 13.784249180927874 18.405148244462911 1.4155165860429395 17.786812150152404 5.6179195553995651 1.3738299389369775 1.2809627130627634 2.4164830250665545 3.2396057879086566 8.2014496200717968 14.62190083786845 5.3386091170832497 2.1180351832881574 1.5990056078881023 12.907364226877686 0.95147089520469386 18.117317378520966 8.8264342837501335 6.4980077240616065 4.5819819443859151 3.5176975664217016 5.6931509235873818 2.2691901735961437
leaf_count=306 131 2066 617 997 20 1272 46 222 263 13 356 90 20 24 55 35 76 219 108 37 57 349 13 225 83 60 45 31 53 28
internal_value=0 -0.0293591 0.0303317 -0.0496063 0.0460621 -0.0447782 0.0570163 -0.0100634 0.00160642 0.0214473 -0.0204061 0.00021176 0.0199655 0.00636612 -0.0368207 0.061425 0.0349021 0.0162479 -0.0156117 -0.0396001 -0.000836456 -0.0311492 -0.0498554 0.00306773 0.0693801 0.080565 0.100351 0.0494585 0.0333808 0.050305
internal_weight=0 177.324 171.639 86.5289 81.0796 76.5655 48.9154 90.7955 42.6606 19.8207 48.1349 16.4892 10.6892 9.31537 3.69745 45.0116 10.3855 90.5592 22.8399 9.05565 3.71704 31.6456 13.8588 32.7392 34.6261 22.1756 13.4084 12.4505 8.93276 8.7672
internal_count=7917 6073 1844 4335 783 3338 477 1738 700 276 1038 320 189 169 79 431 96 1061 424 202 94 718 362 444 335 216 128 119 88 88
is_linear=0
shrinkage=0.1


Tree=28
num_leaves=31
num_cat=0
split_feature=6 6 6 6 5 8 3 3 8 6 7 2 5 6 7 8 2 2 6 7 7 3 5 7 3 1 0 6 3 6
split_gain=28.8272 5.42166 3.12293 1.80808 1.27709 1.06645 1.59348 0.965444 1.0558 0.950765 0.963084 0.944866 0.914703 0.901187 0.858964 1.37586 0.920698 0.84832 0.84237 0.798804 0.792609 0.798238 0.778527 0.768973 0.741617 0.727275 0.723382 0.815143 0.708421 0.964108
threshold=31.500000000000004 48.500000000000007 16.500000000000004 72.500000000000014 2.5000000000000004 73.500000000000014 2.5000000000000004 3.5000000000000004 78.500000000000014 19.500000000000004 69.500000000000014 1.0000000180025095e-35 2.5000000000000004 11.500000000000002 26.500000000000004 30.500000000000004 3.5000000000000004 1.5000000000000002 44.500000000000007 20.500000000000004 16.500000000000004 2.5000000000000004 3.5000000000000004 54.500000000000007 3.5000000000000004 1.0000000180025095e-35 1.0000000180025095e-35 14.500000000000002 1.0000000180025095e-35 99.500000000000014
decision_type=2 2 2 2 2 2 2 2 2 2 2 2 2 2 2 2 2 2 2 2 2 2 2 2 2 2 2 2 2 2
left_child=2 7 5 11 9 6 -1 12 14 10 -4 -3 -2 -7 15 -9 -16 25 -14 20 21 -11 -6 26 -13 -8 -15 -28 29 -5
right_child=1 3 4 28 22 13 17 8 -10 19 -12 24 18 23 16 -17 -18 -19 -20 -21 -22 -23 -24 -25 -26 -27 27 -29 -30 -31
leaf_value=0.022104995527959852 -0.0064041284573103348 -0.064231283532343905 0.064067248450972281 -0.10231195271371872 -0.0099564210259175303 0.1079336485528756 -0.0030281760736264171 0.11211014457878932 0.051139002475260577 -0.036986752340814819 0.014034724083251834 -0.036521645132685736 -0.023201512231421348 0.076679480919673706 -0.038845932555917548 -0.011542562368584959 0.027252204626637994 0.080416362858171234 -0.076876872928390128 0.025542033352943246 -0.061958462349313619 0.053932363191766475 0.018236298606518677 0.079870945911261426 -0.0093661948553317737 0.064377126859892789 0.045154698275218001 -0.043456726266187656 -0.056086861740920826 0.05258050045078521
leaf_weight=22.650475129717961 37.674867415800691 8.9373041336075385 11.924937135074289 6.2254214312415561 18.079279744997621 4.4483246640302267 2.8900691057788235 1.4884276827797323 4.8035262972116461 1.7328442186117166 5.6797926020808509 35.951491728541441 15.792315273545684 2.2993144989013654 6.9232606845907849 2.2755324225872755 3.0295087117701769 10.387141928222261 3.5881598033010951 45.842525521293283 2.1445026989094913 2.1811179667711258 21.375713366549462 6.6270153512596153 13.962839962914584 3.5879212096333504 2.4113403051160276 1.8229614980518816 28.578439140052069 0.42958046111743886
leaf_count=231 717 401 101 484 258 55 27 11 68 27 48 1362 359 22 127 42 34 109 117 500 26 23 262 69 362 38 29 19 1971 18
internal_value=0 -0.0289915 0.0296156 -0.0450131 0.0196869 0.0485538 0.0394329 -0.009046 0.010792 0.0278437 0.0479253 -0.0342869 -0.0154854 0.0690219 -0.00333734 0.0373549 -0.0187264 0.0627048 -0.0331391 0.021032 -0.013094 0.0136794 0.00531768 0.0558696 -0.0289253 0.0343051 0.0315252 0.0070055 -0.0629295 -0.0923136
internal_weight=0 169.661 166.085 94.0851 108.961 57.1246 39.5156 75.5756 18.5203 69.5057 17.6047 58.8516 57.0553 17.609 13.7167 3.76396 9.95277 16.8651 19.3805 51.901 6.05846 3.91396 39.455 13.1606 49.9143 6.47799 6.53362 4.2343 35.2334 6.655
internal_count=7917 6073 1844 4598 1245 599 405 1475 282 725 149 2125 1193 194 214 53 161 174 476 576 76 50 520 139 1724 65 70 48 2473 502
is_linear=0
shrinkage=0.1


Tree=29
num_leaves=31
num_cat=0
split_feature=6 6 6 2 8 8 3 3 6 2 5 2 6 5 8 2 2 8 7 6 5 8 2 6 2 5 3 4 1 7
split_gain=25.9526 4.79262 3.17077 1.71478 1.72656 1.32434 1.89476 1.31193 1.27741 1.22997 1.22827 1.23995 1.06999 1.06112 1.0349 0.971531 0.899204 0.804017 0.777945 0.936053 0.774454 0.769249 1.26735 2.62412 1.00767 0.695949 3.57027 0.681243 1.07608 0.799613
threshold=36.500000000000007 25.500000000000004 67.500000000000014 1.5000000000000002 97.500000000000014 74.500000000000014 2.5000000000000004 3.5000000000000004 11.500000000000002 2.5000000000000004 2.5000000000000004 3.5000000000000004 20.500000000000004 2.5000000000000004 57.500000000000007 2.5000000000000004 3.5000000000000004 43.500000000000007 90.500000000000014 16.500000000000004 3.5000000000000004 68.500000000000014 1.0000000180025095e-35 79.500000000000014 1.5000000000000002 1.0000000180025095e-35 1.5000000000000002 1.0000000180025095e-35 1.0000000180025095e-35 49.500000000000007
decision_type=2 2 2 2 2 2 2 2 2 2 2 2 2 2 2 2 2 2 2 2 2 2 2 2 2 2 2 2 2 2
left_child=1 3 9 8 5 6 14 21 -1 -2 11 -3 -7 17 -5 -15 -9 -8 25 -20 -17 -4 23 -23 -24 26 -10 29 -29 -13
right_child=2 10 7 4 -6 12 13 16 18 -11 -12 27 -14 15 -16 20 -18 -19 19 -21 -22 22 24 -25 -26 -27 -28 28 -30 -31
